584 300
accomplish -0.0717773 0.1464844 -0.1337891 0.0625000 -0.0722656 -0.0971680 0.2050781 0.2099609 0.2353516 -0.0605469 -0.1245117 0.1035156 0.1030273 0.2373047 0.1826172 0.1865234 -0.0668945 0.1796875 0.2753906 -0.0864258 -0.0463867 0.2500000 0.0272217 0.0751953 0.0615234 0.0432129 0.0544434 -0.3417969 -0.2119141 0.1279297 0.0708008 -0.0268555 0.0048218 0.0664062 0.0664062 -0.0688477 0.0942383 -0.0228271 0.4042969 0.1289062 0.2041016 0.4648438 0.0095215 0.1904297 -0.2792969 -0.2353516 -0.2314453 -0.0132446 0.0795898 0.1972656 -0.0854492 0.0668945 0.0234375 -0.2285156 -0.0020905 0.0678711 -0.0263672 -0.0810547 -0.1162109 -0.0468750 0.1108398 0.2041016 0.1601562 0.0219727 0.0192871 0.1796875 0.0150757 0.0561523 0.0534668 0.0625000 0.1118164 0.1347656 -0.0903320 -0.1206055 -0.0129395 -0.3632812 0.1806641 -0.0986328 -0.1069336 0.0629883 -0.1396484 -0.0791016 -0.0099487 0.1601562 -0.0169678 -0.1718750 0.1298828 0.0246582 0.1484375 0.2470703 -0.1142578 -0.1757812 -0.0069580 -0.1201172 0.2617188 -0.2773438 0.1835938 0.0864258 -0.2988281 0.1025391 -0.2871094 -0.0005112 0.0383301 -0.0245361 -0.0776367 -0.0781250 -0.1494141 -0.1630859 0.0493164 -0.1005859 0.0986328 -0.1337891 -0.0052795 0.2001953 0.1069336 0.2500000 0.1152344 -0.0617676 0.2021484 -0.2558594 -0.1396484 0.1118164 0.2080078 0.1923828 0.0039978 -0.0529785 0.0020294 0.0971680 0.0158691 0.2500000 -0.0629883 -0.1123047 0.1474609 0.0027161 0.3085938 0.1718750 -0.1591797 0.0703125 -0.1191406 0.1621094 0.0629883 -0.0311279 -0.2177734 0.0153198 0.2275391 -0.0417480 -0.3105469 -0.3320312 0.1269531 -0.1552734 0.0206299 0.2792969 -0.2392578 0.3535156 0.0942383 0.2402344 0.0922852 -0.2988281 -0.2031250 -0.0419922 -0.0302734 0.2226562 -0.2343750 -0.0524902 -0.0466309 -0.3945312 -0.2011719 -0.0703125 -0.0236816 0.1835938 -0.1206055 -0.1728516 -0.1865234 -0.2402344 0.0927734 0.1601562 0.2558594 0.0693359 -0.1552734 -0.1572266 -0.3046875 -0.0622559 0.1235352 0.2714844 -0.1591797 -0.0463867 0.1962891 -0.0957031 -0.0393066 0.0135498 0.0151367 0.0076599 0.1250000 -0.0200195 -0.2714844 -0.1049805 0.1279297 -0.0346680 -0.0099487 -0.2773438 -0.0859375 0.2890625 0.0722656 -0.0166016 -0.1914062 -0.0573730 -0.2500000 -0.2451172 -0.1464844 -0.0273438 -0.1040039 0.2832031 0.0120239 0.1328125 -0.2080078 0.0196533 0.1542969 0.0336914 -0.1650391 0.0446777 -0.0264893 0.0664062 0.0961914 0.3261719 0.2470703 -0.0727539 0.0937500 0.1718750 0.1357422 0.1943359 0.1069336 0.1074219 0.1933594 -0.0041199 0.1621094 -0.1660156 -0.1079102 -0.0291748 0.0678711 0.0358887 -0.2500000 0.0130615 -0.1396484 -0.0869141 -0.0629883 -0.0468750 -0.2236328 -0.0617676 -0.0795898 0.0002785 -0.1875000 0.0795898 -0.1025391 0.1982422 0.1157227 -0.0612793 0.0346680 -0.1245117 0.0207520 -0.3046875 0.0052490 -0.3164062 -0.0294189 -0.1318359 0.2226562 0.2285156 0.2373047 -0.2236328 -0.1650391 0.0888672 -0.0059509 0.0299072 0.2275391 0.2441406 -0.1523438 -0.0312500 -0.2158203 -0.3027344 0.0153198 -0.4511719 0.1337891 0.1376953 -0.0324707 -0.0192871 -0.1503906 0.1542969 -0.1406250 -0.1406250 0.2089844 0.1318359 -0.1484375 0.0732422 -0.1127930 0.0151367 -0.3828125 -0.0593262 -0.0201416 0.1113281 0.0830078 -0.2558594
accord -0.0903320 0.1728516 0.2109375 0.2363281 0.0559082 0.0126343 0.0588379 -0.1386719 0.2089844 0.1894531 -0.2460938 -0.0664062 0.1777344 -0.0407715 -0.6523438 0.1943359 0.2851562 0.1376953 0.1123047 -0.2109375 0.1035156 0.0903320 -0.0654297 0.0400391 0.1337891 -0.0439453 -0.1142578 -0.2246094 0.1669922 -0.1494141 0.0024719 -0.5546875 -0.1425781 0.2167969 0.0310059 -0.0068359 0.0688477 0.0688477 0.0668945 0.0639648 -0.1738281 0.0022583 0.0722656 0.2138672 -0.2294922 -0.0537109 0.0742188 -0.0483398 -0.2968750 0.1318359 0.2773438 0.0129395 -0.2128906 0.1215820 0.0732422 -0.0810547 -0.3242188 0.0654297 0.0132446 -0.0244141 0.1728516 0.1718750 -0.1040039 -0.1533203 0.0451660 0.0015030 0.0708008 -0.1464844 0.0131836 -0.1215820 0.0883789 0.1552734 -0.0825195 0.1240234 0.1064453 -0.0996094 -0.1542969 0.2167969 -0.0673828 0.2246094 -0.1474609 0.0976562 -0.0262451 0.0405273 0.0581055 0.0256348 0.0603027 -0.0308838 0.1171875 0.1708984 0.0590820 -0.1699219 -0.0751953 -0.0118408 0.1054688 -0.0766602 0.0854492 -0.4179688 0.1835938 -0.5078125 -0.1259766 0.0242920 -0.1215820 0.0187988 0.2451172 -0.0050964 0.0211182 -0.3339844 -0.0810547 0.2187500 -0.1347656 0.2236328 0.2197266 -0.1474609 -0.0039978 0.5820312 -0.0244141 0.0966797 -0.1279297 0.1127930 0.1367188 0.0515137 -0.1992188 -0.0270996 -0.0659180 -0.1777344 0.1621094 -0.2480469 0.0561523 0.0688477 0.1650391 0.1108398 0.1640625 -0.0742188 0.0573730 0.2255859 -0.2148438 -0.0815430 -0.1982422 -0.1171875 -0.1347656 0.0522461 0.0336914 -0.0549316 0.0942383 0.1201172 -0.1196289 0.1328125 0.0179443 0.1933594 0.1650391 -0.1484375 -0.0539551 0.0034332 0.1650391 -0.2226562 0.0008202 0.1728516 -0.1953125 0.1357422 0.0439453 -0.0083618 0.0546875 -0.1777344 -0.0191650 -0.1894531 0.2187500 -0.0224609 0.0429688 -0.0354004 -0.2246094 0.0122070 0.0068665 -0.0622559 0.0419922 -0.2988281 0.1494141 -0.1572266 0.0013428 -0.2734375 -0.3769531 -0.2373047 0.2929688 0.2089844 0.1386719 -0.0466309 -0.0493164 0.1630859 -0.1259766 0.1923828 -0.3105469 -0.0605469 0.0864258 0.1074219 -0.1445312 0.0002975 0.1035156 0.1191406 0.2197266 -0.2158203 0.0363770 -0.1962891 0.0149536 0.1533203 0.3125000 -0.0356445 0.2050781 -0.2431641 0.1127930 0.0375977 -0.1923828 -0.0800781 0.0541992 0.2236328 0.1533203 0.0129395 0.0166016 -0.1699219 -0.2207031 0.1367188 -0.0888672 0.1054688 0.0839844 0.1708984 -0.0639648 -0.1669922 0.2675781 0.3613281 0.0922852 0.1103516 0.2402344 0.1191406 -0.1416016 -0.1171875 0.1933594 0.1181641 -0.1708984 0.1118164 0.1669922 -0.1376953 0.0086670 -0.4042969 0.0174561 -0.0937500 -0.0766602 -0.0898438 -0.0810547 0.0302734 0.1235352 -0.0688477 -0.1328125 0.0952148 -0.1210938 0.1230469 0.1845703 -0.0878906 0.1220703 0.1464844 -0.0148926 0.0307617 0.2177734 -0.0961914 0.0683594 0.2753906 0.0830078 0.1357422 -0.0086060 -0.1000977 -0.3339844 -0.1137695 0.3027344 0.0135498 0.1157227 0.1269531 -0.1953125 0.1513672 -0.1826172 0.0407715 -0.0664062 0.1562500 0.0256348 0.1347656 -0.1787109 0.4316406 0.1816406 -0.0888672 0.0483398 0.2929688 0.1118164 -0.0844727 -0.0133057 -0.1787109 0.2832031 -0.3945312 -0.2431641 0.2558594 -0.0625000 -0.1533203 0.0022583 -0.0156250
achieve -0.2275391 0.0605469 -0.1171875 0.0566406 0.0961914 -0.0385742 0.2519531 0.0178223 0.1806641 0.0834961 -0.3906250 -0.0140991 0.1699219 0.3652344 0.1020508 0.1748047 -0.1552734 0.1494141 0.1157227 0.0898438 -0.0786133 0.1611328 0.0255127 -0.0234375 0.1621094 0.0947266 -0.1591797 -0.3652344 0.2080078 0.0090942 0.0776367 -0.1806641 -0.1699219 0.0625000 -0.2080078 -0.0361328 0.0242920 0.0351562 0.3066406 0.0673828 0.1748047 0.2714844 -0.1582031 0.2119141 -0.1953125 -0.2812500 -0.1953125 -0.0093384 0.0139160 0.0878906 -0.0568848 0.1513672 -0.0805664 -0.0583496 0.1621094 -0.0011292 -0.1474609 -0.2871094 -0.1992188 -0.0371094 -0.1103516 0.1127930 -0.0218506 -0.0834961 -0.0163574 0.3886719 0.0927734 0.1367188 0.1513672 0.2373047 -0.2236328 0.1894531 0.0146484 -0.0109863 0.0693359 -0.2812500 0.1445312 -0.0058899 -0.0522461 0.0485840 -0.0559082 -0.0893555 -0.0878906 0.2001953 0.2392578 -0.0043335 0.0583496 -0.0683594 -0.0986328 0.0991211 0.0820312 -0.2812500 -0.0883789 -0.0388184 0.0505371 -0.3554688 0.1235352 0.0585938 0.0446777 0.0605469 -0.1010742 -0.0211182 -0.0737305 0.0668945 -0.1069336 0.0039978 -0.2500000 -0.0874023 0.1328125 -0.1137695 0.1660156 -0.0344238 -0.2792969 0.1796875 -0.0463867 0.1367188 -0.0209961 -0.1533203 0.1250000 -0.1738281 0.1982422 0.1523438 0.1787109 0.0126953 -0.1708984 0.0927734 0.0244141 -0.0722656 0.1279297 0.2197266 0.1318359 -0.0005417 0.0527344 -0.1386719 0.2695312 0.2031250 -0.0563965 0.1884766 -0.0163574 0.2031250 0.0388184 -0.1279297 -0.2343750 0.1215820 0.1494141 -0.0108643 -0.2060547 -0.3847656 -0.0158691 0.0595703 0.0612793 0.2402344 0.0246582 0.2451172 0.0717773 0.0693359 0.0257568 0.1137695 -0.1611328 -0.1572266 0.0073547 0.0089111 -0.0471191 0.0217285 0.0127563 -0.1826172 -0.2773438 -0.1010742 -0.0510254 0.1484375 -0.2675781 -0.1796875 -0.1826172 -0.1435547 -0.0075378 -0.0427246 0.3710938 0.0111694 -0.1640625 0.0354004 -0.2236328 -0.1572266 0.1611328 0.2031250 -0.3125000 -0.2207031 0.0913086 -0.1103516 0.0878906 0.0825195 -0.0417480 -0.1132812 -0.0045776 -0.0805664 -0.0820312 -0.0991211 0.1113281 -0.0434570 0.0002089 -0.2695312 0.0639648 0.1875000 0.0407715 -0.0703125 -0.1484375 -0.1904297 -0.3691406 -0.1166992 -0.1279297 -0.0299072 -0.0488281 0.2197266 0.0082397 0.2988281 -0.2324219 -0.0300293 0.1049805 -0.0468750 -0.0585938 0.1572266 -0.0385742 0.0461426 0.1943359 0.3769531 0.1220703 -0.0068665 0.0903320 0.0028229 0.0461426 0.0375977 0.2031250 0.0075378 0.2812500 0.0395508 0.1767578 -0.0190430 -0.1738281 0.2109375 0.1679688 0.0319824 -0.2216797 -0.0615234 -0.0639648 0.0717773 0.0112305 -0.0942383 -0.2255859 0.1318359 -0.2226562 0.0483398 -0.1259766 -0.0036774 -0.0539551 0.1826172 0.1230469 0.0678711 -0.0092163 0.0190430 -0.0703125 0.0075684 0.0776367 -0.2636719 0.0268555 0.0159912 0.2597656 0.0800781 0.0908203 -0.3203125 -0.1030273 -0.1396484 -0.1083984 0.0202637 0.1259766 0.0917969 -0.2382812 0.0156250 -0.2490234 -0.1108398 -0.1464844 -0.2265625 0.0703125 0.1943359 -0.1298828 -0.0737305 -0.0932617 0.1123047 -0.0864258 0.0140381 0.0654297 0.2031250 -0.0942383 0.3535156 -0.1250000 -0.0859375 -0.5078125 -0.1552734 -0.0026093 0.0683594 0.1367188 -0.2226562
acquire -0.0795898 0.1416016 -0.1269531 0.1098633 -0.1923828 0.0607910 0.1474609 0.0795898 0.1074219 -0.1059570 -0.2070312 -0.0322266 -0.0595703 0.1845703 -0.2216797 -0.0437012 -0.1464844 0.3769531 -0.1250000 0.1269531 -0.1406250 0.1137695 0.0551758 -0.0308838 0.1079102 0.0544434 -0.1494141 -0.1298828 -0.3144531 0.0815430 0.2636719 -0.0373535 -0.2402344 -0.0081787 -0.1787109 0.0476074 0.0082397 -0.0173340 0.0432129 0.1406250 0.0688477 0.1406250 0.0483398 -0.1181641 -0.1318359 -0.1679688 0.1542969 -0.0393066 0.0020142 0.1933594 0.2255859 -0.0947266 0.0678711 -0.4218750 -0.3203125 0.1630859 0.0480957 -0.1220703 0.0000372 0.0393066 0.3925781 0.0549316 0.1386719 0.1611328 -0.0483398 0.1118164 -0.0441895 -0.1699219 -0.0805664 0.2050781 -0.0625000 0.0118408 0.1699219 0.0903320 0.1992188 -0.1162109 -0.1455078 -0.0289307 -0.0781250 0.1826172 0.3554688 -0.0864258 -0.0008392 0.2500000 0.1904297 0.0272217 -0.1416016 0.2597656 0.1679688 0.2714844 0.0317383 0.0292969 0.0610352 0.0612793 0.0437012 -0.1176758 0.0771484 0.0561523 -0.0104370 -0.0844727 0.2080078 -0.2070312 -0.2324219 0.0212402 0.2451172 -0.2255859 -0.0466309 -0.1464844 -0.1269531 0.1484375 -0.0322266 0.2812500 -0.1396484 -0.2060547 0.3183594 0.2128906 0.1376953 0.3574219 0.2304688 -0.2988281 0.2265625 -0.0607910 -0.2890625 -0.0329590 -0.3632812 -0.2392578 -0.0996094 -0.1533203 0.1523438 -0.0040283 0.2500000 0.1640625 0.0407715 0.1621094 -0.0269775 0.2890625 0.0456543 -0.0266113 -0.3164062 -0.0024567 0.2080078 -0.0678711 -0.2138672 0.1279297 0.1289062 -0.1113281 -0.0903320 -0.1533203 -0.1318359 -0.1162109 0.1718750 -0.0854492 -0.1010742 -0.0288086 -0.1455078 0.0654297 0.0839844 -0.1171875 -0.2441406 0.2138672 0.2187500 -0.0139771 -0.1650391 -0.1552734 -0.1542969 -0.1562500 -0.0996094 -0.2773438 -0.0981445 0.0207520 -0.0683594 -0.0747070 0.1376953 -0.2138672 0.2714844 -0.0385742 0.2255859 -0.0688477 -0.1093750 -0.3515625 -0.2558594 -0.1005859 -0.1220703 -0.0888672 0.0148315 -0.3046875 0.1601562 -0.0859375 0.1040039 -0.1787109 -0.4316406 -0.0397949 -0.3046875 -0.0466309 -0.0520020 -0.0717773 0.2041016 0.0693359 -0.0432129 -0.1767578 -0.0022430 0.0336914 0.0205078 0.1748047 -0.2597656 -0.1806641 0.2773438 0.0463867 0.3457031 -0.1621094 0.1269531 -0.0825195 0.1611328 0.3144531 0.1010742 0.4101562 0.1806641 -0.1875000 0.1679688 -0.0258789 0.1474609 0.2890625 -0.0991211 0.1972656 -0.0174561 0.2050781 -0.0133667 -0.2597656 -0.1591797 -0.1650391 0.3730469 0.0334473 0.1484375 0.1367188 0.5585938 0.2285156 0.0844727 -0.0708008 0.1630859 0.1533203 -0.2412109 -0.0468750 -0.1069336 -0.0079956 0.1923828 0.0045471 0.1435547 0.0255127 -0.1035156 -0.2011719 0.2353516 -0.0336914 -0.0427246 0.2421875 0.0898438 0.1328125 0.1552734 0.0849609 -0.3671875 0.0314941 0.2470703 -0.2910156 0.0561523 -0.0283203 -0.0074768 -0.0055237 -0.0649414 -0.0319824 -0.1806641 0.1523438 -0.0986328 0.1279297 0.3046875 -0.2500000 0.1455078 0.2734375 -0.2001953 -0.1503906 -0.3652344 -0.1425781 -0.0568848 0.1552734 0.0510254 -0.0515137 -0.1542969 0.0781250 0.0454102 0.2246094 -0.0727539 -0.2109375 0.3125000 0.2597656 -0.2656250 0.1953125 0.0184326 0.1088867 0.1796875 -0.2333984 -0.0179443 -0.1533203
add -0.0087280 0.1015625 -0.0568848 0.1416016 -0.0991211 0.0119629 0.1289062 -0.0314941 -0.0109863 0.2656250 -0.1738281 -0.0471191 0.0062561 0.1416016 0.1914062 0.0017319 0.0791016 0.0319824 -0.1523438 0.0198975 -0.1552734 0.0116577 0.1127930 0.0898438 -0.0957031 0.0042725 -0.0026398 0.0173340 -0.0058594 0.0996094 -0.0032501 0.0849609 -0.1176758 -0.1367188 -0.0742188 -0.2500000 0.1220703 0.1215820 -0.0096436 0.3300781 0.3320312 0.0192871 0.1894531 0.1621094 -0.2412109 -0.3183594 -0.0712891 -0.0147705 0.2353516 0.0688477 -0.0314941 0.0297852 -0.0874023 -0.2910156 0.0512695 -0.0480957 -0.2539062 0.0363770 0.0922852 -0.1669922 0.1679688 -0.1748047 -0.0712891 -0.1269531 0.0607910 0.1484375 -0.1484375 -0.0098267 -0.1000977 0.1445312 0.0913086 0.3066406 0.0483398 0.0615234 -0.1240234 -0.2597656 0.1396484 0.0405273 -0.1396484 -0.0242920 0.0917969 -0.2041016 0.0649414 0.1533203 0.2490234 -0.0256348 -0.1040039 0.3789062 -0.2373047 0.1835938 0.2421875 0.0108643 -0.0163574 -0.1137695 -0.0607910 -0.1767578 0.0532227 0.3535156 -0.2148438 0.0869141 -0.1064453 0.0573730 -0.0703125 -0.1191406 -0.1923828 -0.1259766 0.0048828 -0.0815430 -0.0473633 -0.0119629 -0.0306396 0.0864258 0.0571289 -0.0500488 0.1992188 -0.0180664 0.1406250 0.1040039 0.1738281 -0.1137695 0.1611328 -0.2246094 -0.1054688 0.2539062 0.0184326 -0.0106201 -0.1308594 -0.1049805 0.0524902 0.2236328 0.1376953 0.1503906 -0.0314941 0.0551758 0.2490234 0.1186523 0.1982422 0.0454102 0.0319824 -0.0537109 -0.0393066 -0.2460938 -0.2968750 0.0844727 0.3339844 -0.1015625 -0.1855469 -0.0893555 -0.0986328 0.1455078 0.0947266 -0.0598145 -0.0549316 -0.0639648 0.0301514 -0.1562500 -0.0615234 -0.2500000 -0.3769531 0.0576172 0.1933594 -0.1689453 -0.1542969 -0.1328125 0.0190430 -0.1318359 0.1953125 -0.0390625 0.0419922 -0.1357422 -0.1835938 -0.1474609 -0.0005646 0.0683594 0.0593262 -0.1347656 -0.0383301 0.1044922 0.0581055 0.0052795 -0.1777344 -0.0111084 -0.0417480 0.1914062 -0.1259766 -0.0966797 -0.0009727 -0.1757812 -0.0937500 -0.1030273 -0.0356445 -0.1250000 -0.0922852 -0.2734375 -0.0678711 0.1865234 0.0267334 0.0108643 -0.1660156 -0.1542969 0.0174561 -0.0314941 -0.1171875 0.0039673 -0.2392578 0.2470703 -0.0742188 -0.0825195 0.1064453 0.0057068 0.1035156 -0.0673828 -0.0270996 0.2138672 -0.1328125 0.0625000 0.2050781 0.0131226 -0.0942383 -0.0043945 0.1708984 0.1748047 -0.1933594 -0.1035156 0.1083984 0.1181641 -0.1425781 -0.1855469 -0.1708984 0.0908203 -0.0218506 0.1640625 -0.1416016 0.2392578 -0.1269531 -0.0622559 0.1220703 -0.1225586 -0.0424805 -0.0258789 -0.2968750 0.2070312 0.0410156 -0.1088867 -0.0154419 0.1679688 -0.0820312 0.1406250 -0.1826172 -0.0654297 -0.1357422 0.0664062 -0.0834961 0.0498047 -0.0471191 0.1166992 -0.1206055 0.1445312 -0.1933594 0.0512695 0.0971680 0.0524902 -0.0544434 0.0166016 0.0622559 -0.0722656 0.0072021 0.0084839 -0.0947266 -0.2187500 0.1855469 0.0375977 -0.0444336 -0.1679688 0.0913086 -0.1049805 -0.0256348 -0.4179688 -0.0168457 0.0185547 0.0035400 -0.0476074 0.0375977 0.1035156 0.0363770 0.0461426 -0.2470703 0.0039062 0.1064453 -0.1933594 0.3105469 0.3085938 0.0776367 0.1464844 -0.1318359 -0.2099609 0.1215820 -0.0668945 0.0937500 -0.2451172
adult -0.0458984 -0.2353516 -0.1474609 0.0429688 -0.2792969 0.0334473 -0.0246582 0.2675781 -0.0471191 -0.0184326 -0.0952148 -0.1030273 0.0776367 -0.2519531 -0.1738281 0.0213623 -0.0263672 0.2128906 0.1269531 -0.0240479 0.2343750 -0.1650391 0.0140381 0.0976562 -0.2675781 -0.1777344 -0.1049805 0.3222656 0.1835938 -0.1210938 -0.0294189 -0.2265625 -0.2265625 0.0981445 -0.0170898 0.0378418 -0.0219727 0.0341797 -0.0639648 0.1640625 0.0375977 0.0844727 -0.1035156 -0.0174561 0.0307617 -0.2021484 0.1464844 0.0534668 0.0281982 -0.1914062 -0.0281982 -0.0703125 -0.2636719 0.0415039 0.3027344 -0.0395508 -0.0400391 -0.1826172 -0.2597656 0.0903320 0.0284424 0.0986328 -0.0913086 -0.1718750 -0.0766602 -0.4042969 -0.2832031 0.1601562 -0.0202637 -0.0407715 0.0030212 -0.0186768 -0.0678711 0.2197266 0.1259766 0.1523438 0.0208740 -0.0231934 0.2060547 0.0698242 0.0344238 -0.3691406 -0.1660156 0.1259766 -0.1416016 0.2578125 -0.1337891 0.2929688 0.0179443 0.1069336 -0.0722656 -0.2119141 -0.1137695 -0.1298828 0.1269531 -0.0517578 0.2832031 0.0181885 -0.1298828 -0.0458984 0.1708984 -0.0473633 -0.0439453 -0.1767578 -0.0041504 -0.1845703 0.1943359 -0.1894531 -0.0048523 -0.0546875 0.0081177 -0.0986328 -0.1835938 0.0874023 -0.1000977 -0.0644531 0.0883789 0.0471191 0.2060547 0.0247803 -0.1679688 0.0058594 -0.0461426 0.0454102 -0.0722656 0.0097656 0.1787109 0.1757812 0.1816406 0.2871094 0.0805664 -0.2099609 -0.2382812 0.1318359 -0.1298828 0.0217285 -0.0272217 -0.2138672 0.3183594 -0.0502930 0.0603027 -0.1699219 -0.2656250 0.0957031 0.1147461 0.0049438 0.1235352 0.2714844 -0.1376953 -0.1494141 0.1059570 0.0093384 -0.2246094 -0.0296631 -0.1533203 -0.2207031 -0.0612793 -0.0703125 0.0708008 0.1083984 0.0991211 -0.0397949 0.2812500 0.2197266 0.0795898 0.1235352 -0.0893555 -0.0070496 0.1542969 -0.1386719 -0.0063171 -0.3300781 0.0617676 0.0961914 -0.0639648 -0.0000128 0.0476074 0.0996094 -0.1513672 0.1806641 0.0874023 -0.1328125 -0.0986328 -0.1416016 -0.1181641 0.0349121 -0.0942383 -0.1376953 0.0698242 0.0629883 0.0600586 -0.1962891 -0.2470703 -0.0751953 0.0515137 0.1679688 0.0541992 -0.0839844 -0.2031250 -0.0634766 0.0064087 -0.0471191 0.0055237 -0.2275391 0.0016327 -0.2275391 -0.0225830 -0.2216797 -0.0693359 -0.0576172 0.0059204 -0.0373535 -0.1494141 0.0186768 0.0052795 0.1093750 0.1059570 0.0184326 0.0063477 -0.2402344 -0.0625000 -0.0673828 0.1523438 -0.1796875 0.2470703 -0.2519531 0.3417969 -0.1269531 -0.0839844 -0.1196289 0.1396484 -0.3691406 -0.1230469 -0.0471191 -0.1166992 0.0245361 -0.0322266 -0.0084229 0.0003185 0.2451172 -0.0373535 -0.1748047 0.1816406 -0.2832031 -0.3203125 0.0375977 -0.0173340 -0.0437012 -0.1074219 -0.1337891 0.1503906 0.0996094 0.0776367 0.0563965 0.1435547 0.1416016 -0.0727539 -0.0593262 -0.3007812 -0.1357422 -0.2636719 -0.2441406 0.1464844 -0.0458984 -0.0751953 0.1728516 -0.1484375 0.1591797 -0.1699219 0.1250000 -0.1357422 0.0776367 0.0839844 0.1098633 0.3378906 0.0014420 -0.0397949 -0.1630859 0.2070312 -0.0888672 0.1088867 0.0180664 0.0463867 0.1455078 -0.0693359 -0.0356445 -0.0927734 0.1298828 0.0932617 0.2519531 -0.2236328 0.0546875 0.0035400 -0.1718750 -0.1943359 0.1669922 0.0070801 0.0495605 -0.0025482 0.1367188
advance -0.0996094 -0.0257568 0.0003338 -0.0688477 -0.1738281 0.0261230 -0.2558594 -0.0311279 -0.0490723 -0.0844727 -0.2343750 0.0053406 0.3339844 0.0267334 -0.0644531 -0.0556641 0.1875000 -0.0588379 0.3105469 -0.1279297 -0.0654297 0.1455078 -0.1611328 -0.0361328 0.1328125 0.1611328 0.0417480 -0.2500000 -0.1503906 -0.0874023 0.0084839 -0.0124512 -0.2041016 -0.2890625 0.0800781 0.1040039 -0.0166016 -0.0654297 0.1943359 -0.0478516 0.0708008 0.0218506 0.0805664 -0.0278320 0.0339355 -0.1816406 -0.1835938 -0.1298828 -0.0883789 -0.0693359 0.1337891 0.2119141 0.0534668 0.0344238 -0.1650391 0.0776367 -0.0380859 -0.2792969 0.0415039 0.0751953 -0.1279297 -0.1137695 0.0874023 -0.1215820 -0.1884766 -0.1679688 -0.1245117 0.0510254 0.0134888 0.2949219 -0.1748047 -0.0649414 0.2558594 0.1074219 0.0427246 0.1103516 0.1308594 -0.0235596 -0.1181641 0.2578125 -0.1386719 -0.0932617 -0.1835938 0.1367188 0.1137695 -0.1494141 -0.1318359 0.1225586 -0.0834961 0.3261719 0.1225586 -0.0612793 -0.0478516 -0.2578125 0.1699219 -0.2929688 0.0344238 0.0011520 -0.3203125 -0.0593262 0.0629883 -0.2617188 0.1699219 -0.1503906 -0.0952148 -0.1591797 -0.2167969 -0.2597656 -0.0225830 0.1650391 0.0568848 -0.1279297 -0.1416016 -0.0346680 0.0605469 0.2197266 0.2539062 0.1132812 0.1806641 0.0976562 0.2656250 -0.0585938 0.1875000 0.1689453 -0.1923828 0.1835938 0.0927734 0.0456543 -0.0060730 0.0917969 0.0566406 -0.1787109 0.0439453 -0.0468750 -0.0932617 -0.1064453 0.0441895 -0.1298828 -0.1406250 0.1020508 0.1152344 -0.2236328 -0.2656250 0.0698242 -0.0119629 -0.0168457 0.0854492 -0.1289062 -0.1259766 0.0727539 -0.0917969 -0.0175781 -0.0515137 -0.0520020 0.0603027 -0.0466309 -0.0437012 0.0664062 -0.1215820 0.1171875 -0.0903320 0.0257568 -0.1015625 -0.0332031 0.0306396 -0.2773438 0.0065308 -0.0275879 0.0280762 0.0177002 0.0480957 -0.3242188 0.0150146 -0.1503906 -0.0344238 -0.0683594 0.0249023 0.0380859 0.0112305 0.0820312 -0.2851562 -0.1972656 0.0017700 -0.0761719 -0.0246582 -0.1083984 0.0366211 0.0878906 -0.0087891 0.1601562 0.1308594 0.0480957 -0.0089722 -0.0195312 -0.1582031 -0.1152344 0.1513672 0.0101929 -0.1835938 -0.2812500 -0.0003300 0.0339355 0.0202637 0.1289062 -0.0844727 -0.3808594 0.1582031 -0.0751953 -0.0042725 0.0036774 0.0117798 0.1000977 0.0120850 0.2490234 -0.1601562 0.1679688 0.1494141 0.0771484 -0.0339355 -0.0844727 -0.0202637 -0.0913086 0.2236328 -0.1147461 0.0600586 0.0019684 0.1923828 0.0717773 0.0751953 0.0180664 0.2373047 -0.0249023 0.0795898 0.0571289 0.0137329 -0.0211182 0.0747070 0.0834961 0.0407715 -0.3144531 0.1220703 0.2480469 0.0922852 -0.0034790 0.0786133 0.0512695 -0.0659180 0.0317383 -0.0952148 0.1171875 0.0952148 0.0022430 -0.1435547 -0.0463867 -0.0703125 0.0299072 0.2304688 -0.0507812 -0.1445312 -0.1494141 -0.0417480 0.0456543 -0.2021484 0.0451660 0.1748047 0.1191406 0.1738281 -0.0976562 -0.0354004 -0.2177734 0.0251465 0.2675781 -0.1757812 0.1132812 0.2597656 -0.0922852 -0.1376953 -0.1210938 0.1357422 0.1542969 0.2910156 -0.1250000 0.1127930 0.1572266 -0.0289307 0.1054688 -0.0400391 0.0295410 -0.1118164 0.0830078 -0.0874023 -0.2060547 -0.2148438 0.0444336 0.0212402 -0.0358887 -0.2177734 -0.0327148 0.0419922 0.0084839
agree -0.0385742 0.0262451 0.1904297 0.1210938 -0.2890625 0.1513672 0.3554688 0.1250000 0.1542969 -0.0235596 -0.1923828 -0.1054688 -0.0791016 0.1679688 -0.3222656 0.3691406 0.1982422 0.0173340 0.1069336 -0.2695312 -0.0839844 0.0795898 0.2128906 0.1904297 0.3613281 0.1083984 -0.2382812 -0.0220947 0.0556641 -0.1035156 -0.0952148 -0.1669922 -0.1611328 -0.0295410 0.1074219 -0.0429688 0.0913086 0.2578125 -0.2617188 0.1376953 -0.0703125 -0.0678711 0.1025391 -0.0191650 -0.1269531 -0.2314453 0.1601562 -0.2167969 -0.2832031 0.0112915 0.0449219 -0.0952148 -0.2001953 -0.1845703 0.1201172 0.1816406 0.0116577 0.1337891 0.1289062 -0.1079102 0.0151367 -0.1591797 -0.1425781 0.0937500 0.0432129 -0.0996094 -0.1542969 -0.0432129 -0.0581055 0.1816406 0.2167969 0.0373535 0.0588379 0.1542969 -0.2070312 -0.0776367 -0.0061646 0.1953125 0.0649414 0.3378906 -0.1787109 0.0378418 0.2119141 0.1455078 0.0410156 -0.0830078 -0.0520020 0.0456543 -0.0179443 -0.1235352 0.0727539 -0.2656250 -0.1040039 -0.1494141 -0.0144043 -0.0917969 -0.0018311 -0.0581055 -0.0859375 -0.0090942 -0.1142578 0.1425781 -0.0120239 0.0781250 0.0354004 -0.1914062 -0.0673828 -0.1542969 0.1796875 -0.0327148 -0.0717773 -0.1865234 -0.0358887 0.0634766 0.2441406 -0.0301514 0.3085938 -0.3203125 -0.1318359 0.1015625 -0.0004845 0.1601562 -0.0451660 0.0678711 -0.1621094 -0.3300781 -0.1000977 -0.1025391 -0.1225586 0.0634766 -0.0617676 -0.2197266 0.0114746 -0.0286865 -0.0223389 0.0407715 -0.2929688 0.0125122 -0.0629883 -0.0966797 -0.0133667 -0.0224609 -0.0878906 -0.1210938 0.0966797 0.2353516 -0.1079102 0.0588379 0.1875000 0.0561523 -0.1059570 0.0986328 -0.0844727 -0.1728516 0.1933594 0.0659180 0.0639648 -0.1171875 -0.1308594 0.2021484 0.0344238 -0.0018692 0.0294189 -0.1953125 0.2304688 -0.2714844 0.0825195 -0.2441406 -0.1035156 0.0966797 0.0291748 -0.1992188 0.1865234 -0.1318359 -0.0869141 0.0252686 0.0583496 0.0385742 -0.2617188 0.0473633 -0.1962891 0.0356445 0.0166016 0.4121094 0.0649414 -0.2714844 -0.1093750 -0.1416016 0.0786133 0.1591797 -0.1982422 -0.0018845 0.0776367 -0.1484375 -0.0849609 0.0991211 0.0810547 0.0571289 -0.0874023 -0.2050781 0.0027008 0.0908203 -0.0864258 -0.0227051 -0.1318359 0.1582031 -0.0786133 -0.1865234 0.1142578 -0.0317383 0.1054688 0.0883789 0.1230469 -0.0108032 -0.3867188 -0.1064453 0.0576172 -0.0351562 0.0590820 -0.0869141 -0.0864258 -0.2773438 -0.1142578 0.1855469 0.1513672 -0.1923828 0.2578125 0.0125122 -0.0415039 0.1728516 0.2246094 -0.0288086 0.0378418 0.0634766 0.0893555 0.0869141 0.1201172 0.0072632 0.2353516 0.1601562 -0.0258789 -0.0654297 0.0834961 0.0825195 -0.3554688 0.0854492 0.1181641 0.1875000 0.0456543 -0.2041016 -0.3632812 0.1718750 -0.1611328 0.1855469 0.1386719 0.0344238 -0.0179443 0.2216797 0.2285156 -0.0213623 -0.1601562 -0.1572266 0.0654297 0.1855469 0.1103516 0.1806641 -0.1186523 0.0256348 -0.1777344 -0.0996094 0.2421875 0.1533203 0.2431641 -0.1572266 0.1049805 -0.0108032 -0.2617188 -0.0810547 -0.1201172 -0.0532227 0.0629883 0.1259766 -0.1318359 0.1533203 0.0603027 -0.0795898 -0.0825195 0.1455078 0.1367188 -0.1010742 0.0937500 0.0756836 0.4199219 0.1718750 -0.0957031 -0.1435547 -0.1601562 -0.1005859 0.0180664 -0.0025635
agreement -0.0395508 -0.0281982 0.0461426 -0.1669922 0.0371094 0.0664062 0.1435547 -0.1259766 0.2060547 -0.0128174 -0.3457031 -0.0922852 0.0859375 -0.1572266 -0.5351562 0.1718750 0.1621094 -0.0991211 0.1347656 -0.0463867 -0.1083984 0.2343750 -0.0022736 -0.0490723 0.1196289 -0.0456543 -0.1259766 -0.0898438 -0.0771484 -0.0108643 0.1279297 -0.4609375 0.0913086 0.0981445 0.2353516 0.2236328 -0.0336914 0.0864258 0.0308838 0.0013885 -0.2353516 0.0488281 -0.0295410 -0.0307617 -0.3789062 -0.1123047 0.2177734 -0.0454102 -0.4726562 0.0236816 0.2773438 0.0344238 -0.1040039 -0.0065002 0.2353516 -0.1142578 -0.1660156 0.0522461 0.1562500 0.0295410 0.0961914 0.1933594 -0.1357422 0.0810547 -0.0913086 0.1118164 0.0559082 -0.0410156 -0.0245361 -0.0717773 -0.0200195 0.0231934 -0.2197266 0.0507812 0.0888672 -0.1650391 -0.1162109 0.0556641 0.0020905 0.0712891 0.0136108 -0.0493164 -0.1176758 0.1689453 0.0859375 -0.1010742 -0.1279297 0.0849609 0.2324219 0.2695312 0.1376953 -0.1025391 -0.0236816 0.0410156 -0.1533203 -0.1215820 0.1064453 -0.2138672 0.0583496 -0.3144531 -0.1699219 -0.0708008 -0.1367188 0.0600586 0.2421875 0.1396484 0.0272217 -0.3359375 -0.1982422 0.1835938 -0.0859375 0.1943359 0.2128906 -0.2890625 0.0166016 0.4257812 0.1835938 0.0110474 0.2050781 -0.0659180 0.2392578 -0.1289062 -0.1494141 0.1035156 -0.1259766 -0.0844727 -0.0688477 -0.2695312 0.3339844 0.0795898 0.1416016 0.1206055 -0.0281982 -0.0086670 0.0449219 0.2636719 -0.0546875 -0.0234375 -0.1269531 -0.0051575 -0.2050781 0.2070312 0.0196533 -0.1796875 0.1162109 0.1010742 -0.1416016 0.1982422 0.0281982 0.2011719 0.0908203 -0.0082397 0.0033722 -0.0976562 0.0561523 -0.0187988 0.0375977 0.1250000 -0.3203125 0.3027344 -0.0610352 0.0017014 -0.0136719 -0.2773438 0.0194092 -0.1552734 0.0223389 -0.1513672 -0.0363770 -0.0742188 0.0717773 -0.0346680 0.2773438 -0.1865234 0.2675781 -0.2441406 0.1767578 -0.1650391 -0.0434570 -0.3261719 -0.4375000 -0.1425781 0.2373047 0.2148438 0.2441406 -0.0781250 0.1108398 0.0903320 0.0180664 0.1943359 -0.5273438 -0.0291748 0.1533203 -0.0830078 -0.2285156 0.0300293 -0.0238037 0.1225586 0.1523438 -0.2539062 0.2167969 -0.0937500 0.3007812 0.2470703 0.1748047 -0.0332031 0.1337891 -0.2167969 0.2890625 0.1191406 -0.0145264 -0.0625000 0.0529785 0.2929688 0.1796875 0.0937500 0.2382812 -0.0854492 -0.1083984 0.1894531 0.0100708 0.0114746 0.1127930 0.3085938 0.0100708 -0.1328125 0.2968750 0.1923828 -0.0966797 -0.0566406 0.3222656 0.2558594 -0.0629883 -0.1582031 -0.0212402 0.3417969 -0.0158691 0.1972656 0.3417969 0.1484375 -0.0302734 -0.4902344 0.0444336 -0.1186523 -0.1376953 0.0683594 0.0825195 0.1708984 0.2236328 -0.1445312 -0.0859375 0.2275391 -0.2187500 -0.0234375 -0.0081177 0.0571289 0.1230469 0.0308838 -0.1982422 0.0218506 0.2363281 -0.2373047 -0.0903320 0.1406250 -0.0593262 0.1757812 -0.0134277 0.0052185 -0.3437500 0.0432129 0.3007812 0.0961914 0.1767578 -0.0610352 0.0250244 0.2539062 -0.1894531 0.1328125 -0.1513672 0.0869141 -0.0505371 0.2890625 -0.0878906 0.3964844 0.1113281 -0.1010742 0.1748047 0.3808594 0.2050781 -0.1030273 0.0119629 -0.0072632 0.1621094 -0.3515625 -0.1152344 0.3027344 0.0317383 -0.1845703 -0.2080078 -0.2050781
airplane 0.1689453 -0.2001953 -0.1611328 0.1166992 -0.1601562 -0.3574219 -0.1748047 -0.1777344 0.4531250 0.0185547 0.2519531 -0.3164062 0.2412109 -0.2890625 -0.1152344 0.3710938 0.0129395 0.1679688 0.0625000 0.0771484 -0.0449219 -0.0054626 -0.0358887 -0.2294922 0.0055542 0.0261230 -0.1298828 0.0756836 0.1376953 0.0380859 -0.2792969 -0.2871094 -0.2597656 0.0480957 0.0220947 0.0859375 -0.0092163 0.1259766 0.0595703 0.2890625 0.0742188 0.0622559 0.2851562 0.0727539 -0.0212402 -0.2792969 0.1030273 0.0375977 0.3320312 -0.1250000 -0.2656250 0.1484375 0.1196289 -0.0437012 -0.1250000 -0.2031250 0.1855469 -0.0747070 0.2500000 0.0839844 0.2695312 -0.3164062 -0.2617188 0.0375977 0.1069336 0.0260010 -0.0668945 0.0664062 -0.0378418 0.0532227 -0.1669922 -0.2431641 -0.1806641 0.0294189 -0.3847656 0.0136719 0.0976562 -0.3085938 0.1069336 -0.0864258 -0.0625000 0.0664062 -0.0240479 -0.1259766 -0.0617676 -0.2988281 -0.0101929 0.1943359 0.1914062 0.2773438 -0.0825195 0.0281982 -0.1513672 -0.0209961 0.1147461 -0.2402344 0.1308594 -0.1552734 0.1416016 -0.3417969 0.1562500 -0.3398438 0.0622559 0.0620117 0.3300781 0.1796875 0.2490234 0.0415039 0.2041016 0.0060730 -0.4628906 -0.0952148 -0.2343750 -0.1250000 -0.2675781 -0.0549316 0.0029297 0.3027344 -0.1162109 0.0175781 -0.0971680 -0.2109375 0.1474609 -0.3808594 -0.0110474 0.0791016 -0.1318359 -0.2119141 0.1259766 0.3437500 0.1367188 -0.0595703 -0.2099609 0.0986328 0.2031250 -0.1679688 -0.1088867 -0.2539062 0.1162109 0.0222168 -0.0532227 -0.1215820 -0.2050781 0.0319824 0.1982422 -0.0190430 -0.1933594 -0.2070312 -0.0683594 -0.1787109 0.1640625 -0.0917969 0.0463867 -0.0296631 -0.1572266 -0.1943359 0.0505371 -0.0507812 -0.0771484 0.1425781 -0.0346680 0.0864258 -0.0137329 -0.0185547 0.0410156 0.0898438 0.1562500 -0.1777344 0.0405273 -0.1308594 -0.1406250 -0.1484375 -0.1533203 -0.1835938 -0.0466309 -0.1601562 -0.0319824 -0.1669922 -0.1728516 -0.0125732 -0.1660156 -0.3046875 -0.1376953 -0.2519531 0.2773438 -0.0786133 -0.0385742 0.1127930 -0.2441406 0.0883789 0.1660156 0.2792969 -0.0454102 0.3574219 -0.1630859 0.1591797 -0.0407715 -0.2558594 -0.1611328 -0.1738281 -0.1079102 -0.0281982 -0.4160156 -0.3300781 -0.0059204 0.0844727 0.1103516 0.0556641 -0.2324219 0.0163574 -0.1201172 -0.0081177 -0.0300293 0.0410156 -0.1376953 0.1298828 0.0454102 0.5820312 -0.0017853 -0.0434570 -0.1020508 -0.1328125 0.1650391 0.0727539 0.4550781 -0.0166016 -0.0156250 0.2363281 -0.3085938 -0.0903320 0.1708984 -0.0620117 -0.2597656 -0.4218750 -0.2011719 0.0339355 -0.1621094 0.0588379 0.1347656 -0.0397949 0.1347656 -0.0529785 -0.2412109 -0.2460938 0.0264893 -0.1376953 -0.2480469 -0.3613281 0.0810547 -0.1884766 -0.1406250 -0.0368652 0.0356445 -0.0927734 -0.0373535 -0.1098633 0.1059570 0.1298828 0.0529785 -0.2753906 0.0527344 0.2070312 -0.0155640 0.0966797 -0.1279297 0.1474609 -0.0218506 -0.2519531 -0.4062500 0.1757812 -0.0412598 0.0539551 0.2656250 -0.0189209 -0.2363281 -0.2656250 0.0048523 -0.0683594 -0.2001953 -0.2402344 -0.0439453 -0.1435547 -0.0996094 -0.1059570 -0.0010757 -0.0830078 -0.1640625 0.0717773 -0.1386719 -0.0559082 -0.3281250 -0.1396484 0.1279297 0.0043945 0.1728516 -0.0239258 -0.2558594 0.1669922 -0.0123291 -0.2041016
airport 0.0620117 -0.0303955 0.0800781 0.0546875 0.0202637 -0.3320312 -0.3046875 -0.0189209 0.1445312 -0.1118164 0.3046875 -0.0556641 0.1494141 -0.2617188 -0.1425781 -0.0240479 0.1552734 0.1582031 0.1088867 -0.0756836 -0.0285645 -0.1269531 0.1650391 -0.0252686 0.1240234 -0.1679688 -0.0284424 0.0639648 0.1943359 -0.0952148 0.0371094 -0.3554688 -0.3183594 0.0703125 -0.0500488 -0.1845703 -0.1787109 0.1962891 -0.0717773 0.0991211 -0.0549316 0.0495605 0.1962891 0.0732422 -0.2617188 -0.4042969 0.0473633 0.0281982 0.2392578 0.1855469 -0.0927734 0.0566406 -0.0097656 -0.0023499 -0.1582031 -0.2558594 -0.1767578 0.1972656 0.0363770 0.0079956 -0.1640625 -0.1445312 -0.0888672 -0.1157227 0.1455078 0.0791016 -0.2382812 0.0375977 0.0888672 -0.0737305 -0.1767578 0.0280762 0.0634766 -0.0336914 -0.5039062 -0.1074219 0.0206299 0.1328125 0.1137695 -0.1357422 -0.0883789 0.1044922 -0.0115967 0.1083984 -0.1010742 -0.0554199 0.0893555 0.1455078 0.1088867 0.0478516 0.0212402 -0.0212402 -0.3105469 0.1210938 0.0888672 -0.1464844 0.1611328 -0.1826172 0.0634766 -0.2099609 -0.0106201 0.0957031 0.1826172 0.2656250 0.4218750 0.0878906 0.1660156 0.0009003 0.1503906 -0.2255859 -0.2138672 -0.0268555 0.0947266 -0.0966797 -0.3906250 0.0605469 0.0598145 0.0216064 -0.0039062 0.0449219 -0.1337891 -0.0693359 -0.2119141 -0.2275391 -0.0493164 -0.0038910 -0.1250000 -0.1337891 0.3867188 -0.0011902 0.0334473 -0.1865234 0.0314941 -0.0303955 0.0917969 -0.3613281 -0.0422363 -0.0292969 0.0800781 0.1464844 -0.2197266 -0.1650391 0.0185547 0.0488281 0.1367188 -0.0432129 -0.2500000 -0.1191406 0.0101318 -0.2187500 0.1079102 0.2021484 0.2314453 -0.0708008 -0.1611328 -0.1611328 0.2890625 -0.1914062 0.1279297 0.0805664 -0.2968750 0.1010742 0.1308594 0.0771484 -0.3203125 0.2207031 0.0152588 -0.3183594 0.2128906 -0.1435547 0.1166992 0.0639648 0.1611328 -0.0253906 -0.0834961 0.0996094 -0.0047607 -0.4375000 -0.0483398 0.0147095 0.0512695 0.0554199 -0.0786133 -0.1699219 0.1259766 -0.0593262 0.0363770 0.0976562 0.0057678 0.0212402 0.0908203 0.3808594 0.0349121 -0.0083618 -0.1640625 0.3417969 -0.1059570 -0.0668945 -0.2304688 -0.2050781 -0.0888672 0.2001953 -0.0071716 -0.2392578 0.2324219 0.1806641 0.2851562 0.2480469 0.1591797 -0.0278320 0.1386719 0.0466309 0.0223389 0.0593262 -0.3203125 0.2324219 -0.0169678 0.4824219 -0.2226562 0.3554688 -0.0617676 0.0288086 -0.0791016 0.1054688 0.1933594 0.0649414 -0.4121094 0.2128906 -0.1054688 0.1079102 0.4140625 0.1503906 -0.5859375 -0.0229492 0.1186523 -0.0368652 0.2949219 -0.0805664 0.3203125 -0.1386719 -0.0874023 0.0883789 -0.1064453 -0.1572266 0.0155029 -0.1669922 0.0349121 -0.2656250 -0.0917969 0.2031250 0.0225830 -0.0267334 0.0015259 0.1562500 -0.0786133 -0.1904297 0.2255859 0.3515625 -0.1679688 -0.0791016 0.0187988 0.1708984 -0.0825195 0.1445312 0.2421875 0.0771484 -0.0242920 -0.3183594 -0.3964844 0.1357422 0.1376953 -0.0756836 -0.0864258 -0.1679688 0.0625000 -0.1621094 0.2080078 0.0507812 -0.0864258 -0.2226562 -0.0334473 0.1796875 0.0468750 -0.0761719 0.0410156 0.1098633 -0.3574219 0.0236816 -0.1591797 0.2402344 -0.0145874 -0.0412598 0.2246094 0.0483398 0.0869141 0.0844727 -0.4765625 0.1044922 0.0668945 -0.1455078
alcohol -0.0615234 -0.3378906 0.0544434 -0.0267334 -0.2675781 0.1542969 0.1689453 -0.1054688 0.0446777 0.1025391 0.1108398 -0.2812500 -0.1445312 0.0678711 -0.2363281 -0.0554199 -0.2001953 0.2412109 0.4589844 -0.4042969 0.1074219 -0.1962891 0.1269531 -0.1127930 0.1220703 0.0351562 0.0727539 0.3496094 -0.0517578 -0.0717773 0.0407715 -0.2441406 -0.1367188 -0.2158203 -0.0742188 -0.1503906 -0.3046875 -0.5156250 -0.1044922 0.1923828 0.1708984 -0.3105469 0.0224609 -0.2402344 -0.1826172 -0.2382812 -0.2080078 0.0081787 0.0395508 -0.0363770 -0.0888672 0.0346680 -0.1245117 -0.0766602 0.0019989 -0.1650391 -0.2578125 0.3476562 -0.3066406 -0.1992188 0.0081787 0.2255859 -0.0091553 0.1669922 0.1367188 0.1484375 -0.0776367 0.0825195 -0.1406250 -0.0329590 -0.0534668 0.0585938 0.1992188 0.0400391 0.1650391 -0.2431641 0.0693359 0.2558594 0.3242188 -0.1015625 -0.1098633 -0.7031250 -0.4042969 -0.1225586 -0.2871094 -0.1157227 -0.2333984 0.3789062 -0.0541992 0.0297852 -0.2187500 -0.3417969 0.2255859 -0.0040894 -0.0009155 -0.1552734 0.2177734 0.0314941 0.0208740 0.0234375 0.3476562 0.4863281 0.2558594 -0.1337891 0.4277344 -0.2636719 0.0263672 -0.1127930 -0.0644531 -0.0888672 0.2353516 -0.0361328 -0.2714844 -0.3066406 -0.0101318 -0.1396484 0.2832031 -0.0810547 0.1396484 -0.1718750 -0.3261719 0.5117188 0.0006638 0.0400391 -0.0664062 -0.1630859 0.4667969 -0.2412109 0.2353516 -0.1157227 -0.2167969 -0.2753906 -0.3320312 0.1025391 0.1054688 0.3066406 0.2988281 -0.0952148 0.1235352 0.0607910 -0.1562500 -0.0971680 -0.4375000 -0.3027344 -0.0581055 -0.0437012 0.1552734 0.2714844 -0.3007812 -0.1416016 0.2275391 0.1728516 0.1279297 -0.1474609 0.0089111 0.0263672 0.2197266 -0.1376953 -0.0373535 -0.2578125 0.1416016 0.1005859 0.4726562 0.2695312 0.2519531 0.1005859 0.0534668 0.2714844 0.0020752 -0.3359375 -0.0071716 -0.1464844 0.1611328 -0.3378906 -0.2011719 -0.0023804 0.0947266 -0.1220703 -0.2402344 0.1289062 0.1572266 0.0373535 -0.1982422 0.2753906 0.3242188 0.1708984 -0.2158203 0.1152344 0.1884766 -0.2500000 0.1259766 0.0247803 -0.2910156 -0.1445312 0.2656250 0.0295410 0.1367188 -0.0444336 -0.1093750 -0.1962891 0.4277344 0.2382812 -0.0800781 -0.3144531 0.1884766 -0.2343750 0.1079102 -0.1357422 0.1591797 -0.0800781 -0.0583496 -0.1406250 -0.0908203 -0.0603027 -0.0607910 -0.1225586 0.0786133 0.2675781 -0.0517578 -0.0301514 -0.3554688 -0.3574219 0.3828125 -0.4101562 0.3925781 0.0154419 0.0937500 0.0991211 0.1875000 0.4433594 0.0471191 0.1059570 -0.1718750 -0.0820312 -0.1484375 -0.3066406 0.1796875 0.0947266 0.0683594 0.3730469 0.4101562 -0.2675781 -0.0029144 -0.2421875 -0.1000977 -0.1347656 -0.2304688 0.2119141 0.1367188 -0.2031250 -0.0390625 -0.0864258 0.1337891 0.0302734 -0.0246582 -0.1435547 0.1289062 0.1171875 0.0083618 0.0334473 -0.0257568 -0.0883789 0.1137695 0.1025391 -0.0283203 -0.1923828 -0.0864258 0.0893555 -0.1396484 -0.1621094 -0.2285156 0.0488281 -0.0184326 0.3515625 -0.1914062 0.1718750 0.0507812 -0.1572266 -0.2275391 -0.0810547 -0.0478516 0.0043335 0.3945312 -0.1855469 -0.3535156 0.0703125 0.2148438 0.1992188 0.2060547 0.2656250 -0.1240234 -0.1318359 0.1855469 0.1562500 -0.1425781 -0.0454102 0.2929688 -0.0883789 0.1347656 -0.1279297
alley 0.0820312 0.2812500 0.1289062 -0.0009613 0.1914062 0.1069336 -0.1416016 0.0346680 0.2177734 0.2734375 -0.0390625 -0.0639648 0.3183594 -0.3457031 0.1533203 -0.3632812 0.0473633 0.0480957 0.1357422 -0.0815430 0.3164062 -0.1245117 -0.1425781 -0.1152344 0.2158203 -0.3457031 0.0185547 0.2109375 -0.0061340 -0.0537109 -0.1386719 0.0566406 0.2578125 0.1796875 -0.2968750 0.0130615 0.2636719 0.0058899 -0.0971680 0.1552734 -0.0639648 0.1777344 0.0810547 -0.0612793 -0.2929688 0.1474609 -0.3769531 -0.3710938 -0.0346680 0.0223389 -0.1835938 0.2070312 -0.0155029 -0.1308594 0.1523438 0.0258789 0.2753906 -0.1210938 -0.0883789 -0.1010742 0.1250000 -0.0015411 -0.0527344 0.2695312 -0.0500488 -0.1176758 0.1074219 0.1083984 -0.0578613 -0.0046997 0.0522461 0.2158203 -0.1074219 -0.0991211 -0.1875000 0.0703125 0.2226562 0.0712891 0.1757812 0.0341797 0.0688477 -0.1171875 -0.1127930 0.0109253 -0.1669922 0.2695312 0.2675781 0.2412109 0.2265625 -0.0654297 -0.2324219 0.0483398 0.0917969 -0.0439453 -0.0268555 -0.0693359 -0.1245117 0.0076904 -0.3144531 -0.0825195 -0.0502930 -0.0166016 0.0541992 -0.1186523 0.3496094 -0.0800781 0.0012207 -0.0471191 -0.2041016 -0.1142578 -0.0100708 0.0056763 0.2060547 -0.1328125 0.0057678 -0.0947266 0.1069336 -0.1630859 -0.0698242 0.1088867 0.0458984 -0.1875000 -0.0976562 -0.0028076 -0.1621094 -0.1098633 -0.3632812 0.1259766 0.4824219 -0.0439453 -0.0100098 -0.3164062 -0.0224609 0.1474609 -0.1992188 -0.0610352 -0.1630859 -0.2890625 0.0664062 0.4609375 -0.1030273 0.2167969 0.0104980 0.4667969 0.0388184 0.1914062 -0.2949219 -0.1147461 -0.2890625 -0.0198975 0.2734375 0.1069336 0.1406250 0.0559082 -0.1318359 -0.1357422 -0.1435547 -0.0544434 0.2158203 0.1845703 -0.2500000 -0.0142212 0.1289062 -0.3984375 0.0122070 -0.2890625 0.0625000 -0.1010742 0.1455078 -0.3125000 -0.0947266 0.0820312 0.1215820 0.1503906 -0.2373047 -0.1406250 0.0625000 -0.2675781 0.0771484 0.2714844 -0.2216797 -0.1962891 0.2558594 -0.1845703 -0.0008087 -0.3925781 0.0893555 0.3847656 0.3808594 0.0468750 0.3320312 0.0659180 0.0437012 0.1279297 0.0825195 -0.0800781 -0.0698242 -0.1591797 0.2558594 0.1875000 -0.0578613 -0.1533203 -0.2753906 -0.2890625 0.0561523 -0.0227051 -0.0507812 -0.0839844 0.0795898 0.0981445 -0.1855469 -0.0273438 -0.3281250 0.1083984 -0.1464844 -0.0264893 -0.1933594 0.2294922 -0.0673828 -0.1337891 -0.1611328 0.1318359 0.2597656 -0.2597656 -0.0150146 0.1865234 0.0125122 0.1445312 0.0563965 -0.3144531 0.0011215 0.1533203 -0.0573730 0.2353516 0.2148438 -0.0205078 0.1601562 0.1757812 0.3222656 0.0305176 0.3066406 -0.0578613 -0.1147461 -0.2343750 0.0151978 0.0825195 0.1669922 0.1435547 0.1157227 -0.4257812 0.1552734 0.0334473 -0.0334473 0.2714844 0.2187500 -0.2138672 -0.0539551 0.0395508 -0.1943359 -0.1005859 -0.2099609 -0.3789062 -0.0356445 0.1748047 0.0947266 0.1147461 -0.1064453 -0.1103516 -0.3417969 0.0810547 -0.0354004 -0.1147461 -0.0917969 0.1396484 -0.0593262 0.0820312 -0.0332031 -0.0354004 0.0976562 0.0573730 0.0583496 -0.2832031 0.0693359 0.0898438 -0.2285156 0.1147461 -0.0524902 0.2246094 -0.0456543 0.1191406 -0.0022736 0.1347656 -0.2382812 0.1611328 0.0198975 -0.0893555 -0.0329590 -0.0839844 0.0252686 0.1992188
alleyway 0.0439453 0.0213623 0.0751953 0.0405273 0.1796875 0.1552734 -0.3105469 0.1318359 0.4179688 0.3789062 -0.2285156 -0.1269531 0.0395508 -0.1367188 0.0556641 -0.3515625 -0.1123047 0.0776367 0.0800781 -0.0712891 0.3554688 0.0162354 -0.1206055 0.0473633 0.1215820 -0.3457031 0.1166992 0.1123047 0.0212402 -0.2294922 -0.1347656 -0.1289062 0.1845703 -0.0120239 -0.2890625 -0.1972656 0.3437500 -0.0035858 -0.2041016 0.1542969 -0.4492188 0.2138672 -0.0966797 -0.0388184 -0.2382812 0.0903320 -0.3828125 -0.4648438 -0.0186768 -0.1982422 0.0957031 0.3457031 0.0393066 -0.1010742 0.1982422 -0.2041016 -0.0062256 -0.1357422 -0.1396484 -0.0625000 0.0174561 0.0737305 -0.1748047 0.1669922 -0.2226562 -0.0066833 -0.0419922 -0.1108398 -0.1118164 0.0001345 -0.0034790 0.2285156 -0.0844727 -0.1328125 -0.0393066 0.1171875 0.3261719 -0.0488281 0.1494141 -0.3984375 -0.1494141 0.0196533 -0.1406250 -0.0446777 -0.1386719 0.2314453 0.1225586 0.1464844 0.4843750 -0.0096436 -0.1425781 -0.0673828 -0.2343750 -0.0383301 -0.0212402 -0.3183594 -0.2500000 0.0639648 -0.1669922 -0.0180664 -0.0908203 0.0035706 0.0183105 -0.0468750 0.2421875 -0.1738281 0.2412109 0.1835938 -0.2597656 -0.0349121 -0.1562500 0.1953125 0.3789062 -0.2753906 0.1157227 -0.3710938 -0.1503906 -0.0942383 -0.0361328 0.1337891 0.1279297 -0.1093750 -0.2031250 -0.1660156 -0.0957031 -0.2656250 -0.2988281 -0.0541992 0.6093750 0.1103516 -0.0383301 -0.4687500 -0.1406250 0.2226562 -0.1728516 0.1215820 -0.0544434 -0.2363281 -0.1308594 0.5664062 -0.0903320 0.3925781 -0.0693359 0.4179688 -0.0568848 0.4960938 -0.4707031 -0.1679688 -0.3750000 -0.2412109 0.2392578 0.0314941 0.3613281 0.1689453 -0.0104370 -0.1152344 -0.4121094 0.1894531 0.1074219 0.0145874 -0.2832031 0.2617188 0.0175781 -0.3632812 -0.1181641 -0.2226562 0.0937500 -0.0571289 0.0595703 -0.3281250 -0.1196289 0.3046875 0.0402832 -0.0358887 -0.3652344 -0.4453125 0.2695312 -0.2119141 0.1992188 0.1757812 -0.0898438 -0.0473633 0.1328125 -0.2832031 0.0368652 -0.3437500 0.0005722 0.4238281 0.3945312 -0.0502930 0.2011719 -0.1445312 -0.2421875 0.2324219 0.1328125 -0.0898438 -0.2675781 -0.2148438 0.1503906 0.2929688 0.2080078 -0.1025391 -0.4082031 -0.2099609 0.3398438 0.0072021 -0.0078735 0.1689453 0.0908203 -0.3730469 0.0336914 -0.3203125 -0.2832031 -0.0057678 -0.1088867 -0.0026550 -0.1601562 0.1787109 0.2500000 -0.0044861 -0.2138672 0.1611328 0.1230469 -0.0234375 -0.1718750 0.1982422 0.0617676 0.0260010 0.0010605 -0.3242188 -0.0932617 0.0334473 -0.1494141 0.3593750 0.1093750 0.0034485 -0.0756836 0.3378906 0.3886719 -0.0500488 0.0036163 -0.1279297 -0.1308594 -0.1376953 -0.1132812 -0.0189209 0.2119141 0.1206055 -0.1708984 -0.2558594 0.1025391 -0.1015625 0.0042419 0.2910156 0.2021484 -0.1289062 0.0216064 -0.1049805 -0.1982422 -0.0620117 -0.3027344 -0.3457031 0.0012894 0.1367188 0.0048218 -0.0708008 -0.4023438 -0.1630859 -0.5351562 0.2324219 -0.0639648 0.0417480 -0.0446777 0.2519531 0.0722656 -0.0012207 0.1235352 -0.3046875 0.3378906 0.0012741 -0.0515137 -0.2402344 0.1103516 0.0073547 0.1279297 0.1787109 -0.2392578 0.2851562 0.0603027 0.1767578 -0.3261719 0.0927734 -0.1416016 0.0583496 -0.2187500 0.0356445 0.0644531 0.0405273 0.0324707 0.1386719
anger 0.2753906 0.0231934 0.1020508 0.0883789 -0.2226562 -0.2089844 -0.1816406 -0.3710938 0.3144531 -0.0903320 -0.1396484 0.0054321 0.0581055 0.2207031 0.0412598 0.1894531 -0.0820312 0.3222656 -0.0717773 -0.3925781 0.3281250 0.0069885 0.3808594 0.1196289 -0.1250000 -0.0659180 -0.0664062 0.0498047 0.2617188 -0.0478516 0.0299072 0.0668945 -0.1875000 0.0898438 0.0476074 -0.1225586 0.3730469 -0.0020142 -0.3203125 0.0537109 0.2275391 -0.1865234 -0.0412598 -0.4980469 -0.2314453 -0.1738281 -0.0742188 -0.1445312 -0.1689453 0.1337891 -0.0458984 0.1767578 -0.1660156 -0.0157471 -0.1020508 -0.0230713 -0.3378906 0.0299072 0.0893555 -0.1103516 -0.1083984 0.1137695 -0.0727539 0.0184326 -0.4687500 -0.0294189 -0.2246094 0.0898438 -0.2207031 -0.0578613 0.0454102 -0.0942383 0.3183594 0.2910156 -0.1669922 -0.0563965 0.2578125 0.3066406 0.0986328 0.1806641 0.1933594 0.2080078 -0.1376953 -0.0610352 0.0981445 0.0075684 -0.3027344 -0.0644531 -0.0344238 -0.2050781 -0.1552734 0.2451172 -0.5039062 0.0019989 -0.2578125 0.0043030 0.1367188 -0.2333984 -0.1040039 0.1474609 0.1230469 0.0041199 0.0820312 -0.0117188 0.1933594 -0.1245117 0.0947266 -0.1669922 0.5273438 0.0393066 -0.3652344 -0.2187500 -0.2021484 0.0155640 -0.1357422 -0.0766602 -0.1367188 -0.3750000 0.1147461 0.0722656 -0.3691406 0.2695312 -0.0742188 0.0903320 -0.2412109 0.0063171 -0.1884766 -0.0991211 0.1875000 -0.2675781 -0.3925781 0.1474609 -0.2021484 0.2236328 0.2656250 -0.0461426 0.1777344 0.2089844 -0.2500000 -0.1416016 0.0250244 0.0310059 -0.1689453 0.0047913 0.0898438 -0.3320312 -0.2148438 0.4765625 0.1416016 -0.4335938 0.2617188 0.1884766 0.2158203 0.1640625 -0.1738281 -0.1455078 -0.0556641 -0.4023438 -0.0859375 -0.1225586 0.1235352 0.0654297 -0.0673828 -0.1689453 -0.1533203 -0.1640625 0.1298828 0.1347656 0.2539062 0.2392578 0.0727539 -0.1093750 -0.2734375 0.0878906 -0.1166992 -0.1079102 -0.0339355 0.0571289 -0.1240234 -0.2060547 -0.0971680 -0.0008926 -0.1630859 0.1728516 -0.1020508 0.0688477 -0.3671875 0.0568848 0.1660156 -0.1103516 0.2177734 0.0986328 0.0678711 -0.0179443 -0.4101562 -0.0737305 -0.0284424 0.3242188 -0.0366211 -0.0257568 -0.0854492 -0.0520020 -0.0800781 -0.1533203 0.1289062 -0.2197266 -0.0062866 0.2832031 0.0908203 0.0947266 -0.1796875 -0.0336914 0.4257812 0.1494141 -0.2128906 -0.0522461 -0.2656250 -0.0585938 -0.0708008 -0.2197266 -0.0563965 -0.3046875 -0.0229492 -0.1079102 -0.1494141 -0.3496094 0.0149536 0.1020508 0.3105469 -0.2675781 0.0407715 0.1098633 0.0869141 0.5195312 -0.1396484 -0.3027344 0.1010742 0.0314941 0.0468750 -0.0017700 0.0275879 -0.0502930 0.0437012 -0.0339355 -0.0493164 -0.2353516 -0.0373535 -0.1040039 0.1777344 0.2265625 0.1552734 0.1025391 0.1210938 0.0991211 0.0407715 0.1542969 0.0104980 -0.0480957 -0.0324707 0.1147461 -0.1904297 -0.0444336 -0.0815430 0.2949219 -0.4550781 -0.0449219 0.1279297 -0.0922852 0.2031250 0.0434570 -0.1406250 0.1010742 0.0952148 0.0800781 -0.2558594 0.2851562 -0.1796875 -0.1318359 0.1132812 -0.0717773 0.3613281 -0.0285645 0.0056763 0.2402344 -0.1040039 -0.1176758 0.0971680 0.2988281 -0.0124512 0.1210938 0.0069275 -0.2431641 -0.0932617 -0.1064453 -0.1308594 0.1127930 -0.0893555 0.0417480 0.0415039 0.0429688
animal 0.0081177 0.2050781 -0.1699219 0.1181641 -0.1157227 0.0299072 0.1767578 -0.0383301 -0.1503906 -0.0825195 0.0810547 -0.4804688 -0.1269531 -0.2109375 -0.3105469 -0.1367188 -0.2402344 0.2119141 -0.1059570 -0.0393066 0.1308594 -0.1708984 0.1513672 -0.0351562 -0.1728516 0.0181885 -0.2011719 0.2255859 0.3378906 -0.1816406 -0.1845703 -0.1054688 -0.2304688 -0.1640625 -0.3046875 0.1562500 -0.0258789 0.0649414 0.0727539 0.3261719 0.0495605 0.1025391 -0.2285156 0.3046875 -0.3789062 -0.2578125 0.2558594 0.3613281 0.1152344 0.1259766 -0.0153198 -0.1357422 0.1098633 0.0451660 0.0014648 0.0263672 0.2148438 -0.1318359 0.3281250 0.3164062 0.1289062 0.0659180 0.0363770 -0.1640625 -0.0534668 -0.4394531 0.1875000 0.2314453 -0.2207031 -0.0668945 0.0883789 0.0184326 -0.1250000 -0.0732422 -0.0114136 -0.0756836 0.0510254 -0.1533203 0.2236328 -0.2519531 0.0363770 -0.0168457 0.1279297 -0.2968750 -0.0522461 0.0058899 -0.2441406 0.2255859 -0.2226562 -0.1147461 0.0297852 0.1806641 -0.0390625 -0.0976562 -0.0546875 -0.1992188 0.0766602 -0.0117798 0.0502930 -0.2558594 0.0500488 0.0332031 0.0517578 0.0922852 0.2792969 -0.1230469 -0.0161133 -0.1708984 0.0480957 0.0012054 -0.2910156 -0.0060425 0.1308594 0.1640625 -0.1406250 -0.0712891 -0.2148438 -0.1826172 0.0805664 -0.0922852 0.0057678 -0.2675781 -0.3906250 0.0240479 -0.0634766 0.0012665 0.1728516 -0.1328125 0.2080078 -0.0722656 -0.2265625 -0.1357422 -0.3457031 0.2431641 -0.1000977 -0.0903320 0.1025391 0.0061646 0.0664062 -0.0251465 0.0874023 0.0020447 -0.1699219 0.2080078 0.1030273 0.1044922 0.0308838 0.1396484 -0.1621094 -0.1484375 0.3476562 0.0607910 -0.4277344 0.0033569 0.0712891 -0.0874023 0.0206299 -0.2294922 0.1708984 0.0600586 -0.1328125 -0.0262451 0.1049805 0.1484375 -0.0235596 -0.0786133 -0.2343750 -0.0708008 -0.0123901 -0.0654297 0.0869141 -0.1098633 -0.0015793 0.1992188 -0.0937500 -0.1015625 -0.0654297 0.0405273 -0.2773438 -0.0722656 -0.3476562 -0.0292969 0.0439453 0.1083984 0.0883789 -0.0432129 0.0036469 0.1972656 0.0247803 0.2773438 -0.1582031 -0.0952148 -0.1132812 -0.0410156 0.0407715 -0.0092163 0.0617676 -0.2558594 -0.1376953 0.0937500 0.1552734 -0.2910156 -0.1601562 0.0003300 -0.1835938 -0.0284424 0.0378418 0.0463867 0.2597656 -0.2441406 -0.5312500 -0.0209961 0.0354004 -0.1992188 -0.0693359 0.0747070 0.3222656 -0.1582031 0.1660156 -0.0356445 0.1933594 -0.0732422 -0.0126343 -0.1923828 0.2001953 -0.1235352 0.2392578 0.0270996 0.3203125 0.1069336 0.3398438 0.1474609 -0.1630859 0.1523438 -0.2695312 -0.0405273 0.3730469 0.0664062 0.0639648 -0.0922852 0.4121094 -0.2412109 0.0366211 -0.1962891 0.0446777 0.0231934 0.0537109 -0.0198975 -0.1079102 -0.1318359 -0.2617188 0.1904297 -0.3027344 -0.2089844 0.0654297 0.0449219 -0.0917969 0.0324707 -0.3242188 0.0383301 -0.3085938 -0.0373535 0.0454102 0.0114746 0.1708984 -0.0854492 -0.0878906 -0.0173340 -0.2216797 -0.0102539 0.0324707 0.0004520 -0.1455078 0.0961914 0.0981445 -0.1777344 -0.0683594 0.0087280 0.0610352 0.1591797 0.1464844 -0.1494141 0.2041016 -0.0471191 -0.2216797 0.0410156 -0.0629883 -0.0178223 0.4472656 0.3828125 -0.2714844 0.1176758 -0.2197266 0.2851562 -0.0112915 0.2412109 0.1269531 0.3691406 -0.1098633 0.1875000
ankle -0.0263672 0.1611328 -0.2968750 -0.3730469 -0.1582031 0.1269531 0.1718750 -0.2421875 -0.1669922 -0.1787109 -0.0698242 -0.2402344 0.4375000 -0.0006828 -0.0371094 0.4375000 -0.0258789 0.0742188 0.0388184 0.2421875 -0.0549316 0.2988281 0.1513672 0.0393066 -0.1601562 -0.6093750 -0.2011719 -0.0539551 0.3652344 -0.1035156 0.0815430 0.1157227 0.3222656 -0.1035156 -0.1484375 0.1533203 -0.1894531 0.2578125 -0.0177002 0.2187500 0.1337891 -0.1279297 0.0996094 -0.2578125 0.0747070 0.1777344 -0.0888672 -0.1435547 0.3652344 0.1806641 0.0092163 0.5976562 -0.2490234 -0.1552734 -0.0722656 -0.1245117 0.2812500 0.2871094 0.2441406 -0.0937500 -0.0122070 0.2500000 0.1166992 -0.2431641 -0.0678711 0.3417969 -0.0903320 0.1210938 0.2597656 0.2480469 0.0830078 -0.0629883 -0.1611328 0.0437012 -0.2753906 -0.3261719 0.1982422 -0.2792969 0.3085938 -0.3496094 -0.0064087 -0.0214844 -0.2216797 -0.3750000 0.2490234 -0.0947266 -0.1718750 0.2871094 0.1884766 -0.0480957 -0.4414062 -0.0937500 0.2890625 0.1894531 0.0588379 -0.3574219 -0.0908203 -0.4726562 -0.1059570 -0.2177734 0.1689453 0.0001593 0.1894531 -0.1552734 0.2099609 -0.1455078 -0.1108398 0.0515137 -0.3632812 0.0144043 0.2714844 -0.0405273 0.1894531 -0.1074219 -0.3437500 -0.4511719 0.3125000 0.1757812 0.1054688 0.3593750 -0.1215820 0.3046875 0.1777344 0.1972656 0.3164062 -0.1455078 -0.1020508 -0.1572266 -0.1884766 0.1591797 -0.4062500 0.3300781 -0.3105469 -0.1982422 -0.1210938 -0.1015625 -0.0761719 0.3945312 -0.1000977 0.3886719 0.0888672 0.0878906 0.0874023 0.1503906 -0.0629883 0.1215820 -0.1679688 -0.0522461 -0.2500000 0.0971680 0.2832031 -0.1000977 -0.0532227 0.2382812 0.3808594 -0.0688477 0.0578613 -0.3964844 0.4941406 -0.3496094 0.2558594 0.1347656 0.4335938 -0.1894531 0.1542969 -0.2451172 0.0264893 -0.0288086 -0.1621094 -0.3496094 -0.1245117 -0.1503906 -0.3632812 0.0578613 -0.3925781 -0.0903320 -0.1767578 -0.2910156 -0.2343750 0.1777344 -0.2050781 -0.0366211 0.3652344 0.2226562 0.1250000 0.2539062 -0.2675781 0.3730469 0.3769531 0.1030273 -0.1474609 -0.0791016 0.0206299 -0.2519531 0.0361328 0.6250000 -0.0917969 0.2734375 0.0732422 0.0122070 -0.3242188 0.0908203 0.0966797 0.6406250 0.3378906 -0.5781250 0.0607910 -0.0986328 0.1884766 -0.1484375 -0.1318359 0.0066223 -0.1943359 0.0327148 -0.1069336 0.0208740 0.0339355 -0.2373047 -0.0108032 -0.4433594 -0.2412109 -0.2431641 -0.2226562 0.2070312 -0.0483398 -0.2470703 -0.1044922 0.0300293 0.0400391 0.0327148 0.2060547 0.4472656 -0.1049805 -0.1347656 0.1059570 0.2001953 0.1748047 0.0751953 0.0153198 0.2792969 0.0483398 -0.0140381 -0.0322266 -0.0839844 0.0038300 0.0786133 -0.3164062 -0.0549316 0.1816406 -0.1826172 -0.2138672 -0.2636719 0.2353516 -0.0400391 0.0498047 -0.1542969 -0.0795898 0.2832031 -0.3105469 -0.1494141 -0.0683594 -0.1542969 0.2753906 -0.0041504 0.0280762 -0.0260010 0.1318359 -0.0539551 0.0285645 0.2460938 -0.2636719 0.3085938 0.1757812 0.0727539 0.4257812 -0.4316406 0.1572266 -0.3359375 0.0534668 -0.0415039 0.0820312 0.2011719 0.3691406 -0.3144531 -0.1884766 -0.2539062 -0.1206055 -0.0086670 0.1318359 0.1054688 0.2636719 0.2695312 0.1455078 -0.1235352 0.4628906 0.1513672 0.1777344 -0.1118164 -0.2470703 0.0495605
anthem 0.1640625 0.0473633 0.3808594 0.1040039 -0.2773438 -0.3964844 -0.0717773 -0.1562500 0.2119141 0.0947266 -0.2949219 -0.4121094 0.1679688 0.2490234 -0.1201172 -0.0195312 -0.0971680 -0.1191406 0.0336914 -0.4375000 0.3261719 0.6875000 0.1083984 -0.4726562 -0.2177734 0.1533203 -0.3769531 -0.2519531 0.0417480 0.0732422 0.0344238 0.1259766 0.0252686 0.3066406 0.3476562 -0.1767578 0.1835938 0.1298828 0.4082031 -0.0410156 0.0258789 -0.4238281 0.0742188 -0.0057678 -0.0727539 -0.2138672 -0.2636719 -0.1289062 0.0461426 0.4375000 -0.2255859 0.0588379 0.0336914 0.1777344 0.4335938 -0.2470703 -0.4140625 -0.2636719 -0.2031250 -0.1176758 0.1640625 -0.1591797 0.0747070 0.0086060 0.0049438 0.0314941 -0.1845703 0.3027344 -0.0395508 0.1025391 -0.2402344 -0.1181641 -0.1826172 -0.0771484 -0.0795898 -0.2851562 0.4023438 -0.0629883 0.4980469 -0.0196533 0.0532227 0.1757812 -0.2617188 -0.1513672 -0.1494141 0.0644531 -0.1503906 0.0429688 0.1259766 0.0429688 -0.2578125 -0.0644531 -0.0473633 -0.0563965 -0.1386719 0.3164062 0.2636719 -0.2109375 -0.1206055 -0.1513672 -0.1445312 0.1962891 0.0874023 0.2187500 -0.3320312 0.1108398 0.1157227 -0.2910156 -0.1484375 0.0285645 -0.1176758 0.1689453 -0.0957031 -0.0976562 -0.2060547 0.2988281 0.0722656 0.3574219 0.0510254 -0.2402344 0.2753906 -0.3886719 -0.1049805 -0.1494141 0.1318359 0.1147461 -0.1757812 -0.1943359 -0.0270996 -0.0961914 0.2031250 0.0590820 0.0388184 0.1074219 0.1049805 0.2109375 -0.3769531 0.0085449 -0.1523438 0.0883789 0.0478516 0.2695312 0.2451172 0.0888672 -0.0478516 -0.2871094 0.3945312 0.1572266 -0.1357422 -0.0534668 -0.0820312 0.0255127 0.2753906 -0.0595703 0.2021484 -0.1738281 -0.4453125 -0.0480957 0.1796875 -0.5703125 -0.0327148 -0.1464844 0.4550781 0.2812500 -0.3105469 -0.2519531 0.1621094 -0.2285156 -0.0159912 0.1503906 -0.0269775 0.2910156 0.2753906 -0.1376953 -0.1049805 -0.0520020 0.0563965 -0.0280762 -0.0649414 -0.0634766 0.0544434 -0.1562500 0.0220947 0.0908203 -0.3085938 0.0644531 -0.2988281 -0.1235352 0.0290527 0.3046875 -0.3750000 0.0966797 0.0722656 0.1630859 0.0214844 0.0522461 0.0412598 0.3359375 -0.2314453 0.3457031 0.0012817 0.0051270 -0.3613281 -0.1337891 0.1455078 -0.3417969 0.1162109 0.0358887 0.0191650 0.3027344 -0.1962891 0.0186768 0.1328125 0.3027344 -0.2890625 -0.2021484 -0.0654297 -0.1464844 -0.2636719 -0.3125000 -0.1992188 -0.0634766 0.1845703 -0.0169678 0.1962891 0.1513672 0.1347656 -0.2773438 0.1059570 0.1787109 -0.0952148 -0.2109375 -0.4082031 0.0573730 0.0133667 -0.1328125 -0.1279297 -0.3027344 0.3574219 -0.1337891 0.1289062 -0.0869141 -0.3496094 -0.1484375 -0.0874023 -0.0168457 0.0351562 0.3906250 0.0888672 0.1035156 0.1572266 0.2695312 0.1289062 0.1835938 0.0332031 -0.1503906 -0.1044922 0.0170898 0.0942383 -0.0390625 0.0422363 0.1787109 0.3046875 0.0166016 -0.0500488 -0.1166992 -0.3183594 0.1601562 -0.2158203 0.3027344 0.1464844 0.0458984 0.2080078 0.0554199 -0.2333984 -0.2539062 -0.3437500 0.0800781 -0.0307617 -0.0267334 0.0546875 -0.0524902 -0.0693359 -0.0257568 -0.0202637 -0.2031250 -0.0539551 0.1816406 -0.0524902 0.1777344 0.2382812 -0.0800781 -0.2255859 -0.3535156 0.0125122 -0.0507812 0.0986328 -0.3046875 -0.0047913 0.0415039
apartment 0.2031250 -0.2910156 -0.1220703 -0.0113525 0.2871094 0.0251465 0.1523438 -0.1494141 0.3652344 0.0688477 -0.0275879 -0.4609375 -0.0149536 -0.3730469 0.0072937 -0.1689453 0.0410156 0.0158691 0.1030273 0.1533203 0.1894531 -0.3769531 0.1020508 0.0473633 0.0334473 -0.2753906 -0.0049744 0.0800781 -0.0878906 0.0451660 -0.0368652 -0.0625000 0.0400391 -0.0649414 -0.2714844 -0.0751953 0.1064453 0.0874023 -0.2412109 0.0927734 0.0500488 0.1943359 0.0898438 0.0966797 -0.0668945 -0.0341797 -0.2275391 -0.3261719 -0.0981445 0.0202637 0.2314453 0.0510254 0.2431641 -0.0668945 -0.1098633 -0.2890625 -0.1308594 0.0991211 -0.0446777 -0.2138672 0.3554688 0.2812500 -0.0605469 0.3066406 -0.0791016 -0.0917969 0.1127930 0.0859375 -0.0454102 -0.0825195 0.1494141 0.1640625 -0.0505371 -0.1196289 -0.3710938 0.3769531 -0.1240234 -0.1533203 0.0520020 -0.1376953 -0.0329590 0.0644531 -0.3437500 0.1523438 -0.2500000 0.0388184 0.1318359 0.2578125 0.2500000 0.0751953 -0.0942383 -0.2070312 -0.1328125 -0.2753906 -0.0732422 -0.0002556 -0.1972656 -0.2500000 -0.0703125 -0.3125000 -0.0218506 -0.2431641 0.1376953 -0.0976562 0.2910156 -0.3964844 0.1562500 0.0001197 -0.0805664 0.0033875 -0.1445312 0.1503906 0.0052185 -0.0673828 0.0747070 -0.1137695 -0.0073547 -0.1367188 -0.1347656 0.0976562 -0.2265625 -0.2451172 -0.2929688 0.0132446 -0.0383301 -0.2890625 0.1005859 -0.2617188 0.1040039 0.3730469 0.1367188 -0.1845703 -0.0727539 0.1640625 -0.1748047 -0.1669922 0.0795898 -0.1425781 -0.1875000 0.2792969 -0.2949219 0.2382812 -0.3417969 0.1328125 0.1923828 0.1386719 -0.1010742 0.1396484 -0.0903320 -0.1196289 0.4492188 0.1279297 0.4902344 0.1201172 0.1044922 0.0544434 -0.1259766 -0.1640625 0.1386719 -0.0576172 -0.2353516 0.1796875 -0.0332031 -0.1826172 -0.1269531 0.0089722 0.1611328 0.0300293 0.0976562 0.0034180 -0.2929688 0.0048523 0.0130005 -0.0698242 -0.2734375 0.0242920 0.2089844 0.1225586 -0.1533203 0.3378906 0.0893555 -0.0561523 0.0290527 -0.1474609 0.4101562 -0.2656250 -0.0903320 0.5507812 0.0250244 -0.2753906 0.2636719 -0.2353516 0.0568848 0.1386719 -0.1201172 0.3476562 0.0336914 -0.1196289 0.3281250 -0.0388184 -0.0339355 0.0030823 -0.1708984 -0.1718750 -0.0517578 -0.3652344 -0.0277100 0.1513672 0.0883789 -0.1552734 -0.0751953 -0.0498047 -0.3007812 0.1503906 -0.0888672 0.2119141 -0.0576172 0.6250000 -0.3105469 -0.2187500 -0.0415039 0.2177734 -0.1347656 -0.1982422 -0.0878906 0.0659180 0.0029449 0.2363281 -0.1972656 -0.1865234 0.1904297 0.1118164 -0.4667969 0.0219727 -0.0225830 0.0712891 -0.0087280 -0.2304688 -0.0101929 0.2871094 0.2695312 -0.0278320 -0.1923828 0.0771484 -0.1176758 0.0625000 0.0252686 -0.2148438 -0.1181641 0.0049133 0.0274658 0.1757812 0.0178223 0.3789062 -0.1201172 0.0505371 -0.0747070 -0.0253906 0.1826172 0.1079102 -0.0634766 -0.3515625 -0.0922852 0.0122070 0.3164062 0.5468750 -0.0075684 -0.2373047 -0.2001953 -0.1533203 0.0529785 -0.0869141 0.2539062 -0.0240479 0.1679688 0.0791016 0.0756836 0.0385742 0.2851562 -0.3027344 0.1215820 -0.0142212 -0.0708008 0.1210938 0.1181641 0.1474609 -0.0166016 0.1533203 0.0339355 0.1562500 -0.3964844 -0.1484375 -0.1025391 0.1630859 -0.0507812 -0.2578125 -0.1049805 -0.0230713 0.0306396 0.2236328
apparel -0.0659180 0.1215820 -0.1235352 0.1503906 0.0544434 0.0034180 -0.0659180 -0.3476562 -0.2675781 -0.0157471 -0.1708984 -0.3144531 0.1699219 0.1835938 -0.2910156 -0.0247803 -0.1386719 0.0180664 0.2353516 0.0336914 -0.0244141 -0.0001831 -0.0093994 -0.1992188 -0.1196289 -0.0040894 -0.0649414 0.1225586 0.2451172 -0.2343750 0.0644531 -0.1279297 0.1767578 0.1845703 0.0192871 -0.0178223 0.0722656 -0.0703125 -0.0214844 -0.0247803 -0.1347656 0.3671875 0.0756836 0.2373047 -0.4277344 -0.2041016 -0.0039673 -0.0786133 0.0266113 0.1166992 0.4101562 0.1455078 -0.2255859 0.0478516 0.1059570 -0.4667969 0.2714844 0.2080078 0.1406250 -0.1157227 -0.0742188 -0.1074219 -0.2636719 -0.3457031 0.0554199 0.4433594 -0.2216797 0.3632812 0.2539062 0.1279297 0.1787109 0.0456543 -0.2285156 -0.0058289 0.1689453 -0.0942383 -0.0607910 -0.2734375 0.0771484 -0.0264893 0.1630859 -0.2216797 -0.1298828 0.3320312 -0.1533203 -0.4062500 0.0219727 0.0383301 -0.0708008 0.1738281 -0.1142578 0.1679688 -0.2500000 -0.0991211 0.1630859 -0.2949219 0.4101562 0.0407715 0.0585938 -0.1640625 0.2363281 0.1386719 -0.2441406 -0.0070190 -0.0810547 -0.2265625 0.4863281 0.0361328 -0.1054688 0.2001953 -0.2695312 -0.0296631 -0.0463867 0.1069336 0.1494141 0.0154419 -0.0225830 0.1357422 0.3144531 0.1855469 -0.3105469 0.2812500 -0.0319824 -0.0249023 0.2968750 -0.0991211 -0.1757812 0.2207031 -0.1049805 0.3164062 -0.0097656 -0.1523438 -0.0747070 -0.0053406 -0.3710938 0.1845703 -0.1865234 0.0834961 -0.2539062 -0.4472656 -0.0028687 -0.2656250 0.0252686 -0.0334473 -0.0358887 -0.2773438 0.4472656 0.1865234 -0.0197754 -0.0732422 -0.1630859 0.1279297 0.1406250 0.1826172 -0.1337891 0.1396484 -0.1328125 0.0917969 -0.0146484 0.0722656 0.2128906 -0.2421875 0.3222656 -0.0112915 -0.1201172 -0.0305176 -0.1269531 -0.0981445 -0.1660156 0.0634766 0.1005859 0.0539551 0.1376953 -0.4199219 -0.0121460 0.3945312 0.3750000 -0.2226562 -0.0317383 -0.2128906 -0.0654297 -0.3085938 -0.1455078 0.1049805 -0.0698242 -0.3105469 -0.0717773 0.0839844 0.3437500 0.1171875 0.3515625 -0.0903320 -0.0308838 0.2031250 0.0388184 0.0893555 0.2421875 -0.2734375 -0.2294922 -0.2470703 -0.4472656 -0.3203125 0.1884766 -0.1865234 -0.1376953 -0.2539062 0.0351562 0.1220703 -0.0220947 0.2910156 -0.1904297 0.2890625 0.3593750 0.1757812 0.0737305 -0.0478516 -0.0617676 -0.0344238 -0.2167969 -0.1552734 -0.2080078 -0.2773438 -0.1845703 0.1542969 0.2500000 0.0006065 -0.0737305 -0.1748047 -0.0454102 0.2431641 -0.1630859 0.4941406 -0.2558594 -0.1118164 0.0583496 0.3203125 -0.0361328 -0.1630859 -0.1083984 -0.0971680 0.1328125 -0.1025391 -0.0708008 -0.1376953 -0.0507812 -0.1982422 -0.0397949 -0.0183105 -0.3046875 -0.3554688 0.0961914 0.1225586 0.2949219 -0.0839844 0.1445312 -0.0617676 0.2255859 0.0246582 -0.0303955 -0.3085938 0.1640625 -0.1845703 0.2949219 -0.2773438 0.1435547 0.1210938 -0.3574219 0.0054016 0.3574219 0.2890625 -0.3417969 0.3085938 -0.0563965 0.0708008 0.2324219 0.1015625 -0.2382812 -0.1923828 0.3046875 0.2851562 -0.1064453 0.0603027 0.2500000 0.1279297 -0.0262451 0.0351562 -0.3183594 0.3886719 0.2089844 0.0138550 -0.2656250 -0.0417480 0.1699219 -0.0703125 0.2832031 -0.0908203 0.4882812 0.0766602 0.1513672 0.0839844
apprehend 0.0515137 0.2099609 0.1406250 -0.1367188 -0.2314453 -0.0334473 0.0257568 0.1845703 -0.0776367 -0.0698242 0.2851562 -0.0932617 0.2851562 0.3593750 -0.0712891 0.0104980 0.0600586 0.1093750 0.1147461 -0.2539062 0.4316406 -0.2011719 0.3300781 -0.0415039 0.1118164 -0.2597656 0.0432129 -0.2597656 0.1630859 -0.3769531 0.1215820 -0.0317383 0.0280762 0.1162109 -0.3789062 -0.1689453 -0.0028076 -0.1630859 0.1894531 0.3867188 0.2412109 0.4335938 0.0104370 -0.0795898 -0.1215820 -0.0727539 -0.2539062 -0.2812500 0.0634766 0.1176758 -0.2158203 0.1875000 0.2851562 -0.1445312 -0.1416016 -0.2148438 0.0634766 -0.0585938 -0.1406250 -0.0556641 0.1650391 0.1982422 -0.0678711 -0.2714844 -0.1406250 0.1474609 0.0578613 -0.3105469 -0.2353516 0.0371094 0.0781250 0.2382812 0.2070312 -0.0673828 0.1757812 -0.2792969 -0.0329590 -0.0981445 0.1396484 -0.2871094 0.0157471 0.1669922 0.4414062 0.1147461 -0.0008850 0.0571289 -0.0947266 0.0908203 0.1455078 -0.0252686 0.0159912 -0.1308594 0.2617188 0.0064697 0.0500488 -0.1098633 0.0296631 0.2187500 0.0737305 -0.0070496 -0.0441895 -0.1406250 0.4316406 0.0585938 0.3183594 -0.0971680 -0.1191406 -0.0683594 0.3027344 0.1030273 -0.0385742 -0.0898438 -0.2490234 0.0163574 -0.1142578 -0.0397949 -0.0202637 0.0172119 0.0483398 0.2011719 0.1386719 0.3750000 -0.3964844 0.0209961 -0.0336914 -0.0500488 -0.1406250 -0.2080078 0.0573730 0.3144531 0.3945312 0.0451660 0.1069336 -0.0727539 -0.2011719 -0.1875000 0.1337891 0.0274658 -0.0629883 0.2089844 -0.0029602 0.0693359 -0.4687500 -0.0194092 -0.1738281 0.3085938 -0.0932617 -0.0781250 -0.0527344 -0.0830078 0.1591797 -0.1044922 -0.0441895 0.3984375 -0.0029602 0.1000977 0.1845703 0.0402832 -0.1875000 -0.2119141 -0.0245361 -0.1000977 -0.1474609 -0.1845703 -0.0463867 0.0849609 0.1132812 -0.2851562 0.0659180 0.1572266 0.3046875 0.0344238 0.0400391 -0.1347656 0.0066528 -0.0468750 0.2500000 0.2578125 -0.4648438 -0.3378906 0.2773438 -0.0844727 0.0306396 -0.3242188 -0.1328125 -0.4296875 -0.0069275 0.1376953 0.1601562 0.2597656 -0.1884766 -0.0427246 -0.0942383 -0.0168457 0.1171875 0.1259766 0.1884766 -0.1191406 -0.0272217 0.0124512 0.0256348 0.0664062 0.0181885 0.2353516 0.1650391 -0.3652344 -0.1494141 0.0032043 0.0932617 -0.0244141 -0.0434570 -0.1123047 0.1259766 0.0844727 -0.2988281 0.1943359 -0.0033569 -0.3378906 -0.4414062 -0.0191650 -0.1098633 -0.0634766 -0.0294189 0.2011719 0.3593750 0.0532227 0.4531250 0.2392578 0.2734375 -0.0125732 0.4101562 -0.1562500 0.1601562 0.3066406 0.4296875 -0.0512695 0.1669922 -0.0476074 0.1230469 0.0620117 -0.4179688 0.0230713 -0.0412598 -0.0458984 -0.1225586 0.1093750 0.0825195 -0.2402344 0.2031250 0.0285645 0.1904297 0.1455078 0.0308838 0.1445312 0.2656250 -0.0311279 0.2207031 -0.1123047 0.0167236 -0.4667969 0.0036926 -0.2148438 -0.1010742 -0.0869141 0.3457031 0.0659180 -0.1337891 -0.2480469 -0.2490234 0.0112915 0.0942383 0.1669922 -0.0932617 0.5156250 0.2187500 0.1230469 -0.1533203 -0.0888672 0.0358887 -0.0014496 -0.2714844 0.0937500 0.1738281 -0.1118164 -0.0083618 0.1240234 -0.3378906 -0.1269531 0.1406250 -0.4042969 -0.1279297 0.2714844 0.1435547 0.0590820 0.0166016 0.0336914 0.0057678 -0.2197266 0.2949219 -0.0976562
area -0.0722656 0.0524902 0.0539551 -0.0554199 -0.1069336 0.0568848 -0.2597656 -0.1035156 0.0093384 0.0264893 -0.0593262 -0.0339355 0.1166992 -0.1972656 -0.0551758 -0.1904297 -0.1005859 0.0698242 -0.0317383 -0.0211182 -0.0397949 -0.1357422 -0.2031250 0.0089722 -0.0991211 -0.0444336 -0.2158203 -0.0185547 0.0029907 -0.1396484 0.1235352 -0.1059570 0.1728516 0.0468750 -0.0566406 -0.1474609 -0.0612793 -0.2539062 0.1137695 0.1660156 -0.1826172 0.1738281 0.0266113 0.0612793 -0.2070312 -0.0336914 -0.0712891 -0.1137695 -0.0190430 0.0668945 0.2216797 -0.0791016 0.0380859 -0.1777344 0.0329590 -0.0505371 0.1215820 0.1542969 0.0002880 0.0332031 -0.0329590 -0.0014267 -0.0966797 -0.1503906 -0.1503906 -0.0142822 -0.0810547 0.0158691 -0.0302734 0.1186523 -0.1210938 0.0164795 0.1591797 -0.0358887 -0.0512695 -0.0844727 0.0371094 -0.0214844 0.1533203 -0.0311279 0.0010223 0.1132812 0.0410156 -0.0385742 -0.1064453 -0.0781250 -0.0229492 0.0169678 0.2148438 -0.0620117 0.0498047 -0.1835938 -0.1049805 -0.0820312 -0.0366211 0.1738281 -0.0747070 0.0649414 0.0260010 -0.1943359 0.1000977 0.1513672 0.0864258 0.0539551 0.0595703 -0.0844727 0.0190430 -0.0583496 -0.0717773 -0.2226562 -0.0942383 -0.0502930 0.1572266 -0.1982422 0.0849609 -0.0859375 0.2285156 0.0260010 -0.1386719 -0.0066833 -0.0551758 0.0500488 -0.1894531 0.0698242 -0.0451660 0.0932617 -0.1396484 -0.1181641 0.2695312 -0.0639648 0.1464844 -0.2695312 0.0263672 0.0402832 -0.0119629 -0.1503906 0.1689453 -0.1171875 0.0722656 0.2578125 0.0830078 0.0776367 0.0121460 -0.0151367 0.0502930 -0.0257568 0.0095825 -0.0427246 -0.3906250 -0.1289062 0.1650391 0.1943359 -0.0246582 -0.0136719 -0.0849609 -0.1250000 0.0402832 0.0311279 0.1162109 0.0368652 0.0617676 0.1337891 -0.0659180 -0.1328125 0.0407715 0.1787109 0.1225586 -0.1904297 0.1425781 -0.0810547 -0.1953125 0.0927734 -0.1098633 -0.1542969 0.1386719 -0.1611328 0.0952148 0.0148315 -0.0161133 -0.0307617 -0.1962891 -0.1376953 0.0366211 -0.0055237 -0.0063477 -0.2402344 0.1162109 0.0766602 0.1186523 0.2148438 -0.0820312 -0.1298828 0.0327148 0.0027466 -0.1455078 0.0786133 0.0227051 -0.0279541 -0.0727539 -0.0529785 -0.0629883 -0.0358887 -0.0324707 -0.2021484 0.0197754 -0.1289062 0.1132812 0.0883789 0.2314453 0.0463867 0.0583496 -0.1049805 -0.3085938 0.2832031 -0.0153809 0.0281982 0.0111694 0.0571289 -0.0529785 0.2460938 0.0156250 -0.0103149 -0.1494141 -0.1865234 -0.0917969 0.0288086 0.0844727 0.0537109 -0.0322266 -0.1010742 0.1513672 -0.1308594 -0.0581055 0.0216064 -0.0405273 0.1210938 0.0023804 -0.0042725 0.0893555 -0.0996094 -0.0180664 -0.0085449 0.1406250 -0.2167969 -0.1108398 0.0451660 0.1176758 0.0213623 0.0170898 0.0588379 0.0275879 -0.0424805 0.2617188 0.0255127 0.1357422 -0.0981445 0.0830078 0.0378418 -0.1884766 0.1083984 -0.2470703 -0.1328125 0.0668945 0.2167969 0.2255859 0.0781250 -0.0209961 0.0301514 -0.0810547 -0.2324219 -0.1679688 -0.1972656 -0.0419922 0.0023041 0.0082397 -0.1064453 0.1601562 -0.0859375 0.0644531 -0.1020508 -0.1376953 -0.0502930 0.2314453 0.1445312 0.0422363 0.0434570 -0.0927734 -0.1289062 -0.0001516 0.0211182 -0.1728516 -0.1396484 -0.2216797 -0.0085449 0.1484375 -0.0981445 -0.1669922 -0.1601562 0.1367188 -0.1259766
argue 0.0104370 0.0077209 -0.0040588 0.1669922 -0.0668945 0.1503906 0.2792969 0.0192871 0.1166992 0.0251465 -0.2675781 -0.1728516 -0.2324219 0.1552734 -0.1884766 0.2148438 0.1923828 0.1894531 -0.1157227 -0.2255859 -0.0255127 -0.0317383 0.0854492 0.0190430 0.2099609 0.0270996 -0.1079102 -0.1250000 -0.0678711 0.0996094 0.0134277 -0.0893555 -0.0639648 0.1962891 0.2138672 0.1767578 0.2119141 -0.0625000 -0.0033417 0.0786133 -0.1015625 0.0844727 0.2871094 -0.2402344 -0.2597656 -0.1894531 -0.1416016 0.0344238 -0.1318359 0.0625000 -0.0079956 -0.2392578 -0.2363281 -0.2275391 0.0522461 0.2792969 -0.1894531 -0.1279297 0.1552734 0.0030823 -0.0659180 0.0344238 -0.0761719 -0.2519531 0.0388184 -0.1523438 0.0683594 0.0074158 -0.0644531 0.0761719 0.0480957 0.0878906 0.3632812 0.0500488 -0.1108398 -0.2031250 -0.0407715 0.2636719 0.1074219 0.2187500 -0.0177002 0.0498047 0.0148926 0.1250000 -0.2753906 -0.1064453 -0.0344238 0.3769531 0.0106812 -0.1650391 -0.0185547 0.0339355 -0.0712891 -0.0380859 0.2500000 0.0161133 0.2031250 -0.0008774 -0.0771484 -0.0049133 0.1142578 -0.0040894 0.1069336 0.1845703 0.1923828 -0.1108398 0.0742188 -0.0105591 0.1972656 -0.1240234 0.0432129 -0.0356445 -0.1835938 0.3398438 0.0060425 -0.2236328 0.1835938 -0.0991211 -0.1308594 0.1064453 0.0664062 0.1186523 -0.1445312 0.2382812 -0.1157227 -0.2109375 -0.1533203 0.0275879 -0.1259766 -0.1523438 0.2382812 -0.3105469 0.0566406 -0.0703125 0.0820312 -0.0986328 0.0137329 0.2119141 -0.0830078 -0.0644531 0.2792969 -0.2373047 0.0039673 -0.0617676 0.0224609 0.0246582 -0.0888672 0.2519531 0.1367188 0.0163574 -0.1552734 -0.0869141 -0.1689453 -0.0050049 0.0712891 0.0546875 -0.1542969 0.0358887 -0.4101562 0.0074158 -0.0668945 -0.0590820 -0.0498047 -0.4062500 0.1074219 -0.1416016 -0.0166016 -0.3457031 -0.0952148 -0.1582031 -0.1357422 -0.1943359 0.0463867 -0.1118164 -0.1376953 -0.1132812 -0.0058289 -0.0062561 -0.2050781 0.1215820 0.1035156 -0.0878906 -0.0654297 0.1894531 -0.0644531 -0.0116577 0.0539551 0.0083618 -0.0434570 0.0010071 0.0078125 -0.0991211 0.2480469 -0.0269775 -0.0668945 0.0527344 -0.0683594 -0.1147461 -0.0206299 -0.1494141 0.1640625 0.0717773 -0.1552734 -0.1796875 -0.0292969 0.0471191 0.0312500 -0.0463867 -0.1367188 -0.1738281 -0.0834961 0.1845703 0.0893555 -0.1943359 -0.3652344 -0.1914062 -0.0045776 -0.0028687 0.1826172 -0.2363281 -0.0332031 -0.2207031 -0.2324219 0.0820312 0.0747070 -0.0042114 0.0241699 0.2490234 0.2656250 0.0466309 -0.0668945 -0.0208740 0.0001278 -0.0371094 -0.0888672 0.0952148 -0.1298828 -0.1738281 0.2285156 -0.2578125 -0.2617188 -0.0986328 -0.0493164 -0.1123047 -0.2871094 0.2988281 0.0019302 0.0111694 0.0371094 0.0400391 -0.1943359 0.2089844 -0.1215820 0.1064453 -0.0068665 -0.0600586 -0.2021484 0.2734375 0.1035156 0.0405273 -0.1689453 0.0590820 -0.0800781 0.1884766 0.1669922 0.2089844 0.0805664 -0.1196289 -0.1147461 0.0236816 0.0986328 -0.0351562 0.1669922 -0.0179443 0.0766602 -0.0893555 -0.2490234 -0.0483398 0.2119141 0.0085449 -0.0815430 -0.0213623 0.1083984 -0.0520020 -0.1767578 -0.0527344 -0.0561523 0.1718750 0.1484375 -0.0123291 0.1191406 0.1196289 0.0966797 -0.0277100 -0.0520020 -0.2714844 0.0439453 -0.1914062 0.2695312 0.2138672
argument 0.0859375 -0.0766602 -0.0737305 0.1835938 -0.0300293 0.3125000 0.3593750 -0.0393066 0.0698242 0.2558594 -0.3945312 -0.0688477 -0.0227051 0.0400391 -0.2402344 0.0893555 0.2617188 0.1425781 0.1074219 -0.2773438 0.2236328 -0.0629883 0.2187500 -0.0280762 -0.0242920 -0.0071411 -0.1826172 0.1259766 0.0058289 0.2177734 0.1464844 -0.2851562 0.0529785 0.0966797 0.4023438 0.2988281 0.2148438 0.0585938 0.1357422 0.1523438 -0.2314453 0.1972656 0.2968750 -0.0172119 -0.3613281 -0.0140381 -0.1562500 -0.1406250 -0.2500000 0.1044922 0.0834961 -0.1132812 -0.3808594 -0.1191406 0.2060547 0.0732422 -0.1020508 -0.0129395 0.1318359 -0.3964844 -0.1279297 0.1796875 -0.0060730 -0.1250000 -0.1474609 -0.1396484 -0.0471191 0.0117188 -0.0268555 -0.3515625 0.0625000 -0.1845703 0.1523438 0.0051575 -0.0908203 0.1777344 0.1279297 0.0849609 0.1777344 0.1630859 0.1533203 0.0302734 -0.0063477 -0.1210938 -0.2929688 0.1289062 0.0698242 0.4648438 0.0014267 -0.2890625 -0.1943359 0.2500000 -0.2519531 0.1875000 -0.0761719 0.1113281 -0.0603027 -0.0957031 0.1206055 -0.1093750 -0.0297852 0.1425781 0.1669922 0.0429688 0.0913086 -0.1640625 -0.1005859 -0.0227051 0.1035156 0.0275879 -0.0678711 -0.2773438 -0.0179443 0.1621094 -0.1123047 -0.2275391 0.1367188 0.1347656 -0.1088867 0.1308594 0.0668945 0.0314941 -0.0023499 0.0240479 -0.2216797 -0.0593262 -0.0693359 -0.0083618 0.0363770 0.0839844 0.0054016 -0.3125000 -0.1196289 -0.0859375 0.0830078 -0.0184326 -0.0800781 -0.0708008 -0.2177734 0.0311279 0.3242188 0.1215820 0.1166992 -0.1416016 -0.0593262 0.1289062 -0.1186523 0.1108398 0.2392578 0.0314941 0.0412598 0.0756836 0.1347656 -0.2177734 -0.0500488 0.0317383 -0.1176758 -0.1621094 -0.2792969 -0.0240479 -0.2539062 -0.1845703 0.0537109 -0.3085938 -0.1503906 -0.1777344 0.2714844 -0.1855469 0.0996094 -0.3125000 0.0079956 0.0077820 -0.0168457 -0.1992188 -0.1279297 -0.1542969 0.1337891 0.0390625 -0.0349121 0.1660156 0.0859375 -0.0317383 -0.1835938 0.1157227 0.2578125 -0.1049805 -0.0810547 0.1171875 0.1142578 -0.1376953 -0.2031250 -0.2402344 0.2031250 0.1386719 -0.0314941 0.0605469 -0.0732422 0.1250000 -0.0231934 0.2167969 0.1572266 0.1030273 -0.1425781 -0.1240234 0.0805664 -0.0256348 0.2246094 -0.0717773 -0.2050781 -0.1445312 0.1484375 -0.0264893 0.0004101 -0.0537109 -0.3671875 0.0201416 0.0263672 0.3398438 0.0698242 0.1396484 -0.0515137 0.0130005 0.0644531 0.0688477 0.0332031 0.0169678 0.1679688 0.3710938 0.2373047 0.1816406 0.0417480 0.0551758 -0.2597656 -0.0290527 -0.0986328 0.2138672 -0.0834961 -0.0771484 -0.0893555 -0.0839844 -0.1855469 -0.0932617 -0.1865234 -0.3925781 -0.3085938 0.3828125 0.1513672 0.0354004 0.2832031 0.0576172 0.0898438 0.0014801 -0.3476562 0.0068970 0.1347656 -0.0173340 -0.3808594 0.1582031 0.0888672 0.0742188 0.0258789 0.0327148 -0.3359375 0.0561523 -0.1455078 0.3750000 0.0223389 -0.2753906 -0.5703125 -0.0810547 0.0153198 -0.0145874 0.1289062 0.0688477 0.1865234 -0.1347656 -0.1000977 -0.0314941 0.0644531 0.1601562 -0.0356445 -0.0844727 0.0235596 -0.0461426 -0.3671875 -0.1416016 -0.0083618 0.2001953 0.2080078 0.0766602 0.0147095 -0.0128784 0.1816406 -0.0417480 -0.0805664 0.0395508 0.0947266 -0.3867188 -0.0771484 0.2675781
arrange -0.0493164 0.1127930 -0.0437012 -0.1875000 -0.0174561 0.0485840 -0.0673828 0.1826172 0.1406250 -0.4023438 -0.2460938 -0.1259766 -0.0317383 0.1337891 -0.0544434 0.4765625 0.1386719 -0.0834961 0.1005859 0.0957031 0.1601562 0.0415039 0.2421875 0.2431641 -0.0385742 -0.0090332 -0.1494141 -0.0708008 -0.0781250 -0.0322266 0.1132812 0.1611328 -0.2539062 -0.0590820 -0.1035156 0.0981445 0.0595703 -0.1474609 -0.0256348 -0.1845703 0.0488281 -0.1064453 0.0110474 -0.3105469 -0.1328125 -0.1923828 -0.0397949 -0.0478516 0.0480957 -0.0198975 -0.1562500 -0.0329590 0.1777344 0.0071106 -0.4101562 0.0275879 -0.0683594 0.0116577 0.0476074 -0.1435547 -0.0913086 -0.2158203 -0.2519531 0.1845703 0.0155029 -0.0649414 -0.2871094 -0.2148438 0.1137695 0.1611328 0.2128906 0.1093750 0.0791016 0.2177734 0.0573730 -0.1142578 -0.2158203 0.1157227 -0.1494141 0.1108398 0.0732422 -0.0163574 -0.1728516 0.1591797 0.1748047 -0.0187988 0.0170898 -0.2031250 -0.0390625 0.5039062 0.2773438 -0.0317383 -0.0236816 -0.4375000 0.0395508 -0.2373047 0.2460938 0.1425781 -0.0800781 -0.0238037 -0.1933594 -0.1123047 -0.1630859 0.1054688 0.1425781 -0.0194092 -0.0222168 -0.0708008 0.1660156 0.1718750 -0.2314453 -0.0805664 0.1474609 -0.2470703 -0.0170898 0.0454102 0.3281250 -0.1601562 0.4140625 0.2343750 0.1445312 -0.2099609 0.2265625 0.2324219 -0.0346680 0.3222656 -0.1835938 -0.1875000 0.4570312 0.0432129 0.1298828 -0.0437012 0.1611328 0.2070312 0.0888672 -0.0375977 -0.1171875 0.1640625 -0.1157227 0.1157227 0.1523438 0.0023956 -0.3417969 0.1503906 0.2177734 0.3300781 -0.4941406 -0.1513672 -0.2294922 0.0405273 0.3886719 0.0546875 -0.1484375 0.0859375 0.0222168 -0.2138672 -0.0209961 0.0795898 -0.1962891 0.0986328 -0.1328125 -0.2949219 -0.0742188 0.0351562 0.1162109 0.1279297 0.1972656 -0.2412109 0.0322266 0.0272217 -0.0017929 -0.1718750 0.1269531 -0.1308594 0.0502930 -0.2050781 0.2675781 -0.0495605 -0.2539062 0.3808594 -0.0349121 -0.2187500 0.0057678 0.0688477 0.0815430 -0.2080078 0.1816406 -0.1835938 -0.1250000 0.1347656 -0.0869141 -0.0200195 0.0664062 -0.2343750 -0.0156250 -0.2968750 0.1425781 -0.1630859 -0.1943359 -0.2285156 0.1367188 0.2851562 -0.4003906 -0.1572266 0.0349121 -0.2363281 0.0155029 0.1201172 0.1269531 -0.0138550 0.0581055 -0.0264893 -0.0625000 0.0688477 -0.0214844 -0.0086060 0.0742188 0.1069336 -0.0585938 -0.3730469 0.1347656 -0.1894531 0.0537109 0.3476562 -0.0161133 0.0922852 -0.1435547 0.1621094 0.0942383 -0.0385742 0.1166992 -0.0507812 -0.0334473 -0.0019379 0.1142578 -0.1347656 0.1523438 -0.2421875 -0.0319824 -0.1884766 -0.0218506 0.1503906 -0.1474609 0.2617188 0.1826172 0.0194092 -0.0015335 0.1484375 -0.0615234 -0.3007812 -0.0029297 0.1445312 -0.1328125 -0.0424805 0.1376953 0.2109375 -0.0068665 -0.1298828 0.0419922 -0.0103149 -0.1416016 -0.1835938 -0.0761719 -0.2148438 0.4433594 -0.0220947 0.1166992 -0.0150757 0.1279297 0.0118408 0.2412109 0.1982422 0.2451172 0.1904297 0.1591797 -0.1225586 -0.0178223 0.0185547 0.0114746 -0.2773438 0.0262451 -0.2070312 0.0200195 -0.1396484 0.0106201 0.2031250 -0.1718750 0.1738281 -0.0576172 0.3222656 -0.1416016 0.3007812 -0.0329590 -0.1162109 -0.0893555 -0.0664062 -0.1279297 -0.1098633 -0.0058289 -0.1396484
arrive 0.0507812 0.1962891 -0.0227051 0.0864258 -0.2333984 -0.0532227 0.0205078 -0.1816406 -0.0099487 -0.0289307 0.2158203 0.1542969 0.1855469 0.1113281 -0.0147705 0.0952148 -0.0412598 0.0795898 0.1245117 0.1259766 -0.1855469 0.1474609 0.0274658 0.1855469 0.2617188 0.0213623 -0.1455078 -0.1074219 0.1098633 -0.1074219 0.0290527 -0.1660156 -0.4218750 -0.1435547 -0.1494141 0.0037842 -0.1416016 0.1162109 -0.0756836 0.0128784 0.1601562 -0.1914062 0.1416016 -0.0157471 -0.0493164 -0.2558594 -0.3007812 0.2070312 -0.3359375 0.3496094 0.2099609 0.1621094 0.0082397 -0.1088867 0.0590820 -0.0966797 -0.0756836 -0.0390625 0.0747070 0.0224609 -0.1425781 0.0216064 -0.1328125 -0.1445312 0.0100098 -0.1435547 -0.2656250 0.0683594 -0.2753906 0.2578125 0.2675781 0.1757812 -0.0049133 0.0190430 -0.2500000 0.0649414 -0.2597656 -0.1225586 -0.1054688 0.0776367 0.0878906 -0.1494141 -0.0197754 0.0712891 0.0322266 -0.1406250 0.1269531 -0.2236328 -0.0815430 0.3242188 0.1533203 -0.2148438 -0.0019302 0.0238037 0.0583496 -0.0844727 0.1474609 0.1582031 0.0011139 -0.2265625 0.1972656 -0.1660156 0.1250000 0.0747070 -0.0366211 -0.1972656 -0.0554199 -0.1020508 0.1816406 0.1108398 0.2080078 0.0712891 0.0522461 -0.2578125 -0.1015625 -0.0027161 0.0830078 -0.0751953 0.2246094 0.1640625 0.1127930 -0.1572266 0.1718750 0.2636719 0.1953125 0.3164062 -0.1855469 -0.0529785 -0.1640625 0.1147461 0.0268555 -0.0673828 0.0446777 -0.1000977 -0.2617188 -0.0451660 -0.0771484 -0.1347656 -0.1025391 0.1513672 -0.1386719 -0.0220947 -0.0478516 -0.0917969 0.0615234 0.1962891 0.1010742 -0.2949219 0.0251465 -0.1884766 0.0407715 0.2734375 0.0864258 0.0480957 -0.0727539 -0.3632812 -0.1591797 -0.1679688 -0.1601562 -0.0177002 -0.1132812 -0.3027344 -0.0649414 -0.2558594 0.1650391 -0.1137695 0.0039978 -0.0383301 0.0079346 -0.1669922 -0.3320312 -0.1083984 0.0463867 0.1108398 -0.0698242 0.3847656 0.2031250 0.0659180 -0.0294189 0.0737305 0.0252686 0.0834961 -0.0463867 0.0839844 -0.1640625 -0.0229492 0.0534668 -0.1298828 -0.0351562 0.1787109 0.2460938 0.0791016 0.1552734 -0.1523438 0.0644531 0.3574219 0.0556641 -0.0712891 -0.1826172 -0.0791016 0.2714844 0.1552734 -0.3085938 0.1425781 0.0463867 0.0874023 0.0145264 0.2578125 0.2285156 -0.2216797 0.1552734 0.0766602 -0.0168457 0.0512695 -0.4531250 0.0625000 0.0805664 -0.1416016 -0.1406250 -0.0153198 -0.0971680 -0.1000977 0.0471191 0.1953125 0.2246094 -0.1416016 -0.1513672 0.2373047 -0.0311279 0.0649414 0.4511719 -0.0495605 -0.0898438 -0.0766602 0.4199219 0.2041016 -0.0184326 -0.2734375 0.1147461 -0.0131226 -0.1406250 0.1132812 -0.1796875 -0.1376953 -0.2988281 0.0568848 0.1044922 -0.0742188 0.0480957 -0.0077515 0.0495605 0.0927734 -0.0130615 0.1933594 0.0639648 0.1533203 0.1147461 -0.0180664 -0.1298828 -0.0031586 -0.1933594 -0.2890625 -0.0913086 0.0524902 0.1787109 -0.2792969 0.2636719 -0.1894531 0.0722656 -0.0639648 0.2343750 0.2138672 -0.1010742 0.1582031 0.2226562 -0.2089844 -0.0058289 -0.1040039 -0.1572266 0.0327148 0.0049438 -0.2138672 0.1894531 -0.0878906 0.1689453 0.1235352 -0.2109375 0.0451660 -0.1269531 0.1855469 0.0184326 -0.1191406 0.0437012 0.0424805 0.3300781 0.1494141 -0.2636719 0.0006523 0.1503906 -0.1000977
arrow 0.1816406 0.1250000 -0.1279297 -0.0683594 -0.2021484 -0.0021820 -0.1044922 -0.3828125 0.0063782 0.1845703 -0.0932617 -0.1464844 0.1718750 -0.0756836 -0.0463867 -0.1650391 -0.1699219 -0.0415039 -0.1079102 -0.4863281 0.1835938 0.1015625 -0.0344238 -0.0290527 -0.2197266 -0.2597656 0.0761719 0.2714844 0.2109375 -0.1826172 0.0476074 -0.0708008 0.0183105 -0.1552734 0.1660156 0.0371094 0.3906250 0.2285156 0.1113281 -0.0527344 0.0344238 0.1416016 0.2558594 -0.0815430 0.0815430 -0.1083984 0.3789062 0.1059570 0.2929688 -0.2753906 -0.4062500 0.0541992 0.0776367 -0.2851562 -0.0043335 -0.1030273 0.0194092 -0.1503906 -0.0742188 0.1513672 -0.3828125 0.0527344 -0.0317383 0.1269531 -0.3339844 -0.2392578 0.3203125 -0.1992188 -0.1953125 0.2675781 -0.2089844 -0.0356445 -0.0830078 -0.4941406 -0.0295410 -0.0256348 0.0151367 0.0544434 0.1455078 0.0668945 0.0864258 -0.1210938 0.0854492 -0.3457031 0.1069336 0.1826172 -0.1835938 -0.1718750 0.4960938 -0.1689453 -0.2177734 0.4589844 0.0603027 -0.0576172 -0.0051575 -0.0299072 0.3496094 -0.2792969 -0.0295410 -0.0344238 0.1093750 -0.2539062 0.1621094 -0.1679688 0.2216797 -0.0495605 -0.0405273 -0.1318359 0.3535156 -0.2675781 -0.4687500 -0.4746094 0.1328125 0.0839844 0.0029297 0.1621094 0.2470703 -0.2001953 -0.1098633 -0.2617188 0.0878906 -0.0615234 0.0112305 -0.1176758 -0.0437012 -0.0483398 0.0522461 -0.2988281 0.1088867 0.2060547 -0.1181641 -0.0546875 -0.2304688 0.1455078 0.4726562 -0.0732422 0.0893555 0.0747070 0.1816406 0.1230469 0.0209961 0.1455078 -0.3378906 0.1572266 0.1953125 -0.0361328 -0.1152344 -0.3242188 -0.1435547 0.0135498 0.0155640 -0.0035858 -0.1040039 0.0937500 -0.1347656 -0.0012054 -0.1533203 0.2343750 0.2578125 -0.0888672 -0.0400391 -0.1748047 0.2558594 -0.1328125 -0.0732422 -0.0174561 0.3183594 0.0800781 -0.0639648 -0.2617188 -0.1884766 0.0310059 -0.1699219 0.2832031 -0.0654297 -0.1196289 0.0805664 -0.1708984 -0.0385742 -0.3710938 -0.5078125 -0.1806641 0.0395508 0.0419922 0.0034485 0.2832031 -0.0737305 0.1513672 0.2490234 -0.0108643 0.1718750 -0.1191406 -0.1601562 0.0238037 0.1044922 -0.1816406 -0.0081787 -0.1425781 0.1005859 0.2333984 -0.0981445 -0.4960938 -0.2656250 0.0805664 0.0908203 -0.1137695 -0.0776367 -0.1572266 0.1181641 -0.1098633 -0.3164062 0.0515137 -0.2773438 0.0471191 -0.1894531 0.1147461 -0.0400391 0.0017929 -0.1157227 0.0598145 -0.2968750 0.1396484 0.0517578 0.0541992 -0.1591797 0.1679688 0.2197266 -0.0233154 -0.0449219 -0.1689453 -0.0532227 -0.0266113 -0.1904297 0.0021667 0.0136108 0.0050659 0.1699219 0.1269531 0.4023438 0.1035156 0.0756836 -0.1972656 0.0073242 -0.5000000 0.0551758 -0.1357422 0.1416016 0.1396484 0.3964844 -0.1601562 -0.3261719 -0.0795898 -0.1718750 -0.0224609 0.2324219 -0.0136719 -0.3574219 -0.2187500 -0.0468750 -0.2041016 0.1201172 -0.0498047 -0.0329590 -0.1884766 0.1215820 0.4550781 0.0033417 -0.0175781 0.0006218 -0.0177002 0.1132812 0.0061035 -0.2578125 -0.0717773 0.1147461 -0.2617188 -0.0588379 -0.2353516 -0.0610352 0.3671875 -0.2451172 -0.1054688 -0.0473633 -0.0976562 -0.0283203 0.1079102 -0.0903320 0.0505371 0.0361328 0.2656250 -0.1406250 0.0898438 -0.1484375 -0.1591797 0.0825195 -0.0717773 0.1337891 -0.1533203 -0.0111084 0.1337891
ask -0.0280762 0.0585938 0.1894531 0.0976562 -0.2343750 -0.0312500 0.0563965 0.0888672 0.0112305 0.0908203 -0.1679688 0.0625000 -0.1079102 -0.0668945 -0.1835938 0.4726562 0.1621094 -0.0189209 -0.1572266 0.0329590 0.2001953 -0.1113281 0.1992188 0.0253906 0.0061035 0.0937500 -0.0708008 -0.0471191 0.1118164 0.1650391 0.0227051 0.0113525 -0.1708984 -0.0522461 -0.1660156 -0.1611328 0.1132812 0.0295410 -0.0332031 0.0598145 -0.0598145 -0.0644531 0.1572266 -0.2363281 -0.1777344 -0.0698242 -0.1718750 -0.1503906 -0.1347656 0.1591797 -0.2187500 -0.0947266 -0.0099487 0.0559082 -0.0961914 0.1142578 -0.1376953 0.1689453 0.0324707 -0.0356445 0.0927734 -0.0388184 -0.1728516 0.0319824 0.0742188 -0.1396484 -0.1308594 -0.0267334 -0.0220947 -0.0622559 0.1386719 0.0284424 0.0119629 0.0186768 -0.3007812 -0.2285156 0.0383301 0.2255859 0.0927734 0.3730469 -0.0839844 -0.0441895 0.0179443 0.2314453 -0.0284424 -0.0947266 -0.1796875 -0.0712891 0.0546875 0.1054688 0.0424805 0.0610352 -0.1748047 -0.1289062 0.1240234 -0.1630859 0.3164062 0.1689453 0.0380859 0.0622559 -0.0869141 -0.0854492 -0.0133057 0.1113281 -0.0077515 -0.0859375 -0.0693359 -0.0001726 0.0114746 0.0888672 -0.0712891 -0.2294922 -0.0010452 0.1357422 -0.0077209 -0.1601562 0.0781250 -0.0737305 0.1474609 -0.0358887 0.0299072 0.1406250 -0.1215820 0.3398438 -0.0878906 -0.0024567 -0.1196289 -0.1474609 0.0883789 0.0005836 -0.1416016 -0.3515625 -0.1025391 0.0532227 0.1669922 -0.0654297 -0.0581055 0.0864258 0.0517578 0.1708984 0.2441406 -0.0834961 -0.1982422 -0.1650391 0.2089844 -0.0153809 -0.1235352 -0.5234375 -0.0314941 -0.1118164 -0.0747070 0.0830078 -0.1298828 -0.0277100 0.1054688 0.1054688 -0.1347656 -0.0091553 -0.1289062 -0.0263672 0.1171875 0.0070496 0.1582031 -0.1533203 0.1972656 -0.1127930 0.2031250 -0.1982422 0.0314941 -0.0167236 0.0071716 0.0500488 0.0703125 -0.0170898 -0.2294922 -0.1806641 0.2236328 0.1416016 -0.2275391 0.1005859 -0.1235352 0.0534668 0.0028381 0.0129395 -0.0060425 -0.2392578 -0.1250000 -0.0849609 0.1777344 -0.0439453 0.1425781 0.0505371 0.2031250 -0.0071411 0.1137695 -0.2578125 0.1611328 -0.0600586 -0.0449219 -0.0634766 -0.0712891 0.3417969 -0.1059570 0.0466309 -0.0737305 0.0179443 -0.0206299 0.0839844 0.0800781 -0.0615234 0.0417480 0.1582031 0.0615234 -0.1835938 -0.3437500 0.0112915 0.1386719 0.0898438 -0.1689453 -0.0986328 0.0132446 -0.1708984 -0.2519531 0.0306396 0.2714844 -0.0314941 0.1137695 0.0142212 -0.0383301 0.0261230 0.1708984 -0.0473633 -0.0922852 -0.0478516 0.1894531 0.0329590 0.1162109 -0.1806641 0.0756836 -0.0834961 -0.0505371 -0.1064453 -0.0849609 0.2031250 -0.1494141 0.0207520 0.0612793 0.0830078 0.0078735 -0.0834961 0.0274658 0.0319824 0.1972656 -0.0751953 -0.0217285 -0.1279297 0.0617676 0.0495605 -0.1230469 -0.0874023 -0.1982422 -0.1142578 -0.1049805 -0.1445312 0.0781250 0.0976562 0.0966797 0.1347656 -0.1953125 -0.0996094 0.1611328 0.1298828 0.2275391 -0.0102539 0.0874023 -0.1220703 -0.0556641 -0.0815430 -0.1435547 0.0283203 0.0220947 -0.0659180 0.0693359 0.1630859 0.1269531 0.0242920 -0.0324707 0.2431641 0.1474609 0.2187500 0.0561523 0.0971680 0.0272217 -0.0583496 -0.0402832 -0.0563965 0.1875000 -0.0913086 -0.0332031 0.0229492
assay -0.4121094 0.2382812 0.3125000 0.1708984 0.3457031 -0.0864258 -0.4765625 -0.4062500 0.1562500 0.2851562 -0.3261719 -0.0625000 0.2636719 -0.0603027 -0.3886719 0.3652344 -0.1767578 0.2167969 -0.3164062 -0.3652344 -0.1386719 -0.1767578 -0.0122681 -0.1279297 -0.1591797 0.5429688 -0.0761719 0.2187500 0.1650391 -0.2734375 0.2890625 -0.5273438 0.1718750 0.0415039 -0.2578125 0.2617188 0.0463867 0.2158203 0.4765625 0.0066528 0.4707031 -0.1020508 0.0456543 -0.0336914 -0.1474609 -0.4531250 -0.3320312 -0.0263672 -0.2656250 -0.1982422 -0.0888672 -0.4101562 -0.0317383 -0.3339844 0.4218750 0.1679688 0.0334473 0.0451660 -0.2021484 0.1328125 -0.0673828 -0.5039062 -0.0917969 0.1240234 -0.1748047 -0.2500000 0.3613281 -0.5234375 -0.1923828 -0.2070312 0.1562500 -0.2207031 0.5937500 -0.5117188 -0.1157227 -0.1157227 0.1582031 -0.2753906 0.0255127 0.2792969 -0.0195312 0.4375000 0.1630859 0.1582031 0.1552734 0.2177734 0.3339844 0.0289307 -0.3496094 0.1059570 -0.2617188 -0.3496094 0.0056458 0.6796875 0.2539062 0.1416016 -0.2539062 -0.6250000 0.4941406 -0.1000977 0.2138672 -0.3203125 0.2949219 -0.3437500 0.0306396 -0.2773438 -0.2246094 0.2714844 0.3867188 0.2500000 0.0272217 0.3203125 0.1777344 0.2636719 -0.0490723 0.2226562 -0.0059509 0.0622559 0.5898438 -0.1845703 -0.0012970 -0.1093750 -0.3339844 0.0849609 0.5429688 -0.1904297 -0.4843750 0.2158203 -0.3281250 0.0505371 0.2519531 -0.1069336 -0.3574219 0.0297852 -0.3710938 -0.1191406 0.2490234 -0.1689453 0.5546875 0.4902344 -0.5078125 0.1181641 -0.2675781 0.1416016 -0.1455078 0.4628906 0.1777344 -0.0712891 -0.2519531 -0.2392578 0.2636719 -0.3945312 -0.0412598 -0.0319824 -0.0186768 -0.4726562 -0.0466309 0.2285156 -0.5625000 -0.1953125 0.0031586 0.4218750 0.3027344 0.7734375 -0.3925781 -0.3886719 0.1318359 -0.0776367 -0.0781250 -0.1679688 0.1748047 -0.5312500 0.2460938 0.3691406 0.4101562 0.4277344 -0.0260010 -0.0869141 0.0703125 -0.5781250 -0.2265625 0.1347656 0.3300781 -0.2333984 0.0162354 0.1093750 -0.5585938 0.0303955 -0.0390625 0.1923828 -0.4160156 0.0703125 -0.2773438 0.3183594 -0.0267334 -0.1147461 0.9531250 -0.2890625 -0.2216797 0.1699219 0.4824219 0.3613281 -0.0264893 -0.0064392 -0.2519531 -0.0058289 0.4257812 -0.0397949 0.3769531 -0.5039062 0.0446777 0.1289062 -0.7460938 0.4101562 -0.2871094 0.2041016 -0.1127930 -0.1191406 0.1240234 -0.1835938 -0.1318359 0.4257812 -0.0317383 0.1191406 0.2392578 0.2441406 -0.0273438 -0.0649414 0.2197266 -0.0781250 0.0197754 0.3535156 -0.1728516 0.2089844 -0.2851562 -0.2851562 -0.4355469 0.2451172 0.3652344 0.1523438 0.5039062 0.2001953 0.6367188 -0.3808594 -0.5468750 -0.2265625 0.2119141 -0.0366211 -0.0034180 -0.2363281 0.3476562 -0.1357422 0.0281982 -0.2558594 0.5664062 0.2373047 -0.3398438 -0.2597656 0.1787109 0.1533203 -0.0022736 0.0200195 -0.3789062 -0.4082031 0.2636719 -0.1259766 0.1098633 -0.3300781 -0.1049805 0.1435547 -0.2636719 0.5117188 -0.0771484 -0.6328125 0.2207031 0.4003906 0.1054688 -0.5937500 0.6054688 0.1347656 0.2216797 0.2451172 -0.4902344 -0.1972656 -0.4101562 0.0277100 0.0288086 0.0878906 -0.2236328 0.1777344 -0.3437500 -0.0084229 -0.2373047 0.3945312 0.1259766 -0.1347656 -0.2402344 -0.0284424 0.1054688 -0.5351562
assume 0.0664062 -0.1030273 -0.0825195 0.1079102 -0.0781250 -0.0737305 0.3144531 -0.0629883 0.3164062 0.0417480 -0.2109375 -0.0883789 -0.0927734 0.0556641 -0.2275391 0.2158203 0.1059570 0.0493164 -0.0966797 -0.2275391 -0.1933594 -0.1435547 0.2353516 0.0300293 0.2138672 0.1650391 0.0524902 0.0017929 -0.0185547 -0.0083618 0.0383301 -0.0927734 -0.3027344 0.3691406 -0.1552734 -0.0698242 -0.0201416 0.0366211 0.0698242 0.2578125 0.1757812 0.1191406 0.2734375 -0.1318359 -0.0893555 -0.2949219 -0.1318359 -0.0937500 0.0041504 0.0703125 -0.1162109 0.0500488 -0.0121460 -0.2187500 0.1044922 0.0103760 0.0233154 -0.2226562 0.0247803 0.0625000 -0.1118164 0.1669922 -0.1591797 0.0520020 0.2500000 -0.1943359 -0.1279297 0.2734375 -0.1689453 0.0091553 0.3144531 0.1533203 0.0766602 0.2470703 -0.0708008 -0.1357422 -0.1523438 0.0698242 0.1240234 0.0014954 -0.0223389 -0.0737305 0.2275391 0.0874023 -0.1010742 -0.0412598 -0.0703125 0.0130005 0.1767578 -0.0957031 0.0546875 -0.2314453 0.0395508 -0.1137695 0.0932617 -0.0295410 0.0086670 0.2216797 0.0274658 0.1738281 -0.0917969 -0.4121094 -0.1367188 0.1875000 0.0235596 -0.2597656 -0.2412109 -0.2207031 -0.0180664 0.2187500 0.0303955 -0.0089111 -0.1367188 0.0466309 0.0693359 -0.0390625 0.1171875 -0.0162354 0.0617676 -0.0177002 0.0089722 -0.1591797 -0.1953125 0.1953125 -0.1337891 0.0708008 -0.1025391 0.0454102 0.1010742 0.0109863 0.0144653 -0.1855469 -0.2216797 0.2275391 0.0854492 -0.0319824 -0.0810547 0.0839844 0.0756836 0.2304688 0.1748047 -0.1113281 -0.1855469 0.0292969 -0.1787109 0.0947266 -0.0874023 0.0123291 0.0810547 -0.1435547 -0.1328125 0.1000977 -0.1982422 -0.1572266 -0.1230469 0.1445312 -0.2333984 -0.1118164 -0.1367188 0.1875000 0.2128906 0.0932617 0.0072937 -0.1914062 -0.0075684 -0.0693359 0.0341797 -0.1298828 -0.0712891 0.0805664 -0.1650391 0.0064392 0.1943359 -0.1152344 0.2207031 -0.1142578 0.0178223 -0.1049805 -0.2871094 -0.0805664 0.0795898 -0.1035156 0.0258789 0.2167969 0.0294189 -0.0888672 -0.1562500 -0.0942383 0.0397949 0.3027344 0.0247803 -0.0493164 -0.0390625 0.0432129 -0.0322266 -0.0200195 0.0698242 -0.0131226 0.0854492 -0.3046875 0.1552734 0.0122070 -0.0285645 -0.0410156 -0.1562500 0.0439453 0.0781250 -0.0683594 -0.0201416 -0.1474609 -0.0274658 0.2343750 0.1010742 0.0966797 -0.2490234 -0.0659180 -0.3417969 -0.2255859 0.0683594 -0.2460938 0.1010742 -0.0869141 -0.3027344 -0.2714844 0.1445312 0.0712891 0.0397949 0.0664062 0.1416016 -0.0971680 0.1582031 -0.0654297 -0.1640625 -0.0708008 0.0101929 0.3554688 -0.0559082 -0.0400391 0.0563965 0.0044250 -0.3339844 0.0913086 -0.0571289 -0.1425781 -0.1796875 0.1328125 0.0219727 0.0169678 -0.1464844 -0.1503906 -0.0961914 -0.0480957 -0.1015625 0.0115967 -0.0913086 -0.0664062 -0.0878906 0.3710938 -0.0849609 0.0820312 0.1386719 -0.0947266 0.0096436 0.2910156 0.1118164 0.1406250 0.0044556 0.0108643 -0.2187500 0.0306396 0.0839844 -0.0649414 0.3281250 -0.2392578 -0.0476074 0.1533203 -0.0177002 -0.0737305 0.2832031 0.1318359 0.1035156 -0.0732422 -0.0441895 -0.0815430 0.4121094 0.1357422 0.0712891 -0.1137695 0.0003128 -0.2451172 0.1083984 0.4785156 -0.0344238 0.1259766 0.0128174 0.0159912 0.1049805 -0.0629883 0.2734375 0.0109863
assurance -0.2753906 -0.1904297 0.1074219 0.0971680 0.2734375 0.1542969 0.3476562 -0.1533203 0.1787109 0.0123291 -0.2314453 0.1513672 -0.2382812 0.2099609 -0.2539062 0.1992188 0.0554199 0.0864258 -0.3906250 -0.1728516 -0.0115967 0.1093750 0.1044922 0.1953125 -0.0703125 0.1640625 -0.0688477 -0.2392578 0.0113525 0.0236816 0.1210938 -0.0751953 -0.1367188 0.2656250 -0.1279297 -0.0461426 0.1943359 -0.1806641 0.2099609 -0.2617188 -0.1679688 -0.1015625 0.0008049 -0.0361328 -0.2578125 -0.6796875 -0.1162109 0.0742188 -0.2460938 0.1298828 0.0583496 0.2695312 -0.0375977 0.1503906 -0.0620117 -0.0996094 -0.0800781 -0.4218750 0.2500000 -0.3203125 -0.0015640 0.1367188 -0.0703125 -0.0432129 -0.0132446 0.0206299 -0.2753906 0.3671875 0.0094604 0.0067444 0.0544434 0.0351562 -0.0159912 0.0698242 -0.0976562 -0.0981445 0.1108398 -0.0544434 0.1728516 0.1542969 -0.0191650 0.2167969 -0.0273438 -0.1738281 -0.3320312 -0.0717773 -0.0151978 -0.0654297 0.1308594 -0.1396484 0.3242188 -0.0361328 0.1542969 0.0747070 0.1079102 0.2343750 -0.0424805 0.0585938 0.1796875 -0.3398438 0.0634766 -0.1015625 0.0207520 -0.0419922 -0.1445312 -0.1630859 0.2158203 0.1445312 -0.0986328 -0.0546875 0.0461426 -0.0649414 -0.2871094 0.4375000 -0.2773438 -0.0144043 -0.1777344 0.2949219 0.3691406 0.0971680 -0.1699219 0.0615234 -0.2050781 -0.0512695 -0.1210938 0.0539551 -0.0174561 -0.1000977 0.3339844 0.0727539 -0.1464844 0.2871094 -0.1035156 -0.1230469 -0.1904297 -0.0341797 0.1386719 0.0805664 -0.0125122 0.3046875 -0.2128906 -0.2011719 -0.1464844 0.0874023 -0.0844727 0.0776367 -0.2675781 0.0927734 -0.0461426 -0.2255859 -0.2910156 0.4531250 0.0688477 0.0319824 -0.1132812 -0.0922852 -0.2539062 0.2304688 -0.3359375 0.1962891 -0.0732422 0.0622559 0.0786133 0.0073242 -0.3574219 -0.2314453 -0.5234375 -0.0319824 -0.2597656 -0.2871094 -0.0737305 0.4218750 -0.0649414 -0.5898438 0.3906250 -0.3281250 0.1884766 0.0260010 -0.1113281 0.0805664 -0.0559082 0.0698242 0.4042969 0.0781250 -0.0222168 -0.1425781 0.0062256 -0.0766602 -0.2392578 0.2890625 -0.3828125 0.0771484 -0.2812500 0.0332031 -0.0163574 -0.0898438 0.1542969 0.2060547 0.2773438 -0.1669922 0.1875000 -0.1386719 0.0590820 0.0405273 0.0688477 -0.0466309 -0.1035156 -0.0991211 0.0312500 -0.1010742 -0.1904297 -0.0727539 -0.2441406 -0.1826172 -0.0903320 -0.0424805 0.1972656 0.4199219 0.1020508 -0.2041016 -0.1435547 -0.2890625 -0.3515625 -0.1225586 -0.0032501 -0.0490723 0.2080078 0.2988281 0.4589844 -0.0981445 -0.0108643 0.1679688 -0.1689453 -0.2011719 0.2197266 0.2539062 -0.0654297 -0.0590820 0.2109375 0.2011719 -0.1708984 -0.2617188 0.0018768 0.2109375 -0.2089844 -0.3710938 -0.1572266 -0.4570312 -0.0561523 -0.0678711 0.0139160 0.2734375 -0.1572266 0.2128906 -0.1943359 0.0590820 -0.0358887 -0.1127930 -0.0090332 -0.0791016 0.0854492 -0.1308594 -0.1757812 0.1611328 -0.0493164 -0.0529785 0.0112915 -0.1796875 -0.1669922 -0.2675781 0.0151367 -0.0380859 0.1113281 -0.1245117 0.0078735 0.2373047 -0.0781250 -0.0507812 0.4531250 0.1826172 -0.1503906 -0.0095215 -0.0908203 0.0893555 -0.1767578 -0.0976562 0.1806641 -0.1982422 0.1923828 0.2216797 -0.1425781 0.4042969 -0.1201172 -0.0825195 0.0373535 0.1962891 -0.3164062 -0.1523438 -0.1259766 -0.4003906
