52 300
sterling -0.029845 0.045365 -0.082885 0.025241 0.002324 -0.011682 -0.028993 -0.015775 0.050822 0.085613 -0.014837 -0.058326 0.026093 0.123474 0.000474 0.050481 0.086978 0.040931 0.002015 -0.029675 0.004455 0.053210 0.012279 0.028822 -0.007973 0.012023 0.006609 0.059691 -0.011682 0.070606 0.020551 -0.128932 0.104373 -0.022682 -0.012706 -0.016543 -0.020551 -0.001439 -0.059350 -0.004733 0.080497 -0.156901 0.120746 0.043148 0.035814 0.049458 0.023023 0.106420 0.084249 -0.077768 0.076745 0.068900 0.036497 0.039225 -0.019698 0.020551 0.019783 0.071288 -0.016969 -0.087319 -0.011171 0.058667 0.027969 -0.072311 0.036155 -0.085955 -0.045365 0.018419 0.035473 0.004392 -0.013729 -0.076404 0.030869 0.011341 0.050140 0.006310 -0.041954 0.093459 0.086978 -0.060373 -0.109831 0.007248 -0.103009 0.046388 0.057644 0.021574 -0.018675 0.024047 -0.057985 0.049458 0.002729 0.039055 -0.044001 0.040931 0.012365 -0.033256 0.025070 0.013985 -0.015349 -0.051163 -0.035473 0.081862 0.118017 -0.055598 -0.070265 0.031039 -0.075381 0.126203 0.049117 -0.065489 0.029845 0.076063 -0.079133 0.064466 0.062761 -0.074358 0.000397 -0.064466 0.051505 0.094823 0.059350 0.023365 0.033597 0.061737 -0.033768 -0.012450 -0.014326 0.006097 -0.034450 0.051846 0.044001 -0.053551 -0.109831 0.029334 -0.049458 -0.036667 -0.022512 0.054233 -0.039055 0.044342 0.029675 -0.083226 0.014582 -0.066513 -0.120746 0.005457 0.115970 -0.036838 0.023876 0.070606 0.036326 -0.090730 -0.003368 0.087319 -0.025070 0.007547 -0.031892 0.045024 0.048435 -0.017651 -0.025752 0.069582 0.144622 0.040590 0.022512 -0.041442 0.044683 0.019698 -0.122110 0.081520 -0.052187 0.044342 0.001524 -0.041101 -0.068900 -0.130978 0.112560 -0.006822 0.096187 -0.009465 -0.005010 -0.109149 -0.036155 0.007461 -0.032745 -0.124157 0.000640 -0.027799 -0.052528 0.007802 -0.044342 -0.015008 0.024899 0.054574 -0.014326 0.010105 0.045706 0.032403 -0.020721 0.001098 -0.031892 0.042807 -0.078792 -0.022853 0.026264 -0.037008 -0.077086 0.013985 0.065489 -0.008016 -0.047752 -0.110513 -0.025752 0.046729 -0.088683 -0.107102 0.076404 -0.033427 -0.042636 -0.009252 -0.005756 -0.008783 -0.166452 0.031551 0.035132 0.085955 -0.050822 -0.061055 0.065489 -0.044342 -0.053210 -0.038543 0.031892 0.038714 -0.078792 0.038884 -0.000831 -0.078110 -0.001737 -0.063102 0.039908 0.037179 0.019272 -0.074358 -0.068559 -0.017225 0.054233 -0.105738 -0.020977 0.005756 0.042125 0.039225 -0.171909 0.065148 -0.078110 -0.137800 0.001428 0.106420 -0.013388 0.002398 -0.013303 0.065148 -0.020721 0.018931 0.040931 -0.006438 -0.066513 -0.128250 0.035132 -0.043318 0.037690 0.013814 -0.038543 -0.008570 0.068900 0.028652 0.033427 -0.012109 0.023023 0.037008 -0.047411 0.084590 0.067877 -0.027799 0.008144 -0.007802 -0.056962 -0.003731 0.025582 -0.013729 0.015861 0.002729 -0.123474 -0.029163 -0.035644 0.002110 0.087319 -0.020636 -0.036838 -0.037349
octopus 0.095628 0.032472 0.005625 0.076195 -0.017643 -0.018665 0.036819 -0.035797 -0.073638 0.015597 -0.027487 -0.100230 0.036052 -0.094094 -0.117106 -0.009269 -0.047047 -0.102787 0.001294 0.014255 0.069547 0.012337 0.047814 -0.021222 0.036052 -0.082843 -0.068525 0.047302 0.020327 -0.075173 0.047302 0.066479 -0.025569 0.004730 0.055484 0.116083 -0.032984 0.078241 -0.023651 0.060087 0.091537 0.049348 0.083355 0.109946 -0.048070 -0.106367 0.034262 -0.092560 0.033240 0.047302 -0.070059 0.094094 0.014638 -0.076707 0.007223 0.007575 0.057274 -0.116594 0.065968 0.031450 -0.013871 0.002093 -0.024930 -0.018026 0.041677 -0.079264 -0.074661 -0.073638 0.014574 0.024802 0.067502 0.042700 -0.020455 0.025569 -0.043212 0.005401 -0.077730 -0.068525 0.038353 -0.039376 0.039887 0.007415 -0.016172 -0.011634 -0.050627 0.007639 -0.042444 0.007287 0.012593 0.025825 -0.009205 -0.039120 -0.041677 0.130913 -0.065968 0.019305 -0.019177 0.000044 0.133981 0.066479 0.029276 -0.013807 0.078752 -0.000038 -0.057019 -0.002813 -0.009141 -0.031705 0.020967 0.020072 0.002717 -0.118640 0.049604 0.031578 0.003819 0.020839 -0.051905 0.033495 0.025185 -0.001806 -0.014446 -0.059064 0.006456 -0.074150 -0.060854 -0.021094 0.071082 0.012529 -0.027231 -0.003308 -0.035541 0.011186 -0.097673 0.022373 -0.041166 0.066479 -0.061110 -0.057019 -0.016492 0.053183 0.031194 0.069036 -0.048581 0.135004 0.089491 0.038865 -0.043212 0.083355 -0.014255 0.074661 0.035285 -0.046791 -0.195347 0.044234 0.055740 0.034774 -0.118640 -0.033240 -0.042956 -0.002605 0.042956 -0.004698 0.001550 -0.026847 0.062388 -0.049348 -0.020967 0.013871 0.049859 0.147277 -0.021606 0.011889 -0.056507 0.070570 -0.136027 -0.065456 -0.043467 0.100742 0.083355 -0.002733 -0.044234 -0.143186 0.021861 -0.126310 0.009397 -0.001670 -0.020327 0.002781 -0.048325 0.018665 0.031450 0.052161 -0.038865 0.000527 -0.019560 0.059320 -0.004570 0.016300 -0.076707 -0.059576 -0.030171 -0.043979 -0.064945 0.026336 0.031961 -0.086423 0.051649 0.005913 0.019816 -0.012465 -0.108924 -0.043467 0.021094 -0.026080 -0.024546 -0.020072 0.095628 0.003020 0.028893 0.006808 0.128867 -0.110969 -0.020711 -0.111480 -0.005913 0.013551 0.008502 0.030683 0.052161 0.014255 -0.017131 -0.124265 -0.082332 -0.050371 0.084377 -0.066991 0.043979 0.008757 0.059320 -0.044234 0.080798 0.004219 -0.018410 0.055229 -0.071593 -0.039120 -0.014446 0.040143 -0.022884 -0.054206 -0.109435 -0.052672 0.087446 0.053695 0.014063 -0.065201 -0.014191 0.002573 -0.036308 0.010995 0.075173 0.063667 -0.009205 0.011698 0.011762 0.005849 -0.077218 -0.028382 0.027742 -0.088468 -0.098696 0.003692 -0.011122 -0.033495 0.135004 -0.060087 -0.061621 0.126310 0.031066 0.018026 -0.042700 0.063411 0.042189 0.059576 0.054717 0.026847 -0.002829 0.022373 -0.000324 0.126822 0.063667 0.000931 0.016172 -0.084889 0.009716 -0.064178 -0.004794 0.002038 -0.068525 0.050371
view -0.029413 -0.010213 -0.078843 0.072307 -0.088239 0.081295 0.158504 -0.050043 0.059643 -0.005821 -0.053107 -0.102946 0.001698 0.001762 -0.037992 0.046162 0.001034 0.062911 0.054333 -0.093142 0.017260 0.013073 -0.058826 0.033294 0.024307 -0.025634 0.037788 0.083746 0.082929 0.011438 0.020528 -0.002987 -0.068631 0.019813 0.078027 0.009089 0.048409 0.051881 -0.044120 -0.055150 0.008221 0.012715 -0.051677 -0.025328 0.016443 -0.047592 -0.028188 -0.039830 -0.098861 -0.075167 0.049839 -0.044120 0.058826 -0.057601 -0.004698 0.014502 -0.035337 0.014604 0.035337 -0.004596 -0.065771 0.017566 0.005617 -0.074350 -0.010213 0.049635 -0.032273 0.067405 0.053924 0.052290 -0.006358 0.049430 0.194453 0.045141 -0.005183 -0.062911 0.034111 -0.016341 0.038401 0.111933 0.062911 -0.003702 0.111933 -0.025124 0.097227 -0.004238 -0.012664 -0.026962 0.033498 -0.056375 -0.034111 -0.050656 -0.102537 -0.013175 0.003906 -0.027779 -0.047183 -0.006741 0.123372 0.018281 0.032477 0.030843 0.005745 -0.022775 0.093550 0.055150 -0.016953 -0.035132 -0.023490 -0.073124 -0.014094 0.003728 -0.030230 0.073124 0.040852 0.037583 0.011949 -0.030843 0.041056 0.135627 -0.066588 -0.061277 -0.073533 -0.016034 -0.017770 0.030639 -0.060869 -0.036971 -0.027983 0.014604 -0.080886 -0.066588 0.080069 -0.066179 0.131542 -0.103763 -0.119287 -0.016545 0.006102 0.004979 0.096818 -0.022775 -0.011387 0.079252 0.044732 -0.009243 0.010519 -0.042077 -0.044120 0.058009 -0.010775 0.030026 -0.032681 -0.056375 -0.075984 -0.003702 0.004672 -0.033703 -0.121738 0.020426 -0.012409 -0.021447 0.005975 -0.037175 -0.002694 0.013379 0.086197 -0.051269 -0.049226 0.015830 -0.080478 0.064954 0.046571 -0.091099 0.045345 -0.027779 -0.010417 -0.025532 -0.007660 0.016647 -0.120104 0.058826 0.020936 -0.017464 -0.050247 -0.066588 0.013277 0.026554 0.016136 0.041260 -0.003728 -0.054741 0.003294 -0.037175 -0.059643 -0.000206 -0.042690 0.095593 0.096818 0.073124 0.016034 0.083746 -0.107848 -0.143797 0.014094 0.041669 0.053107 -0.015319 -0.017873 0.060869 -0.104171 0.082112 0.028392 0.068222 -0.138078 0.045141 -0.000219 0.076392 0.073533 -0.103354 -0.014400 0.019302 -0.066179 -0.049226 -0.110299 -0.019302 0.023183 -0.025328 0.068631 0.075575 -0.105397 -0.111933 0.043507 -0.022673 0.066179 0.026554 0.048613 0.039013 0.078027 0.121738 -0.042281 0.078435 -0.015524 -0.010979 -0.097635 0.092325 -0.047388 0.047796 -0.044528 0.013583 -0.013787 -0.000874 -0.075167 -0.010162 -0.101720 0.029209 -0.012562 0.071899 -0.046162 -0.018690 -0.024817 -0.028800 -0.010723 0.065362 0.026145 0.071899 0.036154 -0.029617 -0.081295 0.003230 0.075167 0.042077 0.080886 0.094776 0.093550 -0.011592 -0.049022 -0.039830 0.010877 0.052699 0.100086 0.025634 -0.026145 -0.055558 -0.049022 0.015728 -0.041873 -0.011796 -0.020732 -0.006332 -0.125006 -0.017566 0.091916 0.011592 -0.037788 -0.058418 0.012409 -0.066179 0.031251 -0.102129
queen 0.001733 -0.047404 -0.022896 0.040794 0.043535 -0.029345 -0.023541 -0.071590 -0.065141 0.018381 -0.024992 -0.125767 0.034344 -0.000270 0.043857 0.037246 0.024025 -0.015479 0.021767 0.031119 0.062883 0.045147 -0.078040 -0.039181 0.021606 -0.017575 -0.101903 0.030313 0.062238 -0.055144 -0.051596 -0.043212 -0.027249 0.070300 -0.117382 -0.043535 0.031764 0.087069 -0.031280 0.060626 0.035311 -0.137376 0.089004 -0.009150 0.058046 -0.037246 -0.001360 0.048049 0.051596 0.088359 -0.005926 0.032570 0.017494 -0.010319 -0.053854 -0.019188 -0.113512 -0.057079 0.037730 -0.029829 0.044502 0.092229 -0.016446 0.042890 0.058046 -0.073203 -0.003930 0.046437 -0.059981 0.039181 0.053209 0.070945 -0.069978 0.041922 -0.033054 0.045147 0.041922 0.005059 0.034505 -0.009191 -0.019913 0.007336 0.059981 -0.022251 0.016205 0.050952 -0.082554 0.046114 0.097388 0.035150 0.110933 -0.073525 -0.041277 -0.017494 0.063528 0.022574 0.023057 -0.017172 0.047727 0.001481 -0.003346 -0.049017 0.071913 -0.064496 -0.128991 0.025637 -0.189617 -0.026121 -0.013383 -0.061916 0.083844 0.051919 0.041277 0.046437 0.066431 -0.019349 0.055789 -0.092874 0.056756 0.063206 0.039987 -0.049662 -0.002298 -0.078362 0.046114 -0.002761 -0.015560 0.048372 -0.018784 0.033699 0.027894 0.069978 -0.006046 0.166399 -0.016043 0.073203 -0.084489 0.011287 0.052242 -0.011126 0.022251 -0.083199 0.015237 -0.024025 0.026282 0.013947 -0.000426 0.066753 -0.043212 -0.019913 0.012496 0.044824 0.036924 -0.081265 -0.079007 -0.078040 -0.014270 -0.009594 0.077717 -0.001290 -0.016608 0.060948 0.166399 -0.002207 -0.011448 -0.024992 0.020316 -0.103838 -0.012415 0.078040 -0.042245 0.050952 0.098033 0.008949 -0.056434 -0.074170 0.000796 0.034989 -0.010964 0.004817 -0.071268 0.081587 -0.024508 -0.033699 0.055789 -0.016608 0.068688 -0.012738 -0.073525 0.090939 -0.019671 -0.005805 0.005926 0.029345 0.042567 0.060303 0.047727 0.034344 -0.043857 -0.107708 0.001275 -0.037569 -0.016688 -0.043212 0.007296 -0.048372 0.035473 0.076105 0.050307 0.075137 0.015963 0.022412 -0.022412 -0.085134 0.037085 0.001199 -0.039665 -0.070300 0.037085 0.040149 0.022574 0.016205 0.090294 -0.000998 -0.001250 0.000640 0.061916 -0.096098 0.029829 0.087069 -0.084489 -0.094809 -0.134796 0.034828 0.130926 -0.024025 -0.014270 -0.020961 -0.000199 -0.038052 0.103838 -0.073525 0.044824 -0.006490 0.050629 0.001189 -0.039665 0.021445 0.053531 -0.055144 0.010803 -0.001159 0.062238 0.063851 0.043857 0.022412 -0.112867 -0.027572 -0.097388 -0.006933 0.029345 0.107063 -0.121897 -0.028378 -0.016366 0.043535 0.014592 0.118672 0.070945 0.087714 -0.090294 0.077717 0.037730 0.029023 0.061916 -0.109643 0.049984 -0.011932 -0.039342 0.091584 0.035795 -0.024025 0.076750 0.000726 0.078685 -0.082232 -0.040794 -0.052564 -0.001985 0.048049 -0.001522 -0.074492 -0.125122 -0.124477 -0.027249 -0.013625 0.055466 -0.015479 0.053854 0.050952
tripod 0.002231 0.011407 -0.068710 0.021338 -0.009528 0.020667 0.068442 -0.028585 0.031268 -0.008723 0.047238 -0.024827 -0.008522 0.004865 0.023485 0.010602 -0.044286 -0.051801 -0.022277 -0.143862 0.030463 0.022143 -0.052070 0.018654 0.005234 -0.070321 -0.060927 0.134200 0.010333 -0.112728 -0.053680 0.032342 -0.042139 -0.048849 -0.008991 -0.052606 0.022143 -0.020667 0.003791 -0.057169 0.093403 0.056364 0.143862 -0.013152 0.042407 -0.030732 0.014359 0.011072 0.091256 -0.028987 -0.071394 -0.153524 0.071931 0.001116 0.059585 0.039723 0.093403 0.025766 -0.095013 -0.003456 -0.085351 -0.049385 -0.072468 -0.003925 0.011944 -0.112191 -0.048044 -0.080520 0.034355 0.013890 0.040260 0.044018 -0.007817 -0.050459 -0.115949 0.010803 -0.111654 -0.053411 -0.064148 -0.073541 0.094477 0.049654 0.122927 0.003305 -0.014762 0.028987 -0.008656 0.014426 0.015634 0.000048 -0.050996 0.017178 -0.054485 0.027377 -0.004462 -0.123464 0.079983 -0.070857 0.071394 -0.086961 -0.037308 -0.031403 0.050728 -0.002298 0.016439 0.101992 0.065221 -0.028719 0.056364 -0.061732 -0.001518 -0.074078 0.038918 -0.031939 -0.044554 -0.056901 -0.015970 0.027377 -0.068710 -0.041065 0.014494 -0.074615 -0.015232 0.048044 -0.007582 -0.011004 -0.055827 -0.003221 -0.024424 0.062537 -0.012816 -0.028048 -0.155672 -0.032610 0.021740 0.097161 -0.028987 -0.013621 -0.030061 0.053948 0.075689 0.025095 -0.062269 0.066563 0.008991 0.012481 -0.063611 -0.065221 0.078909 0.069784 0.029524 -0.084277 -0.000348 0.006106 0.095550 0.050191 -0.068442 -0.033282 -0.019593 0.111654 -0.058780 -0.046701 0.004093 0.003489 0.026706 0.029256 0.023888 -0.021740 -0.119169 -0.032208 0.033550 0.024961 -0.020935 0.076225 -0.092866 -0.032476 0.080520 -0.063342 -0.007683 -0.014158 -0.094477 -0.009461 0.028987 -0.085351 -0.048580 0.053680 0.031939 -0.035697 0.019459 0.048580 -0.073541 -0.060121 -0.083204 0.000663 -0.123464 0.052070 -0.071394 0.020801 0.066026 0.018788 0.024827 0.089645 -0.114338 0.000763 0.007381 -0.054754 -0.064684 -0.005536 0.032879 -0.021338 -0.042407 0.085351 -0.067905 0.025230 -0.082667 -0.113801 -0.073541 0.018251 -0.002055 0.058243 -0.003724 0.043749 0.023082 -0.039455 -0.031805 0.013487 -0.022143 0.124001 0.075689 -0.027645 -0.084277 0.005972 0.022411 -0.038381 0.033684 0.006408 0.008857 0.066026 0.016037 0.083204 -0.004999 0.025498 0.004093 -0.009998 -0.007448 -0.048849 -0.100918 -0.036234 0.048044 -0.103065 -0.005569 -0.056364 -0.046433 0.012413 0.035965 0.058243 0.039186 -0.046970 0.022411 -0.048580 -0.078373 0.004261 -0.045628 -0.113265 0.016909 0.173923 0.014225 -0.159966 -0.092866 -0.023217 0.047238 0.005301 0.011742 0.035429 0.079983 -0.019191 0.031134 -0.039992 -0.061732 0.031671 0.003036 0.028853 0.125611 -0.004764 -0.044823 -0.007113 -0.074615 -0.049117 -0.010065 -0.015903 -0.155672 0.050728 -0.073005 0.073005 -0.024827 -0.023082 -0.008656 -0.017714 -0.014426 0.014024
stupid 0.060820 -0.027296 0.059354 0.094527 -0.085734 0.009663 0.089764 0.030043 0.085367 0.058255 0.041951 -0.056423 -0.064117 -0.006778 -0.075108 0.020426 0.016121 0.036272 -0.023449 -0.039752 0.061186 -0.009343 0.070712 0.022991 0.068514 0.024914 0.010625 0.021159 0.077673 -0.022716 -0.010488 0.067414 0.035356 -0.034623 0.059720 -0.035905 0.067048 0.024914 -0.021617 0.052759 0.095992 -0.032975 0.183191 -0.105518 0.033158 -0.035356 -0.031875 -0.055324 -0.075841 0.008244 -0.148019 0.008244 0.047263 -0.026563 -0.038470 0.084634 0.007373 -0.093794 0.019968 0.002404 0.033707 0.081337 -0.045615 -0.056789 -0.028761 0.001362 -0.025830 0.063384 -0.115044 -0.009526 0.039386 -0.010946 0.010762 0.013465 -0.141424 -0.024364 -0.018502 0.103320 0.077307 0.067781 -0.071445 0.035905 -0.081703 -0.003916 -0.016396 -0.074009 -0.049828 0.120906 0.032975 -0.016670 -0.043600 0.061186 -0.067781 -0.068880 -0.034623 -0.012732 0.052026 0.028761 0.064117 0.034440 -0.026929 0.049462 0.016121 -0.049462 0.051660 0.022441 -0.013556 -0.094527 0.084268 -0.087932 -0.055690 -0.092695 -0.039020 0.049462 0.102587 -0.091229 0.069613 -0.009160 0.027662 -0.021983 -0.080971 0.030227 -0.025647 0.026929 -0.021250 -0.119441 -0.072177 0.062285 0.081337 -0.078406 -0.162674 -0.100389 -0.012274 0.058621 -0.019052 0.000424 -0.031326 0.059354 -0.024548 0.000179 0.125303 -0.052393 0.086833 0.030043 -0.006045 0.017128 -0.054225 -0.029311 0.043416 -0.092695 0.061186 0.018685 -0.005198 -0.034257 -0.022991 0.019968 -0.012549 -0.033524 -0.027479 0.018228 -0.044149 0.079139 0.076940 -0.039386 0.018136 -0.075841 0.119441 -0.082070 0.045431 0.000733 -0.009938 -0.014655 0.010121 0.019693 -0.052759 0.039386 0.023815 -0.026196 0.003687 0.033524 0.080604 -0.072177 -0.056423 0.075108 0.024548 0.081703 -0.062652 0.052393 0.005038 0.021159 0.042500 0.051294 -0.001534 0.033707 -0.012732 0.051660 -0.029677 -0.049828 -0.075108 -0.016487 -0.067781 0.025097 0.026929 0.005862 -0.005015 -0.023998 -0.024548 0.008518 -0.157545 -0.017953 0.032608 0.046164 0.084634 -0.007053 -0.017128 0.044332 0.068880 -0.042684 -0.046897 0.067781 -0.063384 0.024731 0.020792 -0.018228 0.089764 -0.030227 0.130432 -0.069613 -0.065582 0.026013 0.072177 0.027845 0.005152 0.023449 0.080604 -0.002839 0.034623 0.039569 0.095260 -0.022533 0.083169 0.070712 -0.018411 -0.003962 -0.073277 0.035356 -0.056789 0.027112 -0.050561 -0.052393 -0.012915 0.045065 0.028944 0.115044 0.030227 -0.069979 -0.024548 -0.015113 0.046897 -0.162674 -0.000027 0.047630 0.047996 -0.020334 -0.027845 -0.019693 -0.028028 -0.045065 -0.033158 0.002427 -0.032608 0.054957 0.109182 0.063018 -0.030227 -0.043966 -0.002416 0.050194 -0.041768 0.106984 0.073643 0.006412 -0.003504 0.011312 -0.087565 0.002256 0.004557 -0.045431 0.009297 -0.079139 0.058255 0.127501 -0.073643 0.019418 -0.144355 -0.004626 0.029860 -0.041768 -0.045065 0.024548
nomenclature 0.034733 0.001159 0.038819 0.111899 -0.121329 -0.045263 0.011787 -0.091154 0.006169 0.016188 0.056578 -0.017131 -0.055321 -0.014223 -0.105613 0.058464 -0.007387 0.030175 0.001243 -0.132645 -0.044005 0.049034 0.043377 0.001729 -0.004283 -0.012494 -0.048406 0.061293 0.033161 0.022160 -0.029861 -0.019802 0.043377 0.111271 0.035833 0.059407 0.068837 -0.015795 0.088639 -0.150876 0.044948 -0.016266 -0.000371 0.016109 0.035047 -0.046834 -0.037247 0.000511 -0.090525 0.058150 -0.126987 -0.028132 -0.016659 -0.034576 0.073238 0.111899 0.099326 -0.023103 0.096183 -0.106242 -0.002436 0.044634 0.022160 -0.062236 0.009548 -0.024674 -0.038976 0.135159 -0.058150 -0.058779 0.054064 0.062865 0.016738 -0.105613 -0.022474 -0.066637 0.024674 -0.026560 0.094926 0.035676 0.087382 -0.054692 -0.023574 0.015323 0.036304 0.042119 0.093669 -0.020902 0.011394 0.088011 0.036147 -0.106242 -0.005265 -0.025146 0.076695 0.165963 0.009076 -0.085496 0.024360 0.081096 -0.011866 0.062865 -0.006483 -0.057521 0.028761 -0.004145 -0.057836 0.033161 -0.004027 -0.001670 -0.135159 0.056264 0.080467 0.008055 -0.014066 0.055635 0.051549 0.033318 0.069780 0.016188 -0.021688 -0.021688 -0.082353 0.030175 0.064122 0.097440 -0.016345 -0.023889 -0.008015 0.002731 0.007072 -0.048406 -0.070094 0.034104 0.000219 0.110013 -0.039290 0.022003 -0.030804 -0.047149 0.081724 0.037562 -0.024046 -0.004322 0.012966 -0.040862 -0.006601 0.034419 -0.048720 0.022631 -0.024360 -0.003222 -0.146475 -0.098698 -0.065694 -0.121958 -0.031590 0.054692 0.033633 -0.112528 0.055950 -0.031747 0.023889 -0.110642 -0.073238 0.001689 0.009548 -0.011394 -0.003949 0.035676 0.004420 0.033633 -0.007112 0.025303 0.075123 -0.013752 0.044634 -0.115043 0.037247 -0.063493 -0.043062 -0.051549 0.050606 0.037562 -0.006876 -0.006876 0.092411 0.009587 -0.031432 0.044005 -0.066008 -0.061922 -0.055950 0.007780 -0.019960 0.027975 -0.015873 0.070723 0.016188 0.057836 -0.009312 0.026246 -0.072609 0.083610 -0.081724 0.030804 0.035204 -0.058464 0.040862 0.005776 -0.027189 -0.074180 0.012416 0.028761 -0.074809 0.021374 0.031275 0.105613 -0.006837 -0.001444 -0.067265 0.077638 0.055321 0.071980 0.032375 0.019802 -0.005619 -0.026403 -0.040548 0.179793 -0.073866 -0.024674 0.030332 -0.054378 0.080467 -0.049663 0.072609 -0.025617 0.104356 -0.038976 -0.013594 -0.017524 0.042119 0.017602 0.017681 0.043062 0.035204 0.101212 -0.031904 0.034104 0.005579 0.083610 0.054064 -0.054378 0.020902 -0.053121 -0.123215 0.040076 -0.006758 -0.036933 0.154019 -0.037719 -0.062551 0.022474 0.072295 -0.034419 -0.017681 -0.027346 -0.086753 -0.049977 -0.036776 -0.090525 0.056264 -0.003929 -0.009508 -0.010451 -0.026875 -0.019802 -0.020117 0.038976 -0.056264 -0.001159 0.021688 -0.074809 0.039919 -0.059093 0.018781 -0.070723 -0.061607 -0.077009 -0.018074 0.000266 -0.091154 0.002279 0.023260 -0.058779 0.059093 0.060979 -0.007740 0.114414
valuation 0.019104 0.053774 -0.050661 0.015212 -0.010613 -0.019104 0.110944 -0.061416 0.135850 0.064529 -0.052076 -0.037076 0.016415 0.099623 -0.114340 0.133020 -0.053208 0.037359 -0.025189 -0.020802 -0.051227 -0.092265 -0.027028 -0.018679 0.025613 0.005943 -0.016911 0.034104 0.007854 0.054057 0.041604 0.027453 -0.019387 -0.056604 -0.002600 0.000253 0.052359 -0.005873 0.024481 -0.060000 0.045849 -0.021934 0.013656 -0.057453 -0.029859 -0.001504 0.027028 0.002246 0.046132 0.030425 0.069906 -0.074717 -0.112076 -0.054340 -0.076416 0.039340 0.003520 0.052076 0.026179 -0.017689 -0.037642 0.025047 -0.024906 -0.034812 -0.037076 -0.058868 0.007995 0.022500 0.041604 -0.078680 0.007359 -0.076416 0.160756 -0.078114 -0.039340 0.085472 0.074717 0.012594 -0.032547 0.014222 -0.012311 -0.028727 -0.035944 0.086038 0.072453 0.048963 0.080378 0.097359 -0.003290 -0.102454 0.155095 -0.024764 -0.042736 0.076416 0.046981 -0.004281 -0.103020 -0.040189 0.132454 -0.004741 0.046132 -0.010542 0.021227 0.087170 0.065661 0.029859 -0.032264 0.126227 0.023066 -0.045849 0.037359 0.086604 -0.061699 0.004599 -0.019104 0.103586 -0.021085 -0.018679 0.077548 -0.063397 0.139812 0.045566 -0.108114 0.015354 0.059151 0.040472 -0.093397 -0.068491 -0.086038 0.049529 -0.075850 0.010613 -0.049246 -0.066793 -0.067359 0.041604 0.019245 0.056038 -0.117171 0.064529 0.026321 -0.024198 0.019104 -0.029293 0.049246 -0.076416 0.033538 -0.035661 -0.007748 -0.002936 -0.050378 -0.029293 0.029010 -0.019387 0.032972 -0.009976 0.006156 -0.041604 -0.065944 -0.056038 -0.033113 0.027312 0.043868 0.029293 0.058585 0.060283 0.032123 -0.102454 -0.034670 0.059717 -0.000579 -0.030708 0.074717 0.000716 0.043019 -0.026746 -0.048113 -0.000095 -0.003980 -0.043302 -0.037925 0.044151 -0.005059 0.112642 0.121699 -0.101321 0.074151 0.116039 0.076982 -0.027312 -0.124529 -0.039623 -0.099623 -0.050095 0.002583 -0.045000 -0.075283 -0.054057 0.097925 -0.055755 0.007818 0.015000 -0.044151 -0.108114 -0.054340 0.025047 -0.023632 -0.000615 0.070472 0.012453 -0.056604 0.028585 0.003485 0.031698 -0.112642 0.051510 0.008314 0.041604 -0.001008 -0.039340 0.050661 0.133020 -0.049246 0.016274 0.007040 -0.040755 0.051793 -0.071887 0.043302 0.091133 -0.036510 -0.057453 -0.032972 -0.029717 0.037642 0.027594 0.055472 -0.123397 0.096227 0.054906 0.051793 -0.086604 -0.045000 -0.075850 -0.010684 0.076982 -0.011321 -0.005413 -0.066227 -0.002317 0.027736 0.052359 -0.044717 0.065661 0.067076 -0.005094 -0.069906 0.078680 -0.005201 0.012170 0.036793 -0.071604 0.059151 -0.061133 -0.001787 0.045000 -0.009481 -0.109812 -0.048680 0.004564 0.046981 0.041887 0.000615 -0.027453 -0.069057 0.076416 0.054906 -0.024198 -0.039340 0.022925 -0.001442 0.037642 0.022783 0.039340 0.030991 0.041321 0.028585 0.028302 -0.029576 -0.006934 0.030566 0.125095 -0.048680 -0.004334 0.091699 0.080944 0.058302 0.003149 -0.052359 -0.051510
prune -0.004106 0.120528 0.048591 0.012419 -0.046420 -0.055649 -0.014455 0.030404 -0.043162 -0.036104 -0.010248 0.011673 -0.015541 0.105869 -0.043433 0.064065 -0.024431 0.016220 -0.045877 0.035018 0.013369 0.027282 0.112384 -0.015541 0.011130 -0.007601 -0.040176 0.005701 -0.008517 -0.010587 0.011333 0.040447 -0.075466 -0.082524 -0.006481 -0.091210 0.013573 -0.109670 0.051306 0.074380 0.095011 -0.079266 0.068408 -0.028775 -0.003224 -0.059993 -0.100440 -0.072208 0.015270 0.025924 -0.064607 -0.067051 0.043976 -0.019002 -0.012691 -0.022803 0.015745 0.008653 -0.042348 0.069494 -0.023210 0.005497 0.002494 -0.052120 0.004513 0.001145 0.036647 0.007431 0.073294 -0.024567 0.123786 -0.030539 -0.019545 -0.022938 -0.076552 0.011673 -0.035833 -0.033254 -0.066236 0.031489 -0.053749 -0.024296 0.001535 -0.039633 0.032032 -0.018459 -0.019274 0.124328 -0.016763 0.048048 0.024974 0.008687 -0.014727 -0.029725 0.023481 -0.110755 -0.044791 0.010587 -0.003258 -0.031218 -0.115099 -0.045062 -0.007228 0.035290 -0.055378 -0.150932 -0.011876 0.051849 -0.106412 -0.069494 -0.084695 -0.111298 -0.010316 -0.040176 0.068136 -0.106412 0.135187 -0.018052 0.001493 0.019002 0.007431 0.044791 -0.031761 0.038004 0.027960 0.015948 -0.065150 0.036376 0.066779 0.038004 -0.082524 0.008687 0.073837 -0.085781 0.053206 0.051306 -0.154189 0.013030 0.070037 -0.086867 0.028232 -0.084695 -0.110755 0.039633 0.057278 0.061621 -0.058092 -0.042076 -0.007228 -0.009026 0.015270 -0.037190 -0.014116 0.082524 -0.035018 -0.026603 -0.037733 -0.123786 -0.048320 -0.002613 0.037190 -0.003902 -0.090668 -0.056464 0.043433 -0.045062 0.038004 -0.075466 0.061078 -0.044791 -0.036376 0.010790 -0.073294 0.032032 -0.016084 -0.073294 0.078180 0.056735 -0.019409 -0.010858 -0.100983 -0.029318 -0.040990 -0.029046 0.000169 -0.013166 -0.116185 -0.034068 0.004191 0.012623 0.004292 -0.061893 -0.166133 0.041533 0.128129 0.007567 0.063521 -0.008415 0.070579 -0.046962 -0.008687 -0.032711 -0.061893 0.074923 -0.077095 0.027417 -0.020088 0.032439 0.002112 -0.091753 -0.093382 -0.009297 -0.022667 0.045062 -0.050492 0.023617 -0.077095 0.014523 0.112927 0.097182 0.015745 -0.030404 -0.044248 -0.058364 0.038547 -0.013234 0.002443 -0.074923 0.034747 0.052935 -0.054292 -0.118356 -0.026874 0.091753 -0.034204 0.037190 0.034068 -0.117271 0.003648 -0.054292 -0.043162 0.023481 -0.027553 -0.084695 -0.002070 -0.021853 -0.085238 -0.051577 -0.038547 0.041533 -0.133558 -0.073294 -0.035561 0.021038 0.083609 0.028639 -0.065422 0.071665 -0.103698 0.054563 0.070579 0.033118 -0.088496 -0.030675 0.017034 -0.014252 -0.041805 0.025517 -0.055921 -0.063250 0.118899 0.121614 0.053477 0.008313 -0.007058 -0.014319 -0.025381 0.013030 -0.040990 0.111841 -0.004004 0.004089 0.059993 0.002867 0.009297 -0.063521 -0.053477 0.077637 -0.012012 0.087410 0.012962 0.099354 -0.026332 -0.016763 -0.073837 -0.000456 -0.077637 0.074380 0.006413 0.090668
orthodox 0.033641 0.022805 0.020379 0.129389 0.010432 0.083456 0.010432 -0.018357 -0.059519 -0.041728 0.011807 -0.031700 -0.016254 0.117097 -0.093160 0.075046 0.012454 0.010432 0.004407 -0.007319 0.036552 0.045286 0.052079 0.016578 0.055314 0.016174 -0.079574 0.055637 0.092513 -0.018114 0.112569 -0.043992 0.035582 0.016174 0.038655 0.011726 -0.048197 0.012696 -0.007036 -0.049491 0.135859 0.013424 0.062754 -0.062430 -0.031539 -0.017791 -0.071811 -0.092513 0.005176 -0.071811 -0.058872 0.053373 -0.075046 -0.056284 0.087338 0.108040 -0.035744 0.013262 -0.027980 -0.144269 0.064695 -0.032671 0.001011 -0.082809 0.088632 0.055961 0.029760 -0.031539 0.085397 0.019408 -0.027172 0.031700 0.012696 -0.010432 -0.045933 -0.010189 -0.031700 0.038655 0.064695 0.011645 -0.019813 0.104158 0.008936 0.095748 -0.015365 -0.035744 0.031377 -0.012373 0.080545 0.024422 -0.057255 0.011402 -0.026687 0.040758 -0.079898 0.050785 -0.107393 -0.040272 -0.051109 -0.040596 0.026040 0.052079 0.026040 0.039787 0.045286 -0.118391 0.104158 0.070517 0.093160 -0.055961 -0.062430 0.013909 -0.070194 0.014799 -0.030730 0.050138 0.011160 -0.076340 0.105452 0.071164 0.009866 -0.043345 0.029436 -0.049491 -0.163677 -0.038493 0.080221 -0.033479 -0.077310 -0.019651 -0.065342 -0.059519 -0.001344 0.043345 0.077957 -0.011402 -0.020298 0.061783 0.095748 0.113862 0.000191 0.006914 0.017387 0.032024 0.004893 0.050462 -0.018761 0.002750 -0.052079 0.047227 0.055314 -0.113215 -0.084750 0.047227 0.081515 0.000844 -0.077957 -0.031215 0.146210 -0.090572 -0.058872 0.032832 -0.010998 -0.054343 -0.030245 0.005155 0.010149 -0.004468 -0.091219 -0.044316 -0.186320 -0.011483 -0.052403 -0.037038 0.098336 -0.017225 0.005944 -0.073752 0.013101 -0.031700 -0.066312 -0.091866 0.013909 -0.033479 0.052079 -0.042698 -0.006874 -0.075693 0.006631 -0.008208 0.049815 0.045933 -0.018195 -0.030892 -0.054667 -0.066959 -0.055314 -0.001178 0.052403 0.019813 -0.012454 0.012939 -0.000677 -0.055637 0.026040 0.022158 0.044316 -0.021996 -0.009179 0.004084 -0.066312 -0.072781 0.013505 -0.047227 -0.044316 -0.104805 -0.048197 0.025069 -0.026363 -0.030245 -0.028789 0.027333 0.006308 0.060166 0.023937 -0.097689 0.083456 -0.145563 0.000890 0.063077 0.020702 0.011968 -0.010068 0.037038 0.036229 0.051432 0.030245 -0.098336 -0.029760 0.006389 0.043992 -0.006025 0.079251 -0.060166 -0.088632 0.008976 0.004529 -0.027172 0.016497 -0.017468 0.023128 -0.036552 0.039787 -0.015769 0.118391 -0.077634 -0.078280 -0.057902 0.092513 -0.010351 0.010108 0.013586 -0.041405 0.061136 0.096395 0.026525 0.038008 -0.062107 -0.055314 -0.059843 -0.030730 0.056284 0.001031 -0.021026 0.054020 -0.027980 0.047550 -0.100277 0.070194 0.095101 0.022320 0.057578 -0.046580 -0.122920 0.065018 0.084103 0.075693 0.023452 -0.059519 0.077957 -0.030730 -0.037199 -0.024584 0.043992 -0.030568 0.054020 0.023290 0.060489 -0.019004 0.136506
king 0.043406 0.010263 0.002965 0.048117 -0.008833 -0.012450 0.038527 -0.068306 0.017665 0.125172 -0.083448 -0.104310 -0.061240 -0.008580 -0.057875 -0.058548 0.011945 0.001798 0.015983 0.044416 0.047108 0.038864 0.020526 0.047108 0.034826 -0.060904 -0.086813 0.020610 0.117769 -0.010725 0.036004 0.021283 0.042902 0.137958 -0.111040 0.028938 0.013459 0.002019 0.024227 0.059558 0.047781 -0.079747 0.097580 0.049127 0.117769 -0.008244 -0.037854 0.011440 -0.018843 0.005279 -0.055856 0.054510 -0.089505 0.006940 -0.056193 0.000468 -0.049800 -0.019600 0.014805 -0.008496 0.063932 0.154109 0.003302 0.045425 0.033985 -0.063932 -0.034490 -0.046098 -0.043070 0.097580 0.042397 0.018338 -0.061240 0.029611 -0.007529 0.007066 -0.048117 0.008664 0.047781 -0.036340 0.047781 0.030620 -0.025909 -0.007361 0.059558 0.015983 -0.091523 0.003070 0.051482 0.013039 0.082102 -0.042902 -0.075036 -0.062586 0.010263 0.019684 -0.009968 0.004290 0.033312 -0.079747 0.020021 0.023049 0.024395 -0.106329 -0.074026 0.050136 -0.147380 -0.003239 0.053164 -0.026414 0.099599 0.095561 -0.000168 -0.047108 0.111713 -0.084794 -0.001046 -0.073017 0.043070 0.092869 0.070325 0.028433 -0.069316 -0.055183 -0.013039 -0.041387 0.039705 -0.014132 -0.013628 -0.030956 0.002187 0.069989 0.064268 0.094215 0.021703 0.048790 -0.033817 0.047781 0.062922 0.059894 0.059894 -0.081766 0.061577 0.021871 0.081429 -0.072007 0.030115 -0.057202 -0.027255 0.083784 -0.030620 0.043743 -0.074699 -0.059894 -0.123826 -0.028433 -0.022376 0.017497 0.046771 -0.025741 -0.056529 0.003975 0.153437 -0.074363 -0.038359 -0.066287 0.058885 -0.043070 0.000915 0.066287 -0.060231 0.048117 0.100945 0.039032 0.020526 -0.022040 0.034321 -0.009379 0.006772 0.014721 -0.084794 0.022040 -0.077728 -0.058212 0.000999 0.028265 0.117769 0.014889 0.045762 0.049127 0.026246 0.020610 -0.041051 0.000946 -0.021703 -0.009379 -0.001661 -0.028265 -0.008580 -0.137958 -0.036845 0.014637 0.026750 -0.040210 0.025404 -0.031798 0.037181 0.054510 0.014637 0.043743 0.012450 0.092197 -0.034826 -0.104310 -0.019853 0.017413 0.000181 -0.071335 -0.047781 -0.003091 -0.009590 -0.048790 0.071335 -0.054510 0.044079 0.051482 -0.007739 -0.029106 0.042229 0.074363 -0.073690 -0.107675 -0.128537 0.001409 0.037013 0.036845 0.025236 0.003091 -0.013375 -0.044752 0.051482 -0.074026 -0.000634 0.034153 0.054174 -0.039369 -0.070662 0.034153 0.127191 -0.067970 0.012198 0.037686 0.045425 0.057539 0.081092 0.036172 -0.170934 -0.056529 -0.053837 -0.018002 0.035499 0.083784 -0.064941 0.017497 -0.032302 -0.023049 0.007823 0.026246 0.099599 0.107002 -0.018507 0.078737 0.008664 0.023386 -0.041724 -0.074363 -0.094215 -0.010599 -0.116423 0.052828 0.080420 -0.071671 0.128537 0.028265 0.086813 -0.026246 -0.016067 -0.007697 0.010305 -0.020441 -0.001609 -0.084121 -0.072344 -0.098926 -0.015647 -0.061240 -0.096234 -0.029611 0.031461 0.086813
monotonous 0.080028 0.008375 -0.072584 0.073204 -0.007600 0.033655 0.101121 0.072894 -0.030398 0.081269 -0.007716 0.005700 0.059246 0.063899 -0.008220 0.081890 0.060797 -0.017526 0.048389 -0.101742 -0.065760 0.074755 -0.029933 0.089955 -0.035827 -0.113529 0.037067 -0.083130 -0.005428 0.023574 -0.015975 -0.073515 0.122214 -0.001900 -0.066690 -0.064829 0.001706 0.000567 0.075376 -0.020007 0.117251 -0.102982 0.065450 0.010159 -0.058626 0.001687 -0.080649 0.122834 -0.014424 0.048389 -0.024195 0.009926 0.045287 0.057695 0.041565 -0.037998 0.034276 -0.072274 0.069482 -0.086853 0.006863 -0.029468 -0.026056 -0.089334 0.072274 0.049630 -0.055834 -0.045598 -0.080649 -0.047769 -0.051491 0.019387 -0.071653 0.019775 -0.139585 -0.083751 -0.022644 -0.061727 0.052732 -0.047769 -0.004750 -0.000322 -0.015199 -0.002811 -0.084371 0.079408 -0.040324 0.026056 0.093677 0.098640 -0.101121 -0.073825 -0.094917 -0.037843 -0.066690 0.037998 0.044357 -0.057695 -0.059556 -0.069172 0.023109 0.021093 0.000118 0.014424 -0.047769 -0.022489 0.058005 -0.011477 0.001473 -0.037223 0.034121 0.001871 0.054283 -0.062348 0.130279 -0.055213 0.009926 -0.025590 0.091195 0.008104 -0.162538 -0.022954 -0.026986 -0.037533 -0.053352 -0.018922 -0.075066 0.001425 0.008530 -0.011167 -0.037843 -0.001493 -0.028382 0.107945 0.000630 0.013028 -0.039084 -0.068241 -0.045287 0.000751 0.059866 -0.018844 0.014967 0.072894 -0.099881 -0.031949 -0.027917 0.082510 0.002714 -0.047769 -0.023264 0.054283 -0.017370 0.052732 -0.012330 -0.005700 0.015354 -0.049630 -0.020938 -0.057695 -0.032104 0.120973 -0.052732 0.108566 -0.018146 -0.057695 0.066380 -0.074445 0.049940 -0.004963 -0.016440 -0.004110 -0.109186 0.080028 0.035517 0.034121 -0.044977 -0.074755 -0.032415 -0.018301 -0.071033 -0.050561 0.039394 0.083751 -0.019852 0.097399 0.115390 -0.025125 -0.031484 -0.024815 0.000045 -0.068552 -0.005506 0.003044 0.015199 0.043116 -0.061107 0.044047 -0.117251 0.070102 0.098019 -0.051491 -0.127177 -0.035517 0.049630 0.089334 -0.014036 -0.030243 -0.074755 -0.035827 -0.011865 0.006359 -0.022644 -0.006010 0.012795 -0.079408 0.009073 0.022489 -0.094917 -0.036602 0.025435 0.068862 -0.063589 0.062348 0.054593 0.005157 0.035517 -0.072584 -0.041875 -0.050871 0.036757 -0.076616 0.062038 0.032415 0.002162 0.001822 -0.022954 -0.076616 0.088714 0.032104 0.085612 -0.053042 -0.076306 -0.111047 0.086853 -0.014579 -0.001129 0.047769 -0.099881 -0.001638 0.044047 0.105464 0.073515 0.025746 -0.051801 -0.054283 -0.083751 -0.082510 0.086853 0.004401 0.083751 0.040014 0.035361 -0.023264 0.022799 0.056454 0.000824 -0.019387 -0.034431 -0.032104 -0.017913 0.049940 0.087473 -0.050871 -0.053042 -0.037843 -0.080649 0.006204 0.082510 0.041875 0.023109 -0.107325 0.052112 -0.036447 -0.016362 0.046528 -0.021558 -0.055834 0.064209 0.086853 0.003839 0.079408 -0.024040 -0.005351 -0.044667 -0.018223 -0.003858 -0.010081 -0.002423 0.057385
municipal 0.000954 -0.004269 0.067956 -0.035875 -0.005605 -0.132462 0.043981 -0.014919 0.050708 -0.037600 0.022939 0.012763 -0.040015 0.017075 -0.177995 0.039842 0.071750 0.021215 -0.029838 0.059332 -0.029493 -0.059332 0.010349 0.007805 0.016730 -0.032943 0.045879 0.066231 -0.061057 -0.017851 0.046914 -0.022939 0.022249 0.055537 0.006640 -0.042084 -0.016299 0.040359 0.063816 -0.003773 -0.007072 0.019835 0.139361 0.013022 -0.155918 0.041394 -0.040877 -0.028459 -0.172476 0.068301 -0.043464 -0.018455 -0.014315 0.048293 -0.084513 0.065886 -0.104866 0.056572 0.019576 -0.011556 -0.041912 -0.033115 -0.028803 0.036047 0.009055 0.014488 -0.031218 0.135911 0.031218 -0.079684 -0.007718 0.082789 0.133842 0.019145 0.080029 0.023112 0.036737 -0.012677 0.026044 -0.052778 -0.058642 -0.002285 0.019404 0.042257 0.000404 0.043637 -0.100036 -0.008365 0.063126 0.025871 0.033978 -0.088998 -0.012936 0.055882 -0.129012 0.037945 0.017506 -0.009788 0.037945 0.035358 -0.068645 0.045879 0.020438 0.063471 0.014660 -0.064506 -0.025009 -0.043119 0.020180 -0.079339 0.016299 -0.024837 0.004377 -0.039842 -0.045879 -0.105555 0.055192 -0.004161 0.001692 -0.017248 0.006123 -0.027596 -0.085203 -0.098656 0.058987 0.110385 0.057262 -0.057262 0.076924 0.007934 -0.053123 -0.041049 0.041049 -0.044844 0.019490 -0.041222 0.009227 -0.131772 0.016903 0.021042 -0.049328 0.047603 0.020180 0.100036 -0.011470 0.028631 -0.132462 0.041739 -0.072095 -0.006338 0.044844 -0.067266 -0.105555 -0.001046 0.060022 -0.013971 0.079684 -0.045879 0.046224 -0.078304 -0.020525 -0.011815 -0.061747 0.068645 -0.010737 0.078304 0.079339 -0.031736 0.054157 -0.022077 -0.066576 -0.163507 0.054157 -0.005196 -0.017248 -0.022594 -0.006252 -0.030011 -0.134531 0.008753 -0.049673 0.037600 -0.020611 -0.024492 0.013453 0.011383 0.032253 0.037945 0.075200 0.062781 -0.012850 0.024319 -0.093137 0.074165 -0.104176 0.018714 -0.023802 0.003320 0.000571 0.012505 -0.081754 0.044844 0.061057 -0.076234 -0.044154 -0.068301 0.001552 -0.073475 -0.057952 -0.015695 0.002954 -0.066231 0.008581 0.101416 -0.049673 0.016903 -0.097966 0.008020 -0.072785 -0.002242 -0.062436 -0.048293 -0.054502 -0.025526 -0.047259 0.004096 -0.028631 0.075200 0.026734 0.009141 0.039842 -0.022249 -0.064506 0.055537 -0.100036 -0.018541 0.036910 -0.062436 0.042429 0.023802 0.102106 -0.089688 0.050363 -0.015005 -0.020180 -0.044154 0.060712 -0.068990 -0.039152 0.053468 -0.115214 0.103486 0.052088 0.033633 0.050018 -0.065541 0.011728 0.043119 -0.055537 0.003859 -0.068645 0.023802 -0.085203 -0.028631 0.133152 0.021128 0.015350 0.020956 -0.021215 0.008408 -0.023974 -0.080029 -0.020180 -0.044844 -0.027251 -0.071405 0.045189 -0.005239 0.098656 -0.025182 -0.063126 -0.017075 0.171096 -0.007632 0.017593 -0.000418 -0.094517 0.006985 0.033805 0.103486 -0.036392 -0.054847 0.050018 0.061747 -0.016730 0.063471 -0.076234 -0.046914 -0.041222 -0.068301
comma 0.039419 0.012620 0.030203 0.097556 -0.098690 -0.062674 0.117975 -0.062107 -0.005459 -0.021837 0.023255 -0.011273 -0.056151 0.073167 0.002242 0.039136 0.004927 0.028359 0.003208 -0.139528 -0.009642 -0.007728 -0.013754 -0.016165 -0.053883 0.006523 0.072033 -0.088481 0.051330 0.096422 -0.106631 -0.024814 -0.036584 0.059838 -0.036584 0.033322 0.017441 0.081675 -0.035307 -0.008401 0.023396 -0.025523 0.114004 0.119676 0.028076 0.046509 0.017512 0.016803 -0.084511 -0.019852 -0.197381 -0.012478 -0.008224 -0.026799 0.074301 0.081675 -0.035733 0.036300 -0.047927 -0.056435 0.019852 0.031479 -0.024247 -0.043957 -0.057569 0.002818 -0.043957 -0.040270 -0.090750 -0.070047 0.066644 0.036158 -0.059271 -0.073167 -0.113437 -0.013045 0.052181 -0.007834 0.032471 -0.036300 -0.029068 -0.013329 -0.002269 0.006452 -0.023396 0.072316 0.058420 0.034031 0.123079 -0.023680 0.009040 -0.033748 0.024247 -0.047927 -0.062107 0.023113 0.087914 -0.125348 0.027934 -0.094720 -0.090750 0.011131 0.080540 -0.102093 0.039136 0.011131 -0.070898 0.037718 -0.015243 0.028218 -0.149737 -0.099258 0.066928 -0.043957 0.073734 0.046793 0.043106 -0.054450 0.018150 0.008224 0.022262 -0.021553 -0.068346 0.054733 -0.008153 -0.031762 0.026941 0.004307 -0.002960 0.064659 -0.017654 -0.062390 -0.094153 0.033322 0.012053 -0.032046 -0.008012 0.012833 0.086212 -0.015101 0.077704 -0.060122 -0.008224 -0.053883 0.056719 0.074301 -0.086779 0.115139 -0.099258 -0.018717 0.005176 -0.115706 -0.013400 -0.025240 0.022971 -0.107765 -0.038002 0.059838 -0.081108 0.025098 -0.094153 0.093586 0.076003 -0.062390 0.033889 -0.024956 0.000031 0.014534 -0.024531 0.015243 -0.012265 0.025240 -0.116273 -0.024389 0.032755 0.002340 0.103795 -0.037151 0.043673 -0.044241 -0.050763 -0.011273 0.001365 0.104362 0.049062 0.050480 -0.009217 0.048211 0.011911 0.026091 0.079406 -0.041405 -0.064376 -0.023255 0.016236 0.064376 -0.110601 -0.091317 -0.013258 0.008047 -0.007125 0.038569 0.036867 0.046509 -0.005991 -0.017937 -0.093586 -0.031904 0.099258 -0.086212 0.035733 0.001214 -0.040270 -0.063525 -0.089048 -0.006806 0.024105 0.045658 -0.029210 0.097556 -0.016236 0.086779 0.045658 -0.045091 0.017299 0.036300 0.066928 0.053032 -0.017583 0.001347 -0.003970 -0.094153 -0.086212 0.009075 0.065794 -0.053032 0.071182 0.115706 0.042255 -0.078839 -0.039987 -0.022546 0.099825 -0.095854 0.072316 0.007692 0.062390 0.074869 -0.065794 0.054733 -0.043673 0.036867 -0.051614 0.108333 -0.053599 -0.089615 0.021695 0.026658 0.073167 0.025807 0.117408 -0.008012 0.041972 -0.067495 0.003385 -0.014676 0.069764 -0.021837 -0.054166 -0.031621 -0.035307 0.021837 -0.054166 -0.045375 0.034456 -0.026374 -0.074869 0.058137 0.020844 0.023396 -0.025240 -0.011911 0.031479 0.094720 0.055301 -0.041405 0.029777 0.037718 -0.013045 0.021270 0.023396 -0.013400 -0.007161 -0.050196 0.044241 -0.076003 -0.024105 -0.015952 -0.130453 -0.024247
philanthropist 0.054791 0.035322 -0.006188 0.005667 0.099013 -0.006988 -0.004311 0.040328 0.058963 -0.079544 0.072313 -0.047004 0.017035 0.068419 -0.032124 0.023780 -0.029482 0.104576 0.027813 0.019886 0.041719 0.090669 0.043666 -0.020442 0.048394 0.016827 -0.022528 0.031985 -0.112363 -0.134057 0.026422 -0.039772 -0.100126 0.021694 0.076207 0.059241 0.045057 0.033097 -0.002295 0.035044 0.005667 0.083438 0.031428 0.040885 0.054513 -0.086776 -0.046447 -0.009178 0.046725 -0.009526 0.073982 -0.004763 -0.022667 -0.073982 -0.084551 -0.018078 -0.052010 -0.088444 -0.046725 0.016062 -0.022667 -0.015297 0.006849 -0.067029 0.078432 -0.040328 0.021694 0.057850 0.069254 -0.011681 0.094007 -0.037547 -0.052288 -0.002329 -0.009804 0.080101 -0.033514 0.051454 0.052288 -0.011195 0.017313 0.024336 0.023780 -0.008518 -0.022946 0.013628 0.004415 0.043944 0.065916 -0.071757 0.023224 -0.031707 -0.066750 -0.055904 0.070922 -0.004624 0.009665 0.090113 -0.018913 -0.006293 -0.082326 0.047282 0.033514 -0.075650 0.014671 0.047560 0.043944 0.072313 0.041719 0.018913 -0.001417 -0.004624 -0.035322 -0.008031 0.027674 -0.076763 -0.096788 -0.036435 0.075094 0.076207 0.092894 0.022667 -0.065916 0.044222 -0.035322 -0.007023 0.134613 0.038381 0.061466 -0.002972 0.039494 -0.029482 0.037825 0.017174 -0.055904 0.013767 -0.002138 0.002277 0.008100 0.107357 -0.004937 0.060632 -0.050063 -0.055625 0.043944 0.039494 0.097344 -0.004554 0.002799 -0.058685 0.040328 -0.089001 -0.061744 0.036991 -0.024197 0.039772 0.043666 0.014254 0.043666 -0.022667 -0.000947 -0.032263 0.063135 0.057016 0.020025 -0.024475 0.031150 -0.039772 -0.065360 0.034349 -0.020442 0.065638 -0.083994 -0.146851 0.036157 -0.027674 0.035322 0.052288 0.086219 -0.061744 0.005215 -0.016479 -0.020442 0.036435 0.003355 -0.021138 -0.003233 -0.016409 0.003616 0.068419 -0.024892 0.089001 0.114032 0.072313 -0.092338 0.034766 -0.064247 -0.013211 0.063969 0.029203 -0.080657 0.028786 0.046725 -0.022806 0.044500 0.011334 -0.049785 0.048116 0.021416 -0.082326 -0.075094 -0.028786 0.130163 0.124045 -0.011542 0.070366 -0.084551 0.068697 0.048116 0.057294 -0.036991 -0.051732 -0.010499 0.058685 0.041719 0.146851 0.067863 -0.037547 -0.026422 -0.002521 -0.063691 -0.031707 -0.092894 -0.119038 -0.011334 0.022111 0.064525 -0.042553 0.013420 -0.028230 0.045891 -0.112363 -0.019330 0.099013 0.033236 0.029760 0.082882 -0.021277 0.035044 -0.249202 0.069254 0.102351 -0.006814 0.020721 -0.028925 -0.032541 0.006154 -0.075650 -0.191351 0.049785 0.030733 -0.006119 0.000978 -0.000291 -0.000908 0.047282 0.004137 0.014393 -0.009317 0.014532 -0.081769 -0.077876 -0.023502 -0.080657 -0.032263 0.003963 -0.024336 0.035878 -0.118482 0.002833 0.019052 -0.006327 -0.039216 0.040328 0.091226 0.007266 -0.020721 -0.015158 0.144626 0.082326 0.006536 -0.079544 -0.131276 -0.052844 0.057572 -0.033653 -0.054235 0.047560 0.105132 -0.032958
pause -0.010535 0.038339 0.029359 0.163027 -0.082204 -0.098783 0.071152 -0.031258 0.135395 0.050082 -0.030568 0.012521 0.015111 0.064934 -0.055263 0.040239 0.056300 0.044556 0.010362 -0.214145 -0.008333 0.072879 -0.063898 0.072533 -0.004749 0.065625 -0.006088 0.040757 0.037821 0.125724 -0.040239 0.049737 -0.103619 -0.112599 -0.022019 -0.073915 0.019774 -0.054918 -0.016579 -0.054573 0.043002 -0.006001 0.173389 -0.050082 0.008074 0.062517 0.018047 0.017961 0.030049 0.032985 0.022105 -0.052155 0.067007 0.096020 -0.028322 -0.025041 -0.030740 -0.011743 -0.032813 -0.019170 -0.027459 0.055263 0.008203 -0.020551 0.025732 -0.017529 -0.088421 0.005785 -0.114671 -0.036612 -0.026768 0.002342 0.006303 -0.027977 -0.062517 -0.079786 0.000093 0.046628 0.036785 0.125033 0.011916 0.040757 0.055609 -0.005829 -0.000580 0.037130 -0.007253 0.101546 0.054227 0.031776 0.024178 0.067352 -0.015888 -0.039375 -0.020119 0.043520 0.006994 0.126415 -0.017270 -0.017615 -0.059408 -0.009801 0.057336 -0.031604 0.052846 -0.038512 0.015111 0.026595 -0.020119 -0.017097 -0.001813 -0.087385 0.064244 -0.002040 0.048010 -0.098783 -0.049737 0.035230 -0.000982 -0.026423 -0.023832 0.026077 -0.069425 0.034194 -0.027977 -0.023660 0.024523 -0.010578 -0.019947 0.125033 -0.021156 -0.032122 -0.016320 -0.014420 0.071842 0.004577 0.046283 0.016493 0.030222 0.037821 0.052155 -0.159573 -0.036439 0.027804 -0.033331 0.024868 -0.017011 -0.024005 -0.033331 -0.050082 -0.094638 0.053536 -0.040929 0.032467 0.050773 -0.012262 -0.003994 0.048701 -0.062171 -0.025041 -0.089803 0.021674 0.040757 -0.067007 -0.018565 -0.053882 0.110527 0.071842 -0.041966 0.006649 -0.055263 0.033331 0.010578 -0.058027 0.097402 -0.003238 -0.016752 0.037303 -0.005570 -0.001997 -0.087385 0.079786 0.072879 -0.113981 0.077714 0.009542 0.049737 0.029877 0.021846 0.022278 -0.001803 -0.055263 0.113290 -0.065625 0.018392 0.099474 -0.091875 0.058027 -0.006131 0.032122 0.048701 0.030568 -0.104310 0.027286 0.095329 -0.079441 -0.019256 0.037476 0.014248 0.001878 -0.007642 0.099474 -0.005030 0.013557 -0.064244 -0.059753 0.039721 -0.014766 -0.030395 -0.046974 0.029013 0.092566 -0.185132 -0.116053 0.033503 -0.029877 -0.014593 -0.071497 -0.010535 0.143685 -0.000885 -0.029359 -0.058027 -0.018133 0.051464 0.018997 -0.015888 -0.024868 0.080477 -0.000556 -0.049046 0.022278 -0.059753 -0.007037 -0.020551 -0.009326 -0.027804 0.024868 0.005526 -0.105000 0.003216 0.072533 -0.116744 -0.115362 -0.067698 -0.060444 0.084622 -0.009283 0.002731 -0.006563 -0.044038 -0.043347 0.011830 -0.012262 -0.023832 0.022451 0.005742 0.013470 -0.063207 -0.068734 0.078750 0.109836 0.067352 0.012262 0.126415 -0.028841 0.009369 0.039202 0.044211 0.068734 0.039893 -0.008721 0.067352 -0.000793 -0.033849 -0.015543 -0.013384 0.007556 0.059753 0.067007 -0.002429 -0.052846 0.025041 -0.041448 -0.016406 -0.108454 -0.029531 0.104310 -0.095329 0.023832
manifest -0.006369 0.043260 -0.109432 0.067711 -0.053348 -0.071131 0.017954 0.004830 0.048903 -0.011285 0.027187 -0.043431 -0.013166 0.099857 -0.005194 0.072499 0.043260 0.066685 0.048219 0.019749 -0.020861 -0.100541 -0.094385 -0.045825 0.010045 -0.041892 0.001368 0.073525 0.012482 -0.091649 -0.068053 -0.060872 -0.050612 0.011285 -0.061214 -0.018638 0.059504 -0.015474 0.034198 -0.041037 0.088914 0.095069 0.004146 0.023254 0.000542 -0.097805 -0.047535 0.025990 -0.081048 -0.034711 -0.004146 -0.044457 -0.116272 -0.008165 0.006369 0.019236 -0.057110 -0.121743 -0.000255 -0.044799 0.106696 0.063607 0.035395 -0.020775 -0.007267 -0.004467 0.016842 0.094385 -0.060872 -0.024280 -0.071815 0.045141 0.031462 0.078996 -0.012653 -0.070105 0.031120 0.052322 -0.062582 0.129267 -0.062923 -0.058478 -0.060188 -0.098489 0.069421 -0.021117 0.015474 -0.031291 -0.079338 0.004830 0.030778 -0.108064 0.010216 0.070105 0.085836 -0.015816 0.012568 0.055400 0.017099 -0.011627 -0.048903 -0.014961 0.084468 -0.057110 -0.085152 -0.053690 -0.002095 -0.034711 0.054032 0.087546 -0.045483 -0.078654 -0.023083 0.000548 -0.062923 0.053690 -0.117640 0.042405 0.045483 0.086520 -0.055742 -0.041721 -0.050270 -0.058478 -0.083100 0.018894 -0.092333 -0.058820 -0.029239 0.094385 0.011029 0.005985 -0.010345 -0.041721 0.061898 -0.032146 -0.024622 0.007780 -0.008293 -0.035736 -0.041037 -0.012226 -0.035223 0.034027 -0.049587 0.021459 0.003121 0.026674 -0.062923 0.033685 0.063949 -0.010644 -0.023254 0.125847 0.049245 -0.039156 -0.070789 -0.047193 -0.075919 -0.038643 0.052322 -0.050954 -0.080706 0.015645 0.007908 -0.039669 0.027700 0.032488 0.014961 0.067711 -0.027187 0.006455 0.005557 -0.009618 -0.022570 0.054374 -0.048219 -0.098489 -0.025135 -0.151837 -0.008165 -0.022912 -0.055742 -0.012397 -0.014961 0.065317 -0.044115 -0.095069 -0.057452 0.017270 0.059504 0.016671 0.013081 0.019322 -0.048561 0.015902 -0.011371 -0.007994 -0.038301 -0.042063 0.042063 -0.038814 -0.041892 -0.100541 -0.063607 0.031462 0.003420 0.034539 0.050954 -0.049245 -0.100541 0.047535 -0.059846 0.036933 -0.133370 -0.015218 0.002255 -0.006455 -0.091649 0.076603 0.022912 0.081732 0.085152 0.112852 0.014534 -0.048219 0.012482 0.058478 -0.069421 -0.014620 0.059162 -0.016671 0.016842 0.087546 0.067027 0.068053 0.085152 -0.031291 0.055742 -0.057452 -0.014449 0.003356 -0.014278 -0.040353 0.015902 -0.005985 -0.094385 -0.002009 0.054716 -0.006070 0.134054 -0.020775 0.005194 -0.036420 -0.055400 -0.186035 -0.089598 0.103277 0.034198 -0.097121 0.003975 0.030436 -0.017184 -0.095069 0.032317 -0.019664 0.011456 -0.053006 -0.083442 -0.004766 -0.028897 0.110116 0.066685 0.064975 -0.095069 -0.059504 -0.086178 -0.010302 -0.080022 0.067711 0.004937 0.084810 0.027529 -0.162096 0.062923 0.050954 0.038301 0.024964 -0.043089 0.057110 0.097805 0.032830 0.031975 -0.028726 -0.042747 -0.053348 -0.035565 -0.037617 0.093701 -0.040695
melancholy 0.134272 -0.014064 -0.021446 0.032014 -0.016395 -0.015619 0.061542 -0.001127 0.131786 0.015696 -0.026886 -0.025487 0.035433 0.038697 0.029683 -0.016395 -0.017328 0.096353 -0.018804 -0.085163 -0.092001 0.073042 0.050041 0.017717 0.009014 -0.024399 0.015541 0.060920 -0.000070 0.015230 -0.056258 -0.011423 0.076461 0.002380 0.034190 -0.035278 -0.010568 -0.046933 0.021446 0.030149 0.076771 -0.039629 0.014764 -0.072731 0.078947 0.024244 0.004818 0.044447 0.018027 0.014841 -0.103812 0.116867 -0.060920 -0.036987 0.053149 -0.017328 -0.069623 -0.007188 -0.038230 -0.030926 0.013676 0.025487 -0.001292 -0.073663 -0.022068 0.029061 -0.046622 0.001049 -0.037453 0.064650 0.021757 -0.068690 -0.058123 0.063406 -0.105056 -0.013598 0.062474 -0.030771 0.080191 0.032325 0.001554 0.000607 0.021602 -0.109407 -0.017794 0.053460 -0.046622 0.067447 0.016940 0.037143 -0.045690 0.001632 -0.061852 0.048487 -0.118110 0.047555 0.139867 -0.024555 -0.086407 -0.136137 -0.012355 0.048177 -0.020358 0.027818 -0.004585 -0.016784 0.060920 -0.011034 -0.039784 -0.027973 -0.017950 0.043203 0.048177 -0.052528 0.046622 0.042271 0.045690 0.017406 0.090758 0.062785 -0.052528 -0.008936 -0.022379 -0.032791 -0.028284 0.009519 0.022534 0.015774 -0.020514 0.011423 -0.075217 0.080191 0.030460 0.073353 0.014919 0.014997 -0.052217 0.073663 0.004118 0.090137 0.029217 -0.035278 -0.103812 0.033413 0.005711 0.002263 -0.072731 0.185246 -0.126191 -0.003205 0.041028 0.005983 0.097596 0.104434 -0.088272 -0.080812 0.053460 0.002147 -0.060920 -0.019115 0.009247 -0.022068 0.026264 0.075839 0.053149 -0.055014 0.032791 0.031392 -0.048798 0.053460 0.076771 -0.005789 -0.029994 -0.047555 -0.003943 -0.017017 -0.040406 -0.006644 -0.022845 -0.082055 -0.030460 0.050352 -0.059055 -0.063406 -0.131164 0.034811 -0.044447 -0.020358 0.046622 0.112515 -0.045690 -0.027196 0.011267 -0.044447 -0.020203 0.125570 -0.020980 0.038541 -0.012510 0.184003 -0.009674 0.007032 -0.162868 0.014375 0.018882 -0.020358 -0.043825 0.087028 -0.058123 0.038852 -0.072731 -0.037453 -0.031703 0.108164 -0.080812 -0.081434 -0.057812 0.037143 -0.085785 -0.069001 0.045379 0.083920 0.023467 0.062163 0.033102 -0.017250 0.007110 -0.091380 0.000214 0.017950 -0.012743 -0.003497 -0.092623 0.066204 0.060298 0.010412 -0.083920 0.020980 0.059677 0.012510 0.090758 -0.095110 0.022223 0.010179 0.058123 0.021913 0.048798 0.034345 0.007965 0.043514 -0.012899 0.045068 0.065893 0.124326 -0.072731 -0.113759 0.054393 -0.050352 0.056879 0.116245 -0.030771 -0.033413 -0.072109 0.006139 -0.088893 0.083920 -0.031859 -0.071799 -0.030305 0.052528 0.051285 -0.036055 -0.006566 0.034501 0.037453 0.025021 -0.050352 0.077393 -0.013210 0.022068 -0.026886 -0.148570 0.064339 -0.043825 0.120597 -0.051595 -0.019348 -0.003672 -0.033879 0.045690 -0.046312 0.036832 -0.023311 -0.052839 -0.020514 0.065582 0.084542 -0.038697 0.072420 0.037919
sweat 0.069627 0.009347 -0.021040 0.001816 -0.046317 0.028910 0.116247 -0.024218 0.019374 0.107770 0.021948 -0.033300 0.024672 0.076287 -0.139254 0.104743 0.016801 0.090212 0.006395 0.003614 -0.093240 0.054491 0.022553 -0.023310 0.003652 -0.003935 -0.042382 -0.031938 -0.034208 -0.009990 -0.014682 0.047831 0.118669 -0.052069 -0.087185 -0.076590 -0.017180 -0.005411 0.029818 0.006660 0.053885 -0.084763 0.026640 0.001438 -0.019980 0.009839 -0.113220 -0.001097 -0.001551 0.056004 0.121696 0.067508 -0.049647 0.026488 -0.032240 -0.092029 0.009233 -0.018920 0.015817 0.014531 0.082341 -0.079314 0.031786 -0.011201 0.003103 -0.059032 -0.025429 -0.016499 -0.036933 0.010823 0.047528 0.060848 0.030424 -0.021040 -0.108376 -0.075076 0.074773 0.034057 0.003330 -0.049344 -0.091423 -0.032240 -0.079920 0.011125 -0.032997 0.012714 -0.016801 0.165894 0.103532 0.051161 -0.123512 0.094451 -0.033754 -0.010141 -0.074773 0.008401 0.049647 -0.048436 -0.034359 -0.035419 -0.025429 -0.046923 -0.028305 -0.039052 -0.052977 -0.094451 0.205854 -0.009763 0.047831 -0.022705 0.071746 0.046317 0.037084 -0.037689 0.159839 -0.018466 -0.061756 -0.006622 -0.139254 0.024672 -0.015288 0.018164 -0.033451 -0.054188 0.008855 0.074471 0.000305 0.031484 0.065086 0.024975 -0.063573 0.020888 -0.037084 0.010974 0.001201 0.042382 0.004881 0.078709 -0.122907 -0.027245 -0.063573 -0.075984 -0.039052 -0.116247 -0.043593 0.013774 0.044804 -0.036933 0.161050 -0.034965 0.036630 -0.018693 -0.035116 0.099294 0.036933 0.014001 0.003652 -0.034662 0.053885 -0.010293 0.048436 -0.069324 -0.053280 0.066297 0.014834 -0.052977 -0.019374 -0.043895 0.055702 -0.014909 0.042684 0.003841 -0.019374 -0.011352 -0.045409 -0.067508 0.013320 -0.062362 0.007530 -0.044501 0.016347 -0.095056 0.112009 0.017936 -0.040263 0.011125 0.006471 -0.023158 0.043895 0.052372 -0.063270 -0.090212 -0.001381 0.039354 -0.020131 0.084158 -0.093845 0.073865 -0.045409 -0.044501 0.054491 0.075682 -0.063573 0.050858 0.007871 -0.047831 -0.154390 0.026791 -0.019677 -0.056610 -0.049647 0.074168 -0.013320 -0.007530 0.113825 0.006471 -0.057518 0.029667 -0.037841 -0.017104 -0.121090 -0.035722 0.034662 -0.102321 -0.059637 0.128356 0.055399 0.046317 -0.014001 -0.045409 0.065994 0.019072 0.018769 -0.003973 -0.047831 -0.022856 -0.024521 -0.037235 -0.020737 -0.051161 0.067811 -0.007530 -0.073260 -0.026488 0.059032 -0.018088 0.002914 0.074471 -0.033754 0.025580 0.036630 0.003311 0.006546 0.059940 0.008363 -0.036176 0.074471 -0.011882 -0.039657 0.025883 0.013850 -0.039354 0.019374 0.100505 0.038749 0.062664 0.094451 0.042684 0.071141 -0.058729 -0.031332 0.148941 0.124723 0.008666 0.010823 -0.018845 -0.119880 -0.085369 -0.027245 -0.012487 0.036630 0.005033 0.068113 0.029818 0.005146 0.015742 0.021796 0.108981 0.032240 0.049042 -0.000861 -0.013169 0.022705 0.027397 0.013698 -0.026034 0.007757 0.001097 -0.055399 0.044501
prominence 0.083350 0.093471 -0.008298 -0.019796 0.097043 -0.128002 -0.000851 -0.202421 0.044354 0.042270 0.073229 0.028131 0.048522 0.094066 -0.127406 -0.026196 0.072336 0.045545 0.118476 -0.000033 -0.031256 0.000234 -0.006251 0.032894 -0.135146 -0.035573 0.030065 0.051796 -0.064001 0.076206 -0.032596 0.037061 0.012056 0.024112 0.076801 -0.011312 -0.016000 -0.016968 0.003014 0.058643 0.077992 -0.080969 0.092876 -0.041675 -0.013916 -0.016223 -0.047033 0.015107 0.073527 0.011461 -0.028280 -0.042270 0.025303 -0.059536 -0.074420 0.000220 0.034977 -0.062513 0.028875 0.001851 -0.014065 0.002977 -0.050010 -0.053582 0.099425 0.034977 -0.032894 0.050010 0.009526 0.029024 -0.041973 -0.044056 0.071145 -0.000819 -0.042568 -0.069657 0.070847 0.057452 0.084541 0.062513 0.001935 0.100020 0.046438 -0.015554 -0.051796 -0.033638 0.013916 -0.123834 -0.048224 -0.024707 -0.001619 -0.053582 -0.075908 -0.125025 0.138718 0.066085 -0.095853 -0.012502 0.019945 -0.051796 -0.009377 0.010791 0.037359 -0.053284 -0.041377 -0.032149 -0.049415 0.095257 -0.066085 -0.083350 -0.127406 0.120262 0.063108 0.005619 -0.025005 -0.029173 -0.017340 0.059536 0.055071 0.075015 -0.063108 -0.025154 -0.007479 -0.007926 -0.023814 0.054773 0.030810 0.071741 0.031703 0.075015 0.066978 -0.075610 -0.001228 0.013470 -0.014884 0.043163 0.090494 0.002419 -0.060726 0.042568 -0.056559 0.007479 -0.031852 -0.027386 0.095257 0.005395 0.093471 0.053284 0.018754 0.003367 0.046735 0.050903 -0.018754 0.092280 -0.059536 0.004372 -0.014958 -0.021879 0.055071 -0.167891 0.025600 0.063405 -0.015702 -0.010493 -0.034233 -0.086327 -0.070550 -0.076801 -0.098234 0.104188 0.058643 -0.025600 0.036466 -0.115499 -0.020093 -0.001377 0.015107 -0.075610 0.055368 -0.070847 -0.015405 -0.033787 -0.012726 -0.084541 0.051201 -0.022326 -0.034977 0.009526 -0.013619 0.059238 0.092876 0.012354 0.051498 -0.021582 -0.033042 -0.038103 -0.034828 0.046735 0.097639 0.020391 -0.016149 0.021879 0.080969 -0.062513 -0.012949 -0.059833 -0.002791 -0.077396 -0.016968 0.058940 -0.029321 -0.037508 0.089304 0.001972 -0.048819 -0.125025 0.019796 -0.023814 0.049712 -0.014586 0.026791 0.007963 -0.056261 0.045842 0.011088 -0.054475 -0.037210 -0.038103 -0.031405 0.053880 -0.111332 -0.052987 -0.054475 0.007070 0.032298 -0.062215 0.026642 -0.029917 -0.012577 -0.043163 -0.110736 -0.091090 -0.057750 0.050308 0.066085 0.047629 0.030512 -0.009675 0.085136 0.021730 0.063703 -0.001851 -0.078587 0.023070 0.049117 0.083350 -0.016819 -0.041377 -0.046438 -0.013396 0.027982 -0.046140 -0.048819 0.095853 0.075908 0.050308 -0.015777 -0.054475 0.017861 -0.050605 -0.009972 -0.062513 -0.020391 -0.034233 -0.016596 -0.005805 -0.071145 -0.126216 0.024261 0.009302 -0.018828 -0.039294 0.016670 0.064596 -0.101806 -0.002195 -0.064299 0.027386 -0.076801 -0.088708 -0.003367 -0.079778 0.045247 -0.116095 0.027386 -0.025898 0.059238 -0.003888 -0.018084 0.016596
pain 0.069654 -0.005307 -0.105475 0.039470 -0.029686 0.082258 -0.012438 -0.042456 0.067332 0.059040 -0.041460 -0.043451 0.048758 0.081262 0.073634 0.098842 0.023384 0.079604 0.021062 -0.073965 0.006509 0.065342 0.020813 0.035158 -0.054396 -0.018326 -0.050748 -0.046767 -0.048426 -0.087564 -0.086238 0.002405 0.057713 -0.034661 -0.112109 -0.014760 0.069985 0.023052 0.013102 -0.011858 0.011029 -0.020730 0.029022 -0.100832 0.010780 0.012106 0.055723 0.054064 0.037149 0.081594 -0.086238 0.074297 -0.114099 0.021062 0.073965 -0.048426 -0.069654 0.065010 0.031012 0.025374 -0.037149 0.019984 0.051411 -0.025374 0.017413 0.021559 -0.006509 0.065673 -0.013765 0.002633 0.008375 0.001690 0.028525 -0.058045 0.027861 -0.029188 0.138644 0.028691 0.048094 0.044777 0.013682 0.028359 0.025871 -0.001187 -0.011858 -0.082921 -0.021891 0.064015 -0.002042 -0.028856 -0.005597 0.061361 0.031510 0.023384 -0.048094 0.012438 0.055391 -0.020067 0.015423 0.020896 -0.020647 -0.023052 0.050084 0.005307 0.144614 -0.045109 -0.033002 0.058045 0.036485 -0.033002 0.009785 -0.021559 0.080931 0.022555 0.012438 -0.068327 -0.084579 -0.081926 -0.020730 -0.008665 -0.156555 0.008582 -0.028856 -0.045772 -0.088228 -0.122723 0.019404 -0.025705 0.097515 0.002622 -0.135327 0.078277 -0.165842 -0.037480 -0.053733 -0.054064 0.029851 0.096188 -0.059371 0.017165 -0.042787 -0.042124 -0.079272 -0.008582 -0.033002 -0.128030 -0.078277 -0.013682 -0.067995 -0.088891 0.094198 0.050748 0.068327 0.081262 0.043119 0.033998 -0.033832 -0.098842 0.022886 -0.098178 0.025871 0.082258 -0.046104 0.008831 -0.000220 -0.043119 -0.086901 0.023881 0.023052 -0.046104 0.017911 0.018657 -0.127366 -0.022057 -0.049752 -0.124713 0.082258 0.024545 -0.013682 0.028856 -0.047099 -0.014179 -0.008541 0.025042 -0.107465 -0.008955 0.005348 0.009329 0.108792 -0.024047 -0.021062 -0.066668 -0.007877 -0.055723 -0.051411 0.114762 -0.029520 0.050416 -0.002716 -0.105475 -0.124050 -0.002674 0.015838 0.049421 -0.036485 -0.064015 -0.055723 0.018077 0.024379 0.094198 -0.028359 0.013184 -0.030183 0.051743 -0.050084 -0.059371 -0.090881 0.039802 -0.053069 -0.126703 -0.000409 -0.010158 -0.017496 -0.054728 -0.009370 -0.061361 0.019321 -0.077614 0.053401 0.027696 0.035656 0.053733 0.025705 0.007629 -0.043782 -0.052738 -0.069985 0.040631 0.018243 -0.006509 0.051743 -0.062025 -0.025540 -0.077282 0.055060 0.003566 0.043782 0.080599 0.055391 0.028525 0.050748 -0.024379 0.100832 0.016335 0.069322 0.055391 -0.006095 -0.007670 0.098178 0.014594 -0.032505 -0.024047 0.021559 0.010697 -0.048094 0.039470 0.083252 -0.075956 0.033998 -0.087564 -0.002063 0.092871 0.083584 0.018906 0.029188 -0.067995 -0.158545 0.063020 -0.060035 -0.021228 0.059040 0.052738 0.007048 -0.025540 -0.041129 -0.012521 0.019569 0.030847 -0.014926 0.046767 -0.023881 -0.027198 -0.003420 -0.030183 -0.043782 0.152574 -0.059371 0.127366 0.041626 0.008126
oxygen -0.011578 -0.022245 -0.027449 -0.077012 -0.018863 0.018993 0.007968 -0.044750 -0.050474 -0.027449 0.036165 0.041368 0.015936 0.012033 -0.098867 0.083257 -0.089501 0.085858 0.022635 -0.069727 0.061922 -0.057239 -0.069207 0.005366 0.022245 -0.025497 -0.163391 -0.007838 0.016911 -0.162350 0.010082 -0.015806 0.026928 -0.045271 -0.046832 -0.011253 -0.047092 -0.058800 -0.079094 0.009627 -0.003659 -0.078053 0.028099 -0.043449 0.066345 -0.071809 -0.036425 0.021985 -0.132690 0.013009 -0.099908 -0.068687 -0.037205 -0.001098 0.052556 -0.009561 -0.029790 0.069207 0.085858 0.025237 -0.004260 -0.010602 0.015676 0.033563 0.051255 -0.065825 -0.049694 0.005756 -0.007155 0.078573 -0.033172 -0.079614 0.050474 -0.030441 -0.106672 -0.106152 0.025107 -0.028359 0.025497 0.029270 0.096786 0.045791 0.050214 0.000016 -0.084818 -0.053076 0.055938 0.069207 0.004228 0.031742 0.037466 0.028359 -0.069207 0.016781 -0.039807 -0.032522 -0.022896 -0.085338 0.024326 0.021334 0.016261 -0.002073 0.099908 -0.092623 -0.028099 -0.037726 0.125926 -0.005626 -0.050735 0.001122 0.001358 -0.047612 0.003220 0.024977 -0.047092 -0.025888 -0.027449 0.039547 -0.054637 0.014635 -0.140495 -0.028489 0.030961 -0.025497 0.036945 -0.059581 0.061141 0.058280 0.027058 0.065825 0.075972 0.037466 -0.077533 -0.018863 0.046832 0.081175 0.019123 -0.075451 -0.045271 0.092623 0.016911 -0.017042 -0.077533 -0.056458 0.035384 -0.020554 0.014765 0.124885 -0.031221 -0.104591 0.003512 -0.029660 -0.029790 0.068687 0.074411 -0.069207 0.101469 -0.023026 -0.085338 -0.055938 0.011968 -0.021334 -0.099908 0.100428 0.076492 -0.086899 -0.010017 0.028880 0.067646 -0.071288 -0.061922 -0.014505 0.064264 0.020814 -0.028619 -0.033563 0.056458 -0.025367 -0.069207 -0.048653 -0.001366 0.040848 0.024587 0.057759 0.092623 0.050474 0.014440 0.026928 0.027319 0.033042 -0.018212 -0.036685 -0.000344 0.143618 0.077012 0.069727 -0.013594 -0.146740 0.007838 -0.016651 0.078053 0.044230 -0.054897 -0.041368 0.095225 -0.132690 0.007415 -0.018473 -0.074411 -0.102510 -0.043189 0.051515 -0.064784 0.088981 0.071809 -0.011643 0.157147 -0.004163 -0.046832 0.008228 0.067646 0.005626 0.053857 -0.028229 0.048133 0.041368 0.030441 -0.012814 -0.010732 0.069207 -0.038246 0.028359 0.028359 -0.078573 -0.012814 -0.012163 -0.045791 0.018993 0.107713 0.025107 0.049173 -0.034603 0.041628 -0.061662 0.056198 0.054117 0.065044 0.001358 0.016326 -0.010992 -0.020164 -0.108234 -0.069207 0.070248 0.028619 -0.017432 0.024457 0.018603 0.042409 0.013074 -0.022505 -0.070768 -0.077533 0.013594 0.021074 0.043449 0.060621 -0.128007 0.097306 -0.058280 -0.067126 0.021985 0.031091 0.060101 -0.004195 -0.043970 -0.067646 -0.048133 0.082216 0.007448 0.033823 -0.009822 0.065825 -0.047352 -0.003789 -0.027189 0.056458 0.045791 0.136333 0.049173 -0.040848 -0.129048 -0.024587 -0.082736 -0.038506 0.010537 -0.073890 0.061662 0.030831 -0.029660
call_name 0.007247 0.061160 0.057841 0.020639 -0.000836 -0.026158 0.023849 -0.060960 0.006940 0.046429 0.017304 0.011179 -0.074949 -0.035215 0.015932 0.129569 0.001867 0.014000 -0.065140 -0.031217 0.037782 0.032450 0.039513 -0.013750 -0.063863 0.041432 -0.018011 0.061396 0.096074 0.037468 0.057321 0.010803 -0.059932 -0.113971 0.072681 0.039004 0.105649 0.050619 0.027632 -0.033434 0.025916 0.023499 0.036630 -0.052836 -0.037899 -0.066415 -0.032283 0.010842 -0.124772 0.014123 -0.099169 -0.034331 0.042641 0.010495 0.071604 0.022781 0.010436 0.012561 0.033273 -0.042819 -0.013077 0.030684 -0.046576 -0.005891 -0.008596 -0.031841 0.037467 0.044928 -0.022185 0.038898 0.087522 0.062607 0.011412 0.006032 -0.002888 0.001921 0.102083 0.067681 0.122561 0.119395 0.095309 -0.010441 0.024323 -0.032354 0.011874 0.006983 0.015079 -0.100314 -0.017305 0.035750 0.101444 -0.028922 -0.076898 -0.137217 -0.020625 0.063126 -0.025625 0.039102 -0.015929 -0.047459 -0.098723 -0.021080 0.045935 0.049605 -0.016544 -0.074819 0.011732 0.007668 0.025506 0.069334 0.022259 -0.023695 0.023941 -0.106805 -0.042351 -0.033424 -0.074279 0.025807 0.116271 0.105893 0.039366 0.001990 -0.094242 0.186020 0.001819 -0.013611 -0.021550 -0.034342 0.111421 0.077940 -0.054757 -0.115048 -0.029218 0.047053 0.027902 -0.051521 -0.028838 -0.017120 -0.063017 -0.005089 0.056441 -0.033660 -0.022833 -0.112049 0.086208 -0.005674 0.003113 -0.112036 -0.018410 0.013951 0.081086 0.107090 -0.057212 0.007329 0.014117 -0.051531 -0.065768 0.030700 -0.027299 -0.090834 0.017033 0.055708 0.034628 -0.105300 -0.065789 -0.032651 -0.044172 -0.060451 -0.054770 -0.009609 0.082797 -0.036339 0.077893 -0.084681 -0.130821 -0.018702 0.096798 0.049163 -0.032477 -0.073826 0.004043 -0.060889 0.015478 -0.009046 0.059201 -0.034573 0.020602 0.033751 0.018691 0.126667 0.028155 -0.019687 -0.020910 -0.012604 0.008212 0.021876 -0.005198 0.021716 -0.009461 0.016667 -0.000224 0.008604 -0.007865 0.003270 -0.013984 0.002621 0.028492 0.022364 0.040706 0.045082 -0.025883 -0.029599 -0.032012 0.004402 -0.070633 0.075011 0.037415 0.008790 -0.083338 -0.107587 0.028865 0.044268 -0.030655 -0.003629 0.129183 0.073838 -0.002828 0.104930 -0.025394 0.075020 0.018108 -0.002609 -0.064384 -0.054069 0.065515 -0.052984 0.090895 -0.101014 -0.004225 -0.090111 0.003379 -0.096817 -0.059089 -0.009947 0.107086 0.042906 0.145616 0.067125 -0.023415 -0.055579 -0.041609 0.046928 0.066762 -0.038858 0.043214 -0.052104 -0.014964 0.008894 -0.023374 -0.117646 0.019534 0.010322 -0.114637 0.000701 0.040383 0.030833 -0.040428 -0.008387 -0.012579 -0.141385 0.003779 0.030443 0.105847 -0.032235 0.068320 -0.018445 -0.022404 -0.074143 -0.074271 0.026812 -0.022689 0.031380 -0.016788 -0.031155 -0.025560 0.013095 0.033434 0.034450 -0.064444 -0.008497 -0.005462 0.150060 -0.054089 -0.081080 0.074857 -0.102084 0.065004 -0.046239 -0.042958 -0.050555
love_man 0.117337 -0.000323 0.016125 0.016946 -0.015015 0.004718 0.015707 -0.062581 0.006130 0.049782 0.001714 -0.090685 -0.030502 -0.053507 -0.086421 0.053100 0.003965 0.055234 0.010265 -0.045497 -0.046400 0.019844 0.063542 -0.111809 0.059173 -0.062664 -0.008562 0.099538 0.133279 -0.052738 0.018421 0.072791 -0.014257 0.025482 0.010455 0.090593 0.134108 -0.014705 0.014119 0.172204 0.054543 -0.062279 0.077180 0.004070 0.036836 -0.063157 0.008600 0.014497 -0.009211 0.025037 -0.064674 0.071871 -0.010379 -0.047769 0.045018 0.003626 -0.032623 -0.040117 0.021978 -0.007537 0.108881 0.107280 -0.029532 0.040215 0.034255 -0.026281 -0.063496 -0.033349 0.027340 0.038206 0.093921 0.019514 -0.105697 0.015571 -0.106212 0.014375 -0.051226 -0.019051 0.043409 0.075783 0.008952 0.029695 0.030285 -0.108128 -0.103757 0.049156 -0.167532 0.055898 0.113404 0.000383 -0.043442 0.054872 -0.052321 -0.041367 -0.009755 -0.030566 0.008835 0.014133 -0.008214 -0.083455 -0.079720 0.008522 0.079293 -0.018209 0.113576 -0.045054 0.049167 -0.007380 0.009145 -0.097245 -0.040806 0.058474 0.025914 -0.010430 0.107951 0.012066 -0.008788 -0.049046 -0.001320 0.103183 0.037067 -0.025833 -0.077951 0.011650 -0.045550 -0.104740 0.005257 -0.012834 -0.017589 0.024329 -0.055791 -0.103977 -0.064269 0.025430 -0.030835 -0.002119 -0.002035 -0.012743 0.015658 0.104620 0.045183 0.038473 0.026885 0.039067 -0.103143 0.054578 -0.032991 0.011203 -0.066190 -0.066870 0.112005 0.020542 0.004482 0.010724 -0.063254 0.078584 -0.006952 -0.033030 0.020195 -0.110829 -0.066992 0.017659 0.063216 0.106352 -0.006462 -0.080384 0.085589 -0.059146 -0.029934 0.021503 0.038005 0.009472 -0.072038 -0.048329 -0.037322 0.018956 0.015896 0.024395 -0.078547 -0.075659 -0.038361 -0.057581 0.031551 -0.052132 -0.075993 -0.020991 -0.010134 0.001646 0.013740 -0.017085 0.021861 0.093347 0.051547 0.107285 0.043854 0.008112 0.009930 -0.033445 -0.065962 -0.074994 -0.035762 -0.040121 -0.088400 -0.068982 -0.018932 -0.050772 -0.010298 0.056590 0.013951 -0.091832 -0.049559 0.020632 0.012526 -0.014581 -0.116643 -0.084906 0.035584 0.056327 -0.136448 0.045818 -0.000001 -0.031107 0.062106 0.002946 -0.024883 -0.010573 0.077259 -0.063643 -0.054269 -0.047297 -0.043052 -0.037424 -0.015627 0.111216 0.071759 0.000498 -0.072470 0.000335 0.005830 0.010769 0.066203 0.003729 -0.100959 0.023710 -0.036319 0.090570 0.016965 -0.016078 -0.008835 -0.038481 0.053588 0.080364 0.053587 0.069968 0.054196 -0.009076 -0.058613 -0.074607 -0.084096 0.032618 0.004427 -0.016626 -0.036866 0.006133 0.018458 0.080525 0.009388 0.029107 -0.044494 0.014151 -0.017684 0.039915 0.026797 0.004656 0.038144 -0.012731 -0.021834 -0.021003 -0.082701 -0.032046 0.070050 -0.047097 0.044834 0.153033 0.028515 -0.056025 -0.084959 -0.010636 -0.000639 0.061788 0.036028 0.024155 -0.094139 -0.141363 -0.036834 -0.086419 0.007009 -0.134020 -0.052730 0.021823
single_tone 0.068687 -0.034559 0.011777 0.038699 -0.088752 -0.065206 0.034187 -0.060343 0.098466 0.069240 0.031821 -0.076257 0.086399 0.041023 0.081651 0.031110 -0.032916 0.055790 -0.029929 -0.136863 0.020401 0.168405 0.063290 0.094917 -0.002099 0.100269 -0.007484 0.081492 0.047736 0.083215 -0.093704 0.037740 -0.015856 -0.056748 -0.043912 -0.037952 -0.019479 -0.054905 0.041186 0.015298 0.100147 -0.055823 -0.085689 0.027058 0.042176 0.047949 0.022808 0.069879 0.011397 0.019805 0.042978 0.051000 0.065165 0.017826 0.059979 0.004057 -0.029430 -0.055211 -0.012821 -0.032499 0.076207 -0.016905 -0.039574 -0.033460 -0.006121 0.072821 -0.029378 0.076382 0.027110 0.105224 -0.012950 0.012836 0.063467 -0.026321 -0.079954 -0.035804 0.085636 0.081638 0.093747 0.034523 0.025620 -0.071965 0.042697 -0.015779 0.036825 -0.018270 -0.107883 0.122679 -0.048451 0.014068 -0.000455 -0.001232 -0.070119 0.007142 -0.063359 -0.038159 0.060601 -0.022357 -0.183780 -0.041560 -0.016352 -0.082579 -0.101491 -0.031194 -0.053377 -0.044361 0.023166 0.088211 0.003551 -0.064799 -0.014936 -0.074554 -0.014742 0.033394 0.111919 0.034524 0.002208 0.057803 0.062040 0.067337 -0.039522 -0.016906 0.032187 0.150270 0.016356 -0.006443 0.047696 0.020874 0.050286 0.001626 -0.012861 0.002246 0.009022 0.076661 0.018879 -0.058737 -0.112711 -0.039016 -0.006072 -0.038225 0.059694 0.005920 0.041446 0.029478 -0.015234 0.028404 0.024151 0.039611 0.034051 0.022484 -0.014806 -0.022030 -0.057330 0.017431 -0.025709 0.038327 -0.050374 0.025465 0.052127 -0.034082 -0.149634 -0.031599 0.098962 0.050999 -0.128351 -0.034267 0.087542 -0.057065 -0.080171 0.005332 -0.019616 -0.128509 0.045513 -0.116993 0.012405 -0.019171 0.096304 -0.081688 -0.103717 0.062467 -0.053759 0.000627 0.015037 0.110095 -0.033824 -0.027034 -0.047899 -0.082314 0.021506 0.027165 0.023693 -0.092630 0.021359 -0.008602 -0.022602 0.031278 0.016078 0.077557 -0.060765 0.024151 -0.022734 0.051875 -0.082024 -0.007035 0.044614 -0.025753 0.008186 -0.050094 0.075263 -0.064753 0.010416 0.046157 0.020040 0.017995 -0.000992 -0.043880 0.032244 0.050829 -0.174253 -0.030245 0.003647 0.177289 -0.047022 -0.022877 -0.002553 0.000872 0.019960 0.015360 0.119004 0.112901 0.013935 -0.034253 -0.005295 0.029088 -0.038088 -0.076104 -0.050287 -0.034562 0.054995 0.045213 0.041158 -0.007910 0.048871 -0.110407 0.105713 0.009957 0.009823 0.071033 0.049332 0.030297 -0.009924 0.047467 -0.040310 0.049943 -0.012051 -0.036485 0.002315 -0.073431 0.077945 -0.028232 -0.012767 -0.071401 -0.115573 -0.019030 0.050935 0.069009 0.028671 -0.046718 -0.116929 0.025173 -0.060535 -0.015734 0.054303 0.023933 -0.023326 0.041783 -0.079127 -0.026079 0.070432 0.005741 0.028311 0.031645 -0.038458 -0.018829 0.029115 -0.022152 -0.006988 -0.063892 -0.005414 -0.003632 -0.045045 -0.041085 0.015090 -0.008463 0.029537 -0.010865 -0.000206 -0.030162 0.030013 0.024221
great_world 0.001667 0.077327 0.056272 0.087323 0.019882 -0.016585 0.048351 -0.072883 0.017855 0.084492 -0.034545 -0.071225 0.069991 -0.085511 -0.025492 0.046609 0.026899 0.122971 0.018370 -0.008034 -0.022293 0.066403 0.037277 -0.005184 0.068689 0.024997 -0.103404 0.028899 -0.004103 -0.069445 -0.022406 -0.003330 0.016449 0.080916 0.073665 -0.004700 -0.059327 -0.019275 0.040051 0.099354 0.034970 0.026525 0.047332 0.066581 0.053203 0.093309 0.040777 -0.007671 -0.018339 0.011236 -0.021047 0.110499 -0.048799 -0.011660 0.018032 0.061495 -0.011478 -0.104518 0.076637 -0.005283 -0.008986 0.086903 -0.008722 -0.050023 0.001941 0.006031 -0.021840 -0.020519 -0.056157 0.016932 -0.047918 0.049690 0.074634 0.022929 -0.021960 -0.026430 -0.033628 0.097334 0.019432 0.002723 0.015046 0.002182 0.024133 -0.031008 -0.005625 -0.118778 -0.041713 -0.012004 -0.038577 0.074499 0.083896 -0.031917 -0.079687 -0.043346 -0.100826 -0.061295 -0.004861 0.053113 0.066167 -0.092501 -0.084163 0.103996 -0.032734 -0.008764 -0.078564 0.098213 0.018367 0.007558 -0.002164 -0.046538 -0.000880 0.084090 -0.049589 0.029011 0.142623 -0.047098 -0.070920 -0.140396 0.010399 -0.012926 -0.040379 -0.048463 0.001017 0.109876 -0.010254 -0.067147 0.037423 -0.059513 -0.106978 0.033985 -0.037875 0.010990 -0.098762 0.059093 0.047034 -0.102738 0.076014 0.059125 -0.000773 0.042636 0.017136 -0.006449 0.013370 0.002885 0.029031 0.005633 0.013119 0.029711 0.026937 -0.072014 0.095596 0.089555 -0.007134 0.069486 -0.051786 0.005863 -0.025531 -0.049834 -0.028314 -0.073201 -0.040913 0.042517 0.017209 -0.051295 0.141309 -0.107194 0.039792 -0.079721 0.037862 0.026501 -0.061765 0.068708 0.102175 -0.089932 0.037061 -0.035889 0.053357 -0.076230 -0.046644 -0.047893 -0.047549 -0.145704 0.044680 -0.095471 -0.013574 -0.022609 -0.058908 -0.046216 0.029982 0.075149 -0.011953 0.086973 0.040241 -0.092435 -0.020051 -0.027859 -0.073346 -0.033219 -0.077875 -0.211754 0.005650 0.042637 0.029440 -0.022977 -0.024135 0.061363 -0.060101 0.006352 -0.083775 0.084181 -0.047985 0.062651 -0.014460 0.037722 -0.017770 -0.012539 0.043180 0.007128 0.011773 0.012369 -0.040126 -0.017314 0.002456 -0.058629 -0.035942 0.020408 -0.030985 -0.102789 0.026971 -0.039742 -0.044799 -0.023845 0.088073 -0.018994 0.054556 0.018923 -0.069857 -0.007010 -0.009788 -0.038734 0.069028 -0.022131 0.009182 -0.038460 0.022272 0.012518 0.028805 -0.096137 -0.097549 -0.116587 0.056568 0.084389 0.045182 0.050960 0.068247 -0.095131 0.026364 -0.011541 -0.070134 -0.087228 -0.014390 -0.085677 -0.044440 0.019708 0.035757 0.036321 0.069703 -0.006272 -0.025731 0.033482 -0.107233 0.081128 0.019602 -0.039596 0.026441 -0.039988 -0.107621 -0.039952 -0.031208 -0.022823 -0.021237 -0.058587 -0.029485 0.005474 0.016628 0.068789 -0.085347 -0.014749 0.001641 0.042493 -0.006641 0.013601 -0.160675 -0.003249 -0.081302 -0.060266 -0.002600 -0.030138 0.039681 -0.057333
strike_hand 0.025222 -0.024222 -0.023221 0.078404 -0.069845 0.023078 0.094761 -0.162877 0.048898 0.058769 -0.039761 -0.045591 -0.038947 0.072702 -0.054280 0.030172 -0.000694 0.014764 0.047210 -0.044561 0.064275 0.027097 0.063420 0.017054 0.089934 -0.074266 -0.033007 -0.100968 -0.000829 0.040966 0.006776 -0.020557 -0.012913 -0.008167 -0.026713 0.019472 -0.014429 0.015856 -0.024491 -0.024929 -0.022928 0.010017 0.105349 -0.010823 0.011329 0.035019 -0.059006 -0.002234 0.028251 0.014202 -0.082883 -0.019161 -0.018940 -0.035058 -0.000299 -0.000959 0.005726 0.030663 -0.080840 -0.016989 -0.041880 -0.013560 -0.117782 -0.006552 -0.067202 -0.053435 0.020232 -0.033657 0.052150 0.080071 0.030681 -0.016837 0.063500 -0.039679 -0.088837 -0.044877 -0.025148 0.060180 0.026076 0.030365 -0.013758 -0.044298 0.093644 -0.084355 0.090400 -0.011719 -0.036781 -0.017811 -0.014435 0.014033 -0.066668 -0.014978 -0.042663 0.080269 -0.118901 0.013493 -0.004563 0.025610 -0.104712 0.008551 -0.014257 -0.225089 -0.048566 -0.031799 0.073564 -0.108193 0.097512 -0.020385 0.062236 -0.037209 0.042270 -0.019708 -0.063475 -0.017717 -0.020998 0.017225 0.076705 -0.003077 -0.046964 0.024801 -0.022300 0.086080 -0.010826 0.047779 -0.028973 0.020582 0.079400 -0.105279 -0.076460 -0.074297 0.090725 -0.004809 -0.055436 -0.054300 0.055056 -0.009909 -0.029567 0.055528 -0.067885 -0.027514 0.028718 -0.068445 0.045587 -0.041476 0.032685 -0.028655 -0.082083 -0.026809 0.030117 0.003618 -0.000889 -0.021999 -0.123113 0.036928 -0.030224 -0.010692 0.038275 -0.206933 0.067812 -0.000322 0.026251 -0.028168 0.028309 -0.130988 -0.091450 -0.042073 0.000885 -0.105546 -0.066657 -0.064746 -0.015809 0.026493 0.020711 -0.134486 -0.026153 -0.123012 0.054789 -0.074749 -0.070140 0.003532 -0.153325 0.009291 0.058034 -0.022928 -0.003107 0.012196 -0.049320 0.074640 0.080663 0.061223 0.055592 0.073636 -0.057107 0.041111 -0.061169 0.011951 0.023148 0.005518 -0.130246 -0.017781 -0.051616 0.015957 -0.062242 0.059524 0.077307 -0.011358 -0.071210 -0.026554 0.031085 -0.041016 0.027915 -0.088353 -0.096922 0.066053 0.080198 -0.058749 0.048696 0.002555 -0.084693 -0.059787 0.079904 0.001112 -0.011361 -0.000100 0.044616 -0.060736 -0.004996 0.021541 0.110725 -0.060427 0.091068 -0.025520 0.004060 0.033807 0.055224 -0.000762 -0.043910 0.015637 0.054160 0.038036 -0.006958 0.018032 0.011006 -0.048418 0.002323 -0.005360 -0.069435 -0.087982 0.053212 -0.018978 -0.031434 -0.022220 -0.032539 -0.015990 0.121824 -0.061886 -0.006024 0.048570 0.006385 -0.016844 -0.113151 -0.046112 -0.083821 0.036766 -0.077273 -0.008107 -0.037391 0.013334 -0.024844 0.014910 -0.060316 0.100541 -0.012286 -0.003117 0.106131 0.008651 -0.014493 0.023535 -0.029596 0.108083 0.024502 0.064453 0.037251 0.033676 0.032348 0.028020 -0.143822 -0.030321 0.034933 -0.003882 0.024316 -0.060828 -0.074468 -0.037349 0.028935 0.025503 -0.028463 -0.052480 -0.115293 -0.026091
deceive_duty 0.151327 0.027178 0.003891 0.043004 -0.050212 -0.001957 0.074478 0.027569 0.009861 0.022543 0.072637 -0.043246 -0.033036 0.088146 -0.089406 0.076737 0.005430 -0.030582 0.016516 -0.020227 0.030981 -0.097084 0.058286 0.018685 0.055388 -0.021269 0.041770 -0.008429 0.051584 0.079833 0.050298 -0.043790 -0.024826 0.006445 -0.023078 0.023697 0.026927 0.035877 -0.070584 0.051605 -0.000475 0.076977 -0.014578 -0.140915 0.003422 -0.027335 -0.060726 -0.003538 -0.044857 0.033392 0.000099 0.146102 0.100271 0.037685 0.026419 0.012492 0.022683 -0.036365 -0.011581 -0.031307 -0.030477 0.030354 -0.094911 0.003447 0.015625 0.054534 -0.089834 0.037118 -0.128807 0.011025 0.053704 -0.013775 0.005895 -0.023800 -0.021004 -0.035314 -0.006490 -0.013401 0.075808 -0.090977 -0.060954 -0.042068 -0.043752 0.017983 -0.036481 0.048348 -0.030117 -0.030680 0.007550 0.059006 0.029468 -0.041160 0.013678 0.049620 0.085710 -0.127951 0.100271 0.005814 0.069889 -0.009733 0.020965 -0.058899 0.087635 0.058555 -0.009484 -0.064594 0.034980 -0.018001 -0.005369 -0.019630 -0.028322 -0.011427 -0.072228 0.084529 0.063374 0.002362 -0.043242 0.071914 0.051659 0.105948 -0.010742 0.131838 0.017407 0.095115 0.010983 0.064908 0.005560 -0.019675 0.090771 -0.003428 -0.086082 0.013863 -0.078896 -0.005467 -0.009776 -0.053037 -0.027820 0.129226 0.024696 0.036738 0.006546 -0.026579 -0.025021 -0.040063 -0.093353 0.025756 -0.100615 -0.062044 -0.014338 0.049206 -0.042104 0.008326 0.023539 0.063896 0.090810 0.005477 -0.088462 -0.107012 -0.082349 -0.020995 -0.013965 0.067695 -0.027662 -0.021934 -0.013994 -0.018032 0.028108 -0.018033 0.029805 -0.017771 -0.011446 -0.062014 0.014099 -0.063646 -0.015316 -0.075808 -0.027341 -0.094889 -0.072874 -0.161397 -0.037474 -0.109792 0.004662 0.071479 0.055947 -0.029491 0.007118 0.034087 0.026379 0.060559 -0.054789 0.025910 0.113121 -0.005121 0.071252 0.061219 0.069745 0.106380 -0.129328 -0.065812 0.033599 -0.045094 -0.057247 -0.045038 -0.030740 -0.023160 0.015774 0.026518 -0.050586 -0.075603 0.051135 0.022911 -0.010240 -0.007217 -0.014449 -0.078016 -0.013752 0.030140 -0.115250 -0.056409 -0.081270 0.018554 -0.028355 0.067895 0.072371 -0.082372 0.000786 0.026644 0.040590 0.009799 0.044547 -0.005411 0.038662 0.058720 0.086779 0.017562 0.027562 0.004784 -0.015663 0.000279 -0.056393 -0.044729 0.062809 -0.046584 -0.027036 -0.009619 -0.080020 -0.036988 -0.026250 -0.079428 0.073463 -0.050670 0.035352 -0.111670 0.069681 0.024635 -0.012125 0.026687 -0.016207 -0.046571 0.029826 0.002255 0.034545 0.087476 0.082225 0.026545 -0.013557 -0.040080 -0.060501 -0.186418 0.030670 -0.039038 0.018213 -0.000995 0.118891 -0.003645 -0.109081 0.048650 -0.014868 0.134163 0.020650 0.011279 0.104576 0.097022 0.005244 0.034638 -0.073979 -0.052095 0.140216 0.010786 -0.000665 -0.044868 -0.046240 -0.003361 -0.101317 -0.029239 -0.071031 -0.116775 -0.012181 -0.017297
dark_bile 0.032298 0.041193 0.054405 -0.066704 -0.020131 0.000752 -0.012976 -0.068654 0.124805 0.022871 -0.025635 0.017799 0.009500 0.002113 -0.046325 0.004725 -0.032705 0.174747 -0.048746 -0.179904 0.066250 -0.011551 0.009688 -0.042388 -0.026650 0.014696 -0.013251 -0.005536 -0.000011 -0.096570 -0.070144 0.025229 0.075459 0.029763 -0.099931 0.053808 0.014726 -0.105645 -0.056169 0.053415 0.099415 -0.054404 0.016571 -0.113794 -0.065304 0.057529 -0.046051 -0.058365 -0.098412 -0.007064 -0.075498 0.090226 -0.014137 0.041535 0.055454 -0.058065 -0.037731 -0.085500 0.066850 -0.008640 -0.089808 0.012163 -0.080433 0.008694 0.004732 -0.054664 0.011989 -0.007184 -0.055861 0.096398 0.024579 -0.018200 0.080390 0.018667 -0.083069 -0.013812 0.085311 0.027568 0.064078 0.107823 0.100382 -0.061118 -0.004710 -0.093780 -0.094271 0.007094 -0.034485 0.022739 0.070594 0.042490 -0.037697 0.044738 0.012093 0.003107 -0.000511 0.022656 0.001608 -0.021987 0.023013 0.024596 0.031431 -0.012517 0.066173 -0.153183 -0.027016 -0.049963 0.016285 0.030480 -0.028546 -0.078958 -0.042688 -0.014952 0.043615 -0.014421 0.060076 -0.014102 -0.028910 -0.039466 0.062880 0.125003 -0.065413 -0.065908 0.022641 -0.047132 -0.067430 0.007001 -0.047910 0.073995 0.072257 -0.050972 -0.123035 0.080533 -0.017167 0.071179 -0.038080 0.089690 0.010738 -0.011951 0.074766 0.024436 0.034109 -0.053034 0.018533 -0.004798 0.094110 -0.008210 -0.018895 0.104113 -0.039492 -0.052575 0.061427 -0.035580 -0.077309 0.034187 -0.058944 -0.044990 -0.043082 -0.092465 -0.102464 -0.050122 -0.049340 -0.067004 -0.042191 0.033490 0.053699 -0.074405 0.029204 0.014493 0.017258 0.012062 -0.024190 0.051421 -0.049527 0.076259 -0.035291 -0.071106 0.044567 -0.071025 -0.009417 -0.112407 0.013313 -0.002843 -0.046841 -0.047076 -0.090575 -0.021853 -0.017428 -0.000722 0.032550 0.011151 0.039140 -0.024389 0.029136 -0.026095 0.055210 0.056599 -0.094184 0.005765 -0.094259 0.131725 0.102965 -0.014752 0.029440 -0.003932 0.048305 -0.050539 -0.001738 -0.016475 -0.069351 -0.071440 -0.111929 -0.018715 -0.041373 -0.007832 -0.043492 0.028316 -0.041180 -0.011575 -0.035253 -0.009985 0.016347 0.044584 0.021812 0.038266 0.034728 0.062256 0.035794 0.054981 -0.003176 -0.026662 0.105447 -0.039406 0.059736 0.054168 0.008076 -0.071128 0.005378 -0.019832 0.055291 -0.033804 0.124485 -0.059921 -0.032219 -0.028824 0.028080 -0.011791 0.078404 0.058744 0.025344 0.107602 0.017433 -0.042896 -0.008185 0.105000 -0.046565 -0.124560 -0.055097 -0.034489 -0.075388 0.007456 -0.006309 -0.039258 0.029820 0.106244 -0.033610 -0.009215 -0.100559 -0.061321 0.076209 -0.017371 0.038172 -0.017721 0.038267 0.047981 0.040977 -0.034797 -0.077958 -0.021265 -0.040582 0.057774 0.023590 -0.056836 0.113742 -0.023264 0.062776 0.038260 0.018611 0.103426 0.000243 -0.040817 -0.053275 0.030311 -0.033072 0.018752 -0.122340 -0.012488 0.071088 0.027217 0.065668 0.113027
eight_foot 0.040604 0.054133 0.008691 -0.051196 0.092130 -0.061774 0.000990 -0.064110 0.027736 0.039811 0.034975 -0.007451 0.063252 0.016123 0.071234 -0.004383 -0.038941 -0.022233 -0.064322 0.020373 -0.117206 0.023159 -0.124211 -0.002670 -0.003096 -0.027006 -0.097144 0.033517 0.083861 -0.093317 -0.010132 -0.029163 0.078047 -0.040090 -0.019922 -0.049202 -0.017196 0.008876 -0.123667 0.012983 0.133808 -0.032784 0.024138 -0.017299 0.028866 0.044463 0.011404 0.030615 -0.017223 -0.080012 -0.019501 0.087862 -0.033149 -0.112765 -0.014632 0.031842 -0.001994 -0.059284 0.002972 -0.025288 -0.030640 0.039726 -0.028773 -0.083522 -0.025263 0.040550 -0.005058 0.070566 -0.001748 0.129173 -0.012431 0.021046 0.020457 0.027791 -0.072445 -0.060637 0.021360 -0.046805 0.027412 -0.019350 0.043811 -0.064024 -0.009833 -0.057635 -0.025848 -0.017418 -0.072041 -0.011260 0.078687 -0.093420 -0.035089 0.092914 -0.029910 0.038248 0.007333 -0.025105 0.021822 -0.046980 0.000915 0.023570 0.009340 0.010330 0.069562 -0.039940 0.002623 -0.020904 0.042630 -0.030744 -0.033839 -0.043554 -0.026143 -0.043957 0.014722 0.005688 -0.016362 0.027501 0.085728 0.066538 0.047722 0.017797 -0.117421 -0.007882 -0.027334 0.087820 0.046284 -0.056786 0.068786 -0.075467 0.044035 0.123415 -0.062080 0.052126 -0.005678 -0.010797 -0.107848 0.033804 -0.052407 0.006008 -0.011446 0.066935 0.026258 0.000662 0.034460 0.040019 0.048410 0.047249 -0.006989 -0.029139 -0.102317 0.002092 0.065799 -0.032574 -0.130241 0.066626 0.046682 0.072851 -0.055415 -0.091910 0.017244 0.025094 -0.005355 0.010829 0.149573 -0.076457 0.069024 0.029494 0.020977 -0.072328 -0.086541 -0.094870 -0.077424 -0.008654 -0.078459 -0.060974 0.023182 -0.099683 0.007151 -0.017924 -0.063872 0.004109 -0.041191 -0.053373 0.096972 0.093178 0.038541 0.000681 0.065822 0.059503 0.091681 -0.070841 0.084279 -0.120830 0.083355 -0.006693 -0.096201 0.083614 0.081057 0.104082 -0.054243 -0.062482 -0.034916 0.024751 0.033901 0.086189 0.081601 -0.131317 0.010492 -0.055941 0.023412 0.002709 -0.076326 -0.055003 -0.017762 -0.016332 -0.055071 0.025178 -0.016591 -0.050906 -0.013906 -0.011072 -0.029136 -0.004770 0.005030 -0.062632 0.096837 -0.074210 -0.021412 0.084234 0.014113 -0.065859 -0.005496 -0.063379 -0.027354 0.101137 -0.079529 0.069055 0.037245 -0.013544 -0.000840 0.000876 -0.046983 0.159260 0.059949 -0.154542 0.007152 0.021122 -0.018449 -0.032736 0.082690 -0.070479 0.055252 -0.067327 -0.015292 0.092766 0.095887 -0.022115 0.072290 0.017241 -0.065926 -0.072841 0.003377 0.007376 -0.078650 0.015996 0.041606 0.034170 0.036001 0.023541 -0.068537 0.053677 0.076223 0.044770 0.003423 -0.044890 0.087078 0.004867 -0.117838 -0.030081 0.042661 -0.075415 0.041135 -0.037422 0.052369 0.029626 -0.062628 -0.014245 -0.094837 0.084613 0.062896 0.068886 -0.019069 0.016842 -0.094054 -0.031438 -0.005424 0.049315 -0.040707 0.018291 -0.052819 -0.048671
few_rule 0.016792 0.037188 -0.027609 0.080322 0.009435 -0.139481 -0.034546 -0.083457 0.021568 -0.000564 -0.063959 -0.080074 -0.017936 0.077369 -0.106502 0.105423 0.083933 0.035276 -0.144812 -0.006937 0.038775 0.018394 -0.024285 -0.011780 -0.019407 0.043226 -0.050725 0.040826 0.028877 0.129144 -0.137822 -0.032699 0.039582 -0.023371 -0.105831 0.050434 0.070048 -0.046596 0.059660 0.023242 0.144640 -0.042798 0.068623 0.017244 -0.024418 0.020357 -0.108671 -0.076477 -0.038250 -0.024086 -0.015863 -0.058843 -0.134857 -0.013597 -0.023767 0.048316 0.043015 -0.015778 -0.010450 -0.070228 -0.032204 0.042265 0.037529 -0.025946 -0.079669 -0.023980 -0.016332 0.075117 -0.058020 0.036805 0.007698 0.054971 -0.025150 -0.009935 -0.122381 -0.084372 -0.041064 0.027064 0.073493 0.068311 0.056968 -0.036184 -0.032251 0.005186 -0.057732 -0.045700 0.011784 -0.017510 -0.035826 0.023027 0.049265 0.051338 -0.036296 0.043758 -0.048914 0.053221 0.029484 -0.064572 -0.015392 -0.010139 -0.042055 0.065645 0.044054 -0.006151 0.000825 -0.101620 0.052685 -0.019312 -0.007780 -0.100331 -0.004434 0.056913 0.031683 -0.021654 0.017014 -0.038789 0.008254 0.030603 0.043218 0.037976 -0.034774 0.071406 -0.089286 0.079165 0.063557 -0.035920 0.022950 -0.010401 -0.054200 0.007063 0.102368 -0.104011 0.004431 0.004769 0.013842 -0.002460 -0.016107 0.080827 -0.054784 0.032265 0.031983 -0.087447 0.115262 0.048885 0.096292 -0.021237 -0.063355 0.001555 0.063214 -0.012714 -0.029805 0.005771 -0.060114 0.019997 -0.000324 0.026335 -0.005373 0.016239 -0.012617 0.074615 -0.059495 0.068725 0.054857 -0.079012 -0.010839 -0.037803 0.053852 0.004878 0.051395 -0.119386 -0.111731 0.051063 -0.108323 -0.073880 0.014262 -0.070090 -0.041850 -0.029879 -0.015551 -0.015493 -0.092557 -0.021225 0.025201 0.045812 0.048116 0.074822 0.042506 0.041623 0.050013 0.012804 0.012032 0.043791 0.087350 0.020550 -0.068603 -0.020624 0.021121 0.001235 -0.079147 -0.033385 -0.011662 0.063885 0.054477 0.014753 -0.006319 -0.050545 -0.019346 -0.008059 -0.019507 -0.018409 -0.049471 -0.004082 0.068519 -0.071173 0.018228 0.125633 0.013275 0.030938 -0.096704 0.035391 -0.047678 -0.002815 0.028372 -0.044382 0.069877 -0.102904 0.050115 0.075452 -0.012978 0.076072 -0.003001 -0.042184 0.070991 0.000025 0.101038 0.030903 0.020641 -0.033702 -0.014814 -0.036792 -0.028832 0.033735 0.072009 -0.092819 0.071103 -0.007845 -0.035266 0.067467 0.042030 0.026606 0.041448 0.006682 -0.026419 -0.014201 0.033955 0.004394 -0.007441 0.114551 -0.098659 -0.095738 0.052835 -0.064609 -0.038259 -0.033184 0.025359 0.044554 -0.026008 0.019640 -0.071437 -0.012290 0.187040 0.144596 0.039988 0.037798 -0.068088 -0.128364 -0.045674 -0.035541 -0.041131 0.004152 -0.007861 0.090023 0.126625 0.062208 0.063006 -0.026077 -0.094469 0.057871 -0.102717 0.101373 -0.030313 0.002602 -0.032045 -0.121840 0.006607 -0.035756 0.010164 -0.021243 0.003498 -0.016305
correct_belief -0.035400 -0.040220 0.029490 0.025478 -0.066227 0.046101 0.122924 -0.003801 0.033604 0.025160 -0.088981 0.018007 0.060691 0.100170 -0.040414 0.106409 -0.021556 0.033989 -0.048884 -0.071527 0.029588 -0.010817 0.048465 0.030723 -0.030520 -0.020305 -0.086344 0.059013 0.008208 0.040001 -0.032549 -0.026668 -0.040456 0.017562 0.030661 0.048894 0.055655 0.104278 0.044335 -0.092272 0.104434 0.040924 0.020018 -0.123499 0.035322 -0.050966 -0.041726 -0.030645 -0.084477 -0.012487 0.004693 0.017504 -0.034494 -0.082157 0.026554 0.078656 -0.000259 -0.098269 -0.033788 -0.057512 0.020333 0.105875 0.018002 -0.052933 -0.057070 0.031078 -0.033576 0.086601 -0.009316 0.005243 0.069491 -0.021880 0.031188 0.041366 -0.065357 0.036455 0.072227 0.095186 0.039486 0.097883 0.002862 -0.057097 0.049528 -0.019165 -0.015664 -0.086827 -0.010746 0.090852 -0.010221 -0.034789 0.062182 0.029466 0.001400 -0.073228 0.018547 0.018824 -0.081071 -0.030755 0.109944 0.041616 0.035938 0.002100 0.069807 0.071051 -0.019028 -0.049183 -0.102652 -0.018429 0.068207 -0.072521 -0.075288 -0.017281 -0.123242 0.116337 -0.004659 0.023167 -0.005438 0.055942 0.004564 0.048872 -0.116925 0.010691 0.013396 0.005942 -0.089183 -0.043446 -0.080790 -0.025071 -0.082955 0.069846 -0.119833 -0.129864 -0.077491 -0.064047 0.067563 -0.061252 -0.009554 0.082796 0.020157 0.168730 0.034463 -0.024245 -0.038867 0.072636 -0.041112 -0.020209 -0.114212 0.017730 0.079071 0.023475 0.007185 -0.002466 0.001582 0.080713 0.039863 0.041085 -0.080229 -0.117800 -0.099165 0.092861 -0.010087 -0.063516 -0.006020 -0.087632 -0.041439 -0.106612 0.025360 -0.046567 -0.070209 -0.039059 -0.006869 0.024800 0.001951 -0.067905 0.006362 0.008259 0.049851 -0.055287 -0.026579 -0.096557 -0.129905 0.015932 -0.016139 0.030520 0.060295 0.002648 -0.085742 -0.008704 0.000950 0.086073 -0.001355 0.082404 0.012330 -0.015463 -0.083286 -0.090338 0.034419 0.016605 -0.044513 -0.039188 0.031509 -0.020822 0.026184 -0.076020 0.009108 -0.069457 0.045808 0.000985 0.008212 -0.127774 -0.099946 -0.006214 0.040116 -0.003811 -0.083401 0.006908 0.038968 0.009426 -0.005586 0.048238 -0.076302 -0.038515 -0.023952 -0.035953 0.005621 0.001956 0.060965 -0.059105 0.008380 0.077852 0.003376 -0.016985 0.020160 -0.017972 0.032832 0.069262 0.062247 0.011439 -0.024143 0.065502 -0.038112 -0.023219 -0.067617 -0.048786 -0.045469 0.088406 0.027619 0.034308 -0.023296 -0.010699 0.000656 0.046303 -0.065416 0.010528 0.010809 -0.111496 -0.051884 0.000964 -0.001024 -0.105574 0.024488 0.006397 -0.002552 0.093192 0.018304 0.031431 0.095994 -0.114861 0.000691 -0.104242 -0.020637 0.054204 0.079570 0.042218 0.016139 -0.002395 -0.061986 -0.086066 0.046385 0.080757 -0.010021 0.067144 0.028216 -0.083804 0.060924 -0.010112 0.022529 -0.014560 -0.029918 0.038609 0.050092 0.148777 -0.013335 -0.060124 0.039937 -0.017257 -0.089868 -0.024509 0.022223 -0.034321
sharp_kind 0.080140 0.026336 0.017010 0.188186 -0.121236 -0.048446 0.035205 -0.109757 0.056997 0.055880 0.013331 -0.022181 -0.013101 -0.067189 -0.078357 -0.032099 0.038252 0.080957 -0.038645 -0.137058 0.043500 0.074905 0.024089 -0.019291 0.004808 -0.045507 0.019033 0.033035 0.057183 0.037984 -0.121747 0.039478 0.102164 0.038750 -0.020489 0.017920 -0.035195 -0.034887 0.029537 0.068220 0.115293 -0.052669 0.170924 0.019355 -0.003676 0.045632 0.010758 -0.031298 0.077187 0.015453 0.026657 0.085288 -0.080880 0.040672 0.070149 0.040963 0.006417 -0.024414 0.054333 -0.131256 -0.012600 0.055461 -0.050482 -0.009203 0.052412 0.009233 0.027807 -0.026411 -0.039676 0.005256 0.050740 -0.063533 0.104106 0.009219 -0.148621 0.033974 0.068831 0.134244 -0.031224 0.081745 0.085016 -0.023209 0.010000 0.061072 -0.013062 -0.147106 -0.029852 0.094444 -0.007863 -0.012856 0.027568 0.067303 -0.078116 0.012096 0.055244 -0.030697 0.045174 0.082834 -0.061054 -0.021237 -0.062314 -0.061918 -0.056619 -0.066415 0.029905 -0.029358 0.053283 0.073078 0.029257 -0.098066 -0.043173 -0.025369 -0.049563 0.012492 0.073253 -0.025764 0.065512 0.022433 0.061672 0.025716 -0.053510 0.025743 -0.021261 0.072207 -0.034079 0.028466 0.031569 -0.045744 0.064779 -0.007670 -0.095630 -0.036583 -0.097817 -0.001740 0.042248 -0.087448 0.052159 0.008868 -0.048336 -0.015207 0.009309 0.003690 -0.001031 0.035800 -0.036955 0.023424 -0.015358 0.014392 -0.040670 0.000719 0.093365 0.037219 -0.081899 0.129486 -0.079044 -0.041044 -0.024775 0.000474 0.064570 0.031046 -0.026274 0.060728 0.051899 -0.032436 0.019447 -0.011673 -0.011313 -0.099608 0.039483 -0.010709 -0.039663 -0.004447 0.007736 -0.073080 -0.014827 -0.034097 0.053525 -0.013760 -0.014640 0.006323 -0.065341 -0.061540 0.067613 -0.014150 -0.061160 0.033276 -0.037709 -0.057049 -0.038887 -0.007963 0.038819 -0.008453 0.068191 -0.031209 -0.067829 -0.034809 -0.086241 -0.008934 -0.117276 0.008835 0.074064 -0.002206 -0.035223 0.082145 0.017079 0.030534 -0.014674 -0.100633 0.075281 -0.023447 -0.094301 0.071625 -0.024067 0.058090 -0.015339 -0.110603 0.004322 0.067569 -0.038122 0.015418 0.097581 0.041974 -0.089563 -0.034541 -0.023407 0.009942 0.095246 -0.067030 0.051776 0.053782 -0.012987 0.060786 0.067899 0.006228 0.059098 -0.013024 -0.000574 -0.030694 0.093041 0.018205 0.125892 -0.042475 0.012899 -0.045489 -0.008020 -0.041372 0.041528 -0.031381 -0.001464 -0.041777 0.096311 0.010263 -0.007361 0.037935 0.019754 -0.083544 0.075780 0.016308 -0.110106 -0.075721 -0.027692 -0.024998 -0.061984 -0.024020 0.015256 0.052670 0.016174 -0.130242 -0.033403 0.068283 0.017905 0.081790 0.117510 0.027479 0.009400 0.012376 -0.048655 -0.074827 0.005701 0.072721 -0.055347 0.009165 0.047920 -0.010697 0.058692 -0.026958 -0.054553 -0.104635 -0.048368 -0.015216 -0.106563 -0.034792 -0.060681 0.026782 -0.087929 -0.019420 0.037839 0.017947 -0.001330 0.033929
cut_brain -0.001614 0.025374 0.005190 0.057358 -0.046654 0.047891 -0.022611 -0.036662 0.131910 0.004490 -0.037607 -0.010735 -0.070884 -0.054384 -0.010779 0.013023 -0.049786 0.128911 0.045018 0.038891 0.044559 0.032588 0.080278 0.028029 0.008450 -0.047862 -0.062190 -0.067561 -0.020504 0.033263 -0.045562 0.020162 -0.069062 -0.007245 -0.041147 -0.143320 -0.019320 0.054440 -0.002438 0.132071 0.004118 0.012224 -0.004009 -0.023241 0.030844 -0.009462 0.044780 -0.057272 -0.000647 0.000454 -0.043910 -0.003678 -0.032257 -0.013009 0.062538 -0.076920 -0.078179 -0.000690 -0.042575 0.069816 -0.053868 0.039712 0.077104 0.001251 -0.022583 0.041282 0.066216 0.072687 0.021465 -0.027713 0.033899 -0.101887 -0.009791 0.029262 -0.130953 -0.087535 0.107864 0.086264 -0.065495 -0.059998 0.116015 -0.043394 0.049832 -0.047990 -0.003868 -0.083028 0.056897 0.123380 0.005141 0.003370 0.036870 0.039603 0.061733 -0.019132 -0.078985 -0.074273 0.011388 0.011230 0.010216 0.062444 0.001955 -0.003633 -0.017524 -0.082728 0.089622 -0.114481 0.018523 -0.045580 -0.006629 -0.076536 -0.071088 -0.104506 0.017581 -0.003382 0.186509 -0.022506 0.091972 -0.029325 0.006521 0.013067 0.021118 0.035816 0.021997 -0.034684 0.067662 -0.070881 -0.032591 0.043835 0.007046 0.023351 0.024648 -0.076596 -0.042589 -0.054493 -0.022918 -0.014807 -0.009669 0.054580 -0.015994 -0.039969 0.006974 -0.127535 -0.092901 0.091739 -0.008734 0.108604 -0.087560 -0.026497 -0.022928 -0.067467 0.035671 0.054746 -0.041688 0.103043 0.023230 -0.086454 0.008335 -0.108751 -0.040316 0.048236 -0.026062 0.073097 0.024916 -0.044638 -0.040382 -0.028245 0.087055 -0.099674 0.067459 -0.070644 -0.063150 -0.057778 -0.056461 0.034290 0.025207 0.022263 0.059195 -0.031346 -0.036042 -0.001717 -0.076815 -0.098207 0.060747 -0.032274 0.003235 0.055006 -0.052403 -0.070826 0.035421 -0.028988 0.020571 -0.043832 -0.012877 -0.032616 0.087761 -0.004396 0.017989 -0.109694 0.016317 -0.052644 -0.026850 -0.038713 -0.024691 0.052490 0.041948 -0.073432 -0.043972 -0.048734 0.041044 -0.091895 -0.084417 -0.057783 -0.051806 0.133465 0.039703 -0.006459 0.011709 -0.017663 -0.047122 -0.036182 -0.046547 -0.065198 0.055435 -0.098723 0.015764 -0.036028 -0.062548 -0.071635 0.025688 0.062320 0.047617 -0.019173 -0.006661 -0.012116 0.006388 -0.046108 -0.020714 -0.074838 -0.015422 -0.038441 0.055047 -0.006182 -0.060347 -0.138585 0.080525 0.036750 0.081593 0.045894 0.011518 -0.044984 0.016745 -0.128115 -0.044943 0.000913 0.012607 -0.129701 -0.017728 0.031022 -0.018762 -0.052394 0.040917 0.009796 -0.106406 0.027276 -0.043082 -0.053713 -0.068416 -0.045692 0.065423 -0.077538 0.020572 0.044035 0.064088 -0.105621 0.080126 -0.072835 -0.063856 -0.026781 -0.027079 0.070267 0.046341 0.000020 -0.007015 -0.029421 -0.015720 -0.086666 -0.095744 0.021746 0.085996 0.050707 -0.027698 -0.006117 -0.050297 -0.038406 -0.143886 -0.041615 -0.010452 -0.028766 -0.030126 -0.008923
